-0.749931 
0.339946 
0.035340 
0.664815 
0.183325 
0.173345 
0.757469 
-0.028291 
-0.470748 
0.350902 
0.246254 
-0.800714 
0.345561 
-0.576861 
-0.262581 
-0.000183 
-0.715812 
-0.711295 
0.599902 
0.225288 
-0.230949 
0.023588 
0.907448 
0.125759 
0.698170 
0.325594 
-0.429904 
-0.768994 
-0.643371 
-0.255470 
0.137809 
0.145384 
-0.525997 
0.190940 
-0.852021 
-0.288460 
-0.357827 
-0.182775 
-0.012369 
0.446376 
0.054659 
0.012966 
-0.782064 
0.064974 
-0.324229 
-0.249993 
-0.635282 
0.301765 
-0.597980 
0.371155 
0.008001 
-0.653798 
0.375316 
0.111056 
0.108068 
0.277138 
-0.222693 
-0.451088 
0.717482 
-0.054780 
-0.624712 
-0.083595 
0.789453 
-0.550298 
-0.222144 
0.125370 
-0.575213 
0.057039 
-0.301553 
-0.326792 
0.030396 
-0.606525 
0.013459 
-0.099521 
-0.080477 
-0.208299 
0.663340 
0.251693 
0.780663 
-0.631244 
0.444622 
-0.002482 
-0.067729 
0.218791 
0.154118 
0.440834 
0.068684 
0.014571 
0.410949 
-0.043284 
0.142924 
-0.688403 
0.768436 
0.463844 
-0.166723 
0.601611 
0.327968 
-0.765990 
0.049382 
0.121242 
0.208430 
-0.211887 
0.014046 
-0.016234 
0.267735 
0.902050 
0.138432 
-0.483033 
0.222844 
0.307810 
-0.944698 
-0.120595 
0.539612 
0.665045 
-0.392041 
-0.709578 
-0.511598 
0.510758 
-0.700850 
-0.178622 
-0.861324 
-0.757836 
-0.326975 
-0.563524 
-0.202372 
0.097472 
0.004671 
-0.061432 
0.281320 
-0.057861 
0.558980 
-0.509061 
-0.102366 
0.039294 
0.157775 
-0.426571 
-0.085934 
0.249239 
0.749473 
0.297922 
0.255262 
-0.126133 
0.462425 
0.008809 
-0.110294 
0.669338 
0.325271 
-0.669078 
-0.158634 
0.091204 
-0.786462 
-0.379276 
-0.375420 
0.429707 
0.269344 
-0.356418 
1.015208 
0.512585 
-0.486629 
-0.390184 
-0.358068 
-0.196326 
-0.389533 
-0.146866 
-0.080782 
-0.199231 
-0.075242 
-0.272461 
0.131169 
-0.412600 
-0.714034 
-0.740577 
-0.291849 
0.580390 
0.627391 
0.032914 
-0.111308 
-0.348191 
-1.015205 
0.129379 
-0.470202 
-0.239850 
-0.188938 
0.296670 
0.721734 
-0.504929 
-0.636158 
0.384899 
-0.088199 
-0.668020 
-0.017182 
0.550859 
-0.927061 
-0.397229 
0.113224 
-0.222571 
-0.134404 
-0.018043 
0.095819 
-0.253263 
0.417792 
-0.936432 
-0.209569 
-0.503544 
0.453608 
-0.698843 
0.930697 
0.320217 
-0.045993 
0.096192 
0.135098 
-0.454164 
0.524925 
-0.069265 
0.467855 
-0.292980 
0.043092 
-0.579643 
0.069850 
0.429128 
0.701303 
0.266936 
0.865233 
-0.559347 
0.292967 
-0.126518 
0.261143 
-0.130009 
0.173499 
0.722816 
0.130539 
-0.157231 
0.614445 
0.559683 
-0.357336 
-0.075466 
-0.606762 
-0.510373 
0.201910 
-0.653807 
0.002974 
-0.538896 
-0.157634 
-0.965391 
0.524872 
-0.445643 
-0.139741 
-0.403582 
0.122672 
-0.822169 
0.172804 
0.642386 
0.107053 
-0.446758 
0.047711 
0.123124 
0.512660 
-0.070269 
0.045623 
-0.251937 
0.215247 
0.414332 
0.528795 
0.335413 
0.035053 
0.332083 
-0.387355 
0.215506 
-0.424749 
0.048018 
-0.485651 
-0.690146 
-0.045709 
0.073716 
-0.263344 
-0.232014 
0.038915 
-1.262729 
0.454186 
-0.529141 
-0.503587 
-0.590400 
0.344523 
0.224991 
-0.182737 
0.216476 
-0.467199 
0.475506 
0.126670 
0.301719 
0.667815 
0.303158 
-1.035943 
0.120579 
-0.161540 
1.060057 
-0.356975 
0.416690 
-0.455141 
-0.437718 
-0.677721 
-0.140132 
0.476968 
-0.066686 
-0.040986 
0.709492 
0.310018 
0.383012 
-0.915873 
0.805339 
0.361770 
-0.553375 
1.134066 
0.594313 
0.772978 
0.037873 
-0.225445 
-0.314479 
-0.522508 
-0.621986 
-0.226376 
0.699781 
0.727107 
0.270891 
-0.784818 
0.095322 
0.640980 
0.244676 
-0.093072 
-0.199744 
0.684587 
0.546556 
-0.661232 
0.230671 
-0.214459 
-0.262246 
-0.763219 
-0.312174 
-0.730573 
-0.453392 
0.201330 
0.065198 
-0.393585 
0.242998 
-0.954287 
0.221296 
0.165527 
0.407705 
0.798303 
-0.201725 
0.224791 
-0.206385 
0.263247 
0.304535 
-1.050653 
0.106104 
-0.542656 
-0.152298 
-0.889643 
0.214270 
-0.291538 
-0.454024 
0.219733 
0.418226 
-0.064364 
-0.187170 
-0.545915 
-0.162481 
-0.189154 
-0.588122 
-0.339701 
-0.163976 
0.376023 
-0.132638 
-0.168167 
-0.073656 
0.154345 
-0.919906 
-0.609764 
0.358088 
-0.025874 
0.169042 
0.619779 
0.295654 
-0.697509 
-0.435636 
-0.538996 
-0.228715 
-0.233581 
-0.231451 
-0.571718 
0.525573 
0.530931 
-0.736480 
-0.375570 
-0.542436 
-0.238999 
0.078423 
0.495072 
0.405654 
-0.011035 
0.427100 
0.351492 
0.847468 
-0.072246 
-0.044267 
0.114096 
1.350725 
0.837267 
-0.585156 
-0.405754 
-0.350951 
0.392568 
0.568179 
0.175207 
0.038179 
-0.586638 
-0.521481 
-0.096845 
-0.431272 
-0.348864 
0.056472 
0.231695 
0.507777 
0.144170 
-0.056093 
0.418020 
0.819365 
-0.692645 
-0.567167 
-0.577746 
-0.465651 
-0.325415 
0.549547 
-0.019875 
0.479790 
0.213050 
-0.653984 
0.034376 
0.585610 
0.392502 
-0.073058 
0.427078 
0.445414 
0.315924 
0.217747 
-0.257053 
-0.596728 
0.371646 
0.117154 
-0.122135 
-0.477507 
-0.398200 
0.487871 
0.244889 
0.422528 
0.073654 
-0.556410 
0.396344 
0.596935 
-0.580633 
0.008275 
1.043644 
0.300821 
-0.634880 
0.403282 
-0.487769 
0.285440 
0.571461 
-0.658101 
-0.014564 
0.096283 
-0.075305 
-0.278633 
-0.181989 
-0.262363 
0.303311 
0.417419 
0.535374 
-0.019264 
-0.356548 
-0.404071 
-0.207794 
-0.205541 
-1.004519 
-0.271862 
0.528656 
-0.016766 
0.349292 
-0.171290 
0.339015 
-0.085330 
0.128725 
0.105106 
0.445112 
-0.000488 
0.457228 
-0.074374 
0.550584 
0.248024 
0.698019 
-0.055177 
-0.293222 
0.317301 
-1.149521 
-0.548568 
-0.352663 
-0.015137 
0.045094 
1.022565 
-0.785465 
0.767906 
0.040747 
0.001587 
-0.318756 
0.476636 
0.171737 
-0.271292 
0.004551 
-1.002935 
-0.271951 
-0.795819 
-1.280081 
0.957368 
0.348033 
0.633389 
-0.221332 
0.715332 
-0.682278 
-0.296042 
-0.407077 
0.229542 
-0.189134 
-0.177275 
0.543770 
-0.409375 
0.094397 
0.666677 
0.281655 
0.509232 
0.306833 
-0.127567 
0.212745 
-0.586413 
0.481216 
0.566698 
-0.103702 
-0.701560 
0.335167 
0.373058 
-0.777265 
-0.256393 
-0.046063 
-0.273726 
-0.547596 
-0.482262 
-0.121442 
0.729972 
-0.375850 
-0.732225 
-0.121839 
0.091221 
-0.468272 
-0.021979 
0.495660 
0.925106 
0.304251 
-0.306239 
0.064058 
0.477553 
0.299649 
0.119869 
-0.999887 
-0.319755 
-0.614716 
0.070947 
0.395993 
0.515869 
-0.618213 
-0.074007 
-0.580029 
-0.061111 
0.081555 
0.622726 
0.218891 
-0.103599 
-0.782046 
0.047927 
-0.259951 
0.835109 
-0.104190 
0.014627 
0.809900 
-0.846980 
-0.421430 
0.831050 
0.422315 
0.259621 
0.200659 
0.210212 
0.172643 
-0.138218 
-0.422742 
0.052011 
-0.340495 
0.379581 
-0.232474 
0.333208 
0.156281 
0.150189 
0.030517 
-0.038571 
0.724662 
0.218904 
0.312983 
-0.493545 
0.100267 
-0.247440 
-0.048994 
-0.876291 
0.711751 
-0.222863 
-0.281102 
0.310465 
-0.557450 
-0.497635 
0.007752 
0.762078 
-0.080783 
-0.711600 
-0.028047 
-0.740440 
0.085696 
-0.199805 
0.011628 
-0.668294 
0.483505 
-0.070009 
-0.561418 
0.316324 
0.934477 
0.105747 
-0.614490 
-0.061525 
0.745354 
0.119144 
0.258980 
-0.611469 
-0.589221 
-0.546251 
0.692557 
-0.099612 
-0.183325 
-0.886776 
0.000031 
-0.170598 
-0.056978 
-0.050630 
0.109916 
-0.769381 
0.146588 
-0.479028 
-0.033014 
-0.212669 
-0.515354 
0.434071 
0.171091 
0.138188 
-0.376556 
-0.237637 
0.424773 
0.634817 
-0.066147 
-0.204579 
0.331165 
-0.890468 
-0.292980 
0.443916 
0.660085 
0.089384 
-0.461629 
-0.073389 
-0.036523 
0.573375 
0.167673 
0.100252 
-0.057853 
-0.098631 
-0.714070 
-0.029389 
0.247017 
0.007305 
0.276926 
-0.800945 
0.494667 
-0.119613 
0.249060 
0.071860 
-1.010224 
-1.544319 
-0.002991 
-0.172386 
-0.758308 
0.101872 
-0.551250 
-0.091574 
0.278369 
0.445583 
-0.606995 
0.467861 
0.082831 
0.417066 
-0.140966 
0.155678 
-0.857645 
-0.010669 
0.033701 
-0.360224 
0.449157 
-0.036880 
0.198850 
0.050373 
-0.398450 
-0.811957 
0.004392 
-0.681683 
-0.342912 
-0.405945 
0.322141 
-0.284872 
-0.048677 
0.680035 
-0.463371 
-0.509232 
-0.496882 
-0.450330 
0.161211 
-0.586470 
0.145709 
-0.119226 
0.020817 
0.430041 
-0.270732 
0.101115 
0.313395 
0.080601 
0.428500 
0.494980 
-0.024904 
0.271300 
0.645737 
0.274974 
0.272010 
0.643777 
-0.451738 
-0.121830 
0.558664 
-0.575387 
0.132201 
0.278260 
0.092029 
0.628896 
-0.590676 
-0.430568 
0.084517 
0.061419 
-0.324747 
0.313604 
-0.391205 
-0.414611 
-0.398273 
-0.248493 
-0.281166 
1.081978 
0.543415 
0.434489 
-0.228748 
0.719565 
-0.167337 
0.341395 
0.672806 
-1.048145 
-0.560432 
0.275100 
-0.301428 
0.671387 
0.423807 
-0.689487 
0.452162 
0.515366 
0.275736 
-0.038414 
-0.249915 
-0.068757 
0.868672 
-0.620949 
0.759412 
-0.243326 
0.010949 
-0.414899 
0.181314 
-0.255751 
-0.220679 
-0.205786 
-0.247169 
-0.559984 
-0.074631 
-0.106213 
0.022053 
0.029186 
0.033174 
-0.081356 
0.054955 
-0.621021 
0.186105 
0.150001 
0.156132 
0.329337 
0.225919 
-0.305623 
0.069280 
0.521531 
0.204069 
-0.633127 
-0.349913 
0.871332 
-0.774287 
-0.096982 
0.687643 
-0.463900 
-0.429626 
-0.219716 
-0.408918 
-0.585418 
-0.003632 
0.347789 
0.633625 
-0.045137 
0.352336 
0.374798 
0.600787 
-0.010651 
0.943968 
0.043397 
0.026887 
0.592532 
0.613497 
0.191015 
-0.982084 
0.636362 
-0.781097 
0.318529 
0.103778 
0.422205 
-0.125187 
-0.099783 
-0.437511 
-0.124515 
0.585306 
0.349411 
0.023697 
0.420137 
-1.017017 
-1.007477 
0.165196 
0.945433 
-0.499607 
0.192185 
0.106517 
-0.113969 
-0.686296 
-0.202939 
0.212743 
-0.284317 
0.413493 
0.666308 
0.509903 
0.139257 
-0.522204 
0.380357 
0.511906 
-0.022599 
-0.417328 
0.222325 
0.146484 
1.104994 
0.023455 
-0.190344 
0.020169 
0.376705 
0.519822 
0.326917 
0.271644 
-0.633389 
0.455830 
0.267613 
-0.829068 
-0.070504 
0.681387 
-0.349581 
-0.477492 
-0.352275 
-0.415911 
-0.087237 
0.497039 
0.773586 
-0.081209 
-0.386288 
0.397499 
0.083346 
-0.047970 
0.311678 
-0.236146 
0.208026 
-0.334429 
0.501366 
0.392500 
-0.458903 
0.202458 
-0.881644 
0.074801 
0.260315 
-0.775739 
-0.199346 
-0.187992 
0.416689 
0.484472 
0.525703 
-0.508456 
-0.102457 
-0.037070 
-0.398572 
0.533297 
-0.729753 
-0.476670 
-0.295356 
0.201978 
0.511722 
-0.446120 
0.284062 
-0.346511 
-0.637996 
-0.049928 
-0.228351 
-0.566093 
0.001750 
0.208936 
1.012109 
-0.090862 
-0.029236 
-0.095282 
-0.186604 
0.634879 
-0.569750 
0.257656 
-0.648730 
-0.011427 
0.256461 
0.160350 
0.760973 
-0.196961 
-0.062093 
-0.120294 
0.600641 
0.222816 
-0.249492 
-0.326029 
-0.049776 
-0.094546 
-0.134770 
0.031098 
-0.335307 
0.151036 
-0.777367 
-0.114536 
0.906064 
0.603656 
0.094961 
-0.029885 
-0.463679 
-0.726753 
0.131942 
-0.029801 
1.208707 
0.585705 
-0.862523 
-0.571245 
0.005963 
-0.334594 
-0.143993 
0.259666 
-0.344707 
-0.214589 
-0.768868 
0.718794 
0.168192 
0.204983 
-0.256539 
-0.400326 
-0.485617 
0.299478 
-0.274261 
0.109124 
-0.141813 
-0.191396 
-0.127156 
-0.203369 
0.135373 
-0.553941 
-0.389508 
0.780706 
-0.083438 
0.093626 
-0.084113 
0.137639 
0.417599 
-0.489942 
-0.354181 
-0.141411 
0.090274 
-0.467757 
-0.634077 
0.302347 
-0.304842 
-0.220241 
-0.327699 
0.163052 
-0.121324 
-0.144407 
0.032639 
0.850124 
0.250671 
0.122244 
0.096257 
-0.397305 
-0.015730 
-0.386896 
0.585369 
-0.243905 
0.846600 
0.157130 
-0.598407 
-0.255922 
0.762153 
0.352397 
-0.134419 
-0.252895 
0.060749 
0.314794 
0.637806 
-0.665791 
-0.159885 
-0.223670 
-0.242002 
0.091657 
0.102469 
-0.230794 
-0.194769 
-0.392878 
0.431072 
0.655130 
0.395186 
0.056463 
0.009766 
-0.193887 
0.227439 
0.255309 
-0.175201 
0.256525 
0.578246 
-0.549733 
0.378567 
-0.236484 
-0.734235 
-0.834071 
-0.015689 
-0.221371 
0.429440 
-0.513528 
0.241745 
-1.048681 
0.689777 
-0.365121 
0.379322 
0.235513 
0.264473 
-0.183780 
0.286620 
0.417693 
0.398622 
0.488899 
-0.673373 
-0.227833 
0.386847 
0.480639 
-0.371885 
0.269234 
-0.725991 
-0.170044 
0.354642 
-0.046607 
-0.107220 
0.904275 
-0.034658 
-0.280098 
0.391199 
-0.521770 
0.118198 
0.373261 
0.341537 
-0.370922 
0.288522 
-0.119144 
0.270913 
0.575579 
-0.142000 
-0.221562 
0.109686 
0.281808 
0.441939 
0.613752 
-0.250217 
0.067436 
-0.680479 
-0.464454 
-0.543341 
-0.315244 
-0.000450 
0.134027 
-0.967956 
0.344973 
-0.167015 
0.370251 
-0.036181 
-0.019147 
0.042751 
-0.206760 
-0.560839 
-0.494680 
-0.161434 
-0.011322 
-0.676038 
-0.157746 
-0.424752 
-0.725136 
-0.411944 
-0.181620 
0.480726 
0.619354 
0.729228 
-0.331235 
0.076846 
0.185008 
0.278276 
0.494766 
0.019683 
0.352361 
0.491250 
-0.211327 
-0.061025 
0.877967 
0.204774 
0.291177 
-0.364183 
-0.439213 
-0.007110 
-0.642038 
0.023933 
0.446750 
-0.739422 
0.004796 
-0.279324 
0.864257 
-0.895810 
-0.669796 
0.126786 
-0.831385 
-0.384275 
-0.532989 
-0.012855 
-0.106664 
-0.276959 
0.044459 
-0.509370 
-0.508621 
-0.485305 
0.133916 
-0.165532 
-0.475520 
-0.932507 
-0.283404 
-0.693827 
-0.635349 
0.773771 
-0.392777 
-0.136204 
-0.594467 
0.310643 
-0.056947 
0.006404 
0.769280 
-0.996345 
-0.049510 
0.555769 
-0.438315 
0.505726 
-0.790124 
-0.221631 
0.133659 
-0.504108 
0.018454 
-0.145444 
0.291748 
-0.018385 
0.375397 
0.042294 
-0.133372 
-0.060244 
-0.720094 
0.507443 
-0.156143 
0.573782 
0.465653 
-0.379605 
-0.732925 
-0.329141 
0.039441 
-0.097979 
-0.189062 
-0.273812 
0.765690 
-0.050020 
0.873075 
-0.021948 
0.109152 
0.376509 
0.106959 
-0.040441 
-0.857225 
-0.616504 
-0.512713 
0.483779 
0.320505 
0.024293 
-0.567583 
0.410718 
0.726341 
0.060884 
0.530686 
0.028932 
-0.789453 
-0.488784 
0.725028 
-0.139317 
-0.245979 
0.733726 
0.021851 
-0.005005 
-0.560442 
0.005158 
0.693777 
-0.084017 
-0.094852 
0.586510 
-0.017527 
-0.156528 
-0.689255 
0.379009 
0.292691 
-0.534374 
-0.310756 
-0.106364 
-0.057466 
0.555803 
0.205664 
-0.362529 
0.271676 
0.348827 
0.134556 
0.920560 
0.439650 
0.258766 
0.220557 
-0.424055 
-0.418745 
-0.290712 
0.949015 
0.160323 
-0.760985 
-0.982470 
0.721980 
0.027097 
-0.228540 
-1.051642 
0.356945 
-0.472519 
0.266694 
-0.690683 
-0.297174 
-0.348019 
-1.073904 
-0.388542 
-0.866443 
0.816025 
0.297486 
0.688040 
-0.495541 
-0.229732 
-0.290675 
-0.005123 
-0.345268 
0.001530 
0.843703 
0.105860 
-0.405156 
0.246970 
-0.173040 
0.016818 
0.311577 
0.096377 
-0.651346 
0.503909 
0.122210 
0.069970 
0.547594 
-0.004602 
0.175198 
0.026276 
-0.201939 
-0.057061 
0.374248 
0.634712 
-0.100281 
0.407260 
0.842703 
0.475696 
-0.210549 
-0.102066 
-0.161870 
0.559339 
0.621645 
-0.459935 
0.242026 
0.591652 
-0.177406 
0.222037 
-0.620264 
-0.457209 
-0.583317 
0.014063 
0.605562 
0.543095 
0.470619 
-0.350865 
0.486089 
-0.080546 
0.318361 
0.418121 
0.401758 
-0.570548 
-0.140425 
-0.902452 
-0.148759 
0.454831 
0.474388 
0.622190 
-0.812808 
-0.457018 
-0.574155 
-0.006408 
0.951696 
0.039865 
0.078483 
0.548205 
0.176973 
-0.822273 
-0.417753 
-0.377756 
0.698791 
-0.675865 
0.569345 
-0.724529 
0.742650 
0.241159 
-0.955087 
1.226574 
-0.468216 
-0.093775 
0.244505 
0.607253 
0.516376 
0.489273 
0.543496 
0.316940 
0.624690 
-0.044578 
-0.431723 
-0.095685 
-0.122478 
-0.670336 
-0.586514 
-0.881053 
0.815215 
0.439064 
-0.270904 
0.297716 
0.221863 
-0.290507 
0.924602 
0.979842 
-0.564233 
0.012878 
0.074660 
0.415504 
0.841235 
0.830780 
-0.662766 
-0.279044 
0.512278 
-0.071090 
0.342414 
-0.178139 
0.683553 
-0.193748 
0.320237 
0.482522 
0.061536 
-1.276186 
-0.489992 
0.223978 
-0.406425 
-0.235509 
0.734333 
-0.612731 
-0.474282 
-0.783007 
-0.266767 
-0.082678 
-0.161250 
0.060414 
-0.728137 
-0.834882 
-0.819320 
0.261245 
0.003307 
-0.363472 
0.205569 
-0.458721 
0.349035 
-0.643396 
-0.606131 
0.256990 
0.235849 
-0.543202 
-0.071495 
0.633442 
-1.072806 
-0.183841 
-0.514048 
0.269566 
-0.506758 
