0.073275 
0.314676 
-0.355724 
-0.647847 
0.350749 
-0.437605 
0.692007 
-0.291299 
-0.035829 
0.288034 
0.127781 
-0.660146 
0.089602 
-0.017853 
0.523453 
-0.201849 
-0.645253 
0.200384 
0.026424 
0.896084 
-0.274160 
0.574175 
-0.461935 
-0.037434 
-0.078133 
-0.642856 
0.323360 
0.656849 
0.061084 
-0.642684 
0.065483 
-0.839731 
0.137842 
-0.158752 
0.847737 
0.074049 
-0.320357 
0.099829 
-0.585866 
0.109749 
0.372730 
-0.261638 
0.280232 
-0.863481 
0.159422 
-0.082348 
-0.307047 
0.127279 
0.179905 
0.285430 
0.267958 
0.453240 
0.396842 
-0.269841 
-0.023508 
0.348625 
-0.745067 
0.645295 
-0.248751 
0.200995 
0.169679 
-0.496766 
-0.132303 
-0.722010 
0.644701 
-0.235168 
0.090027 
0.266633 
0.330038 
-0.612384 
0.285360 
0.484155 
0.083479 
-0.083794 
-0.173816 
0.798388 
0.217063 
0.549186 
0.638924 
0.784966 
0.696280 
-0.727962 
-0.796682 
-0.345800 
0.109055 
0.031281 
0.286037 
0.010423 
0.086480 
-0.276190 
0.064976 
0.574818 
-0.105001 
0.136621 
-0.537151 
0.390451 
-0.733981 
0.356959 
0.111120 
0.323234 
-0.842405 
0.018907 
0.440436 
0.164915 
-0.175878 
0.367421 
-0.200778 
-0.312951 
-0.796531 
-0.073397 
-0.217149 
-0.530651 
-0.082558 
-0.543910 
-0.441587 
0.089849 
0.330528 
0.207988 
-0.404384 
0.201637 
-0.079027 
-0.593548 
0.207440 
0.044286 
0.162504 
-0.739972 
0.404998 
0.087331 
-0.035553 
-0.470504 
-0.127770 
0.047089 
0.412370 
0.401057 
-0.191433 
-0.087320 
0.364421 
0.158792 
-0.040788 
0.308340 
0.259186 
0.230838 
-0.199781 
-0.108601 
-0.059619 
-0.117410 
0.219111 
0.019234 
0.701550 
-0.204872 
0.199034 
0.112414 
0.820041 
-0.415105 
-0.105496 
-0.563626 
-0.651879 
-0.964888 
-0.548845 
0.112278 
0.112583 
-0.356914 
-0.126408 
-0.620838 
-0.238044 
0.277169 
-0.249916 
-0.641316 
-0.438198 
0.043059 
0.217095 
0.155276 
0.197542 
0.197158 
-0.275558 
-0.291390 
-0.186196 
-0.243170 
0.340843 
0.240944 
0.392119 
-0.665488 
-0.149981 
0.096775 
0.318569 
-0.103268 
-0.586079 
-0.215694 
-0.077325 
0.478225 
0.224848 
0.164469 
0.066600 
-0.006370 
-0.184275 
0.349638 
-0.165900 
0.152349 
-0.670014 
0.558649 
-0.122931 
-0.162161 
0.215272 
-0.541756 
0.076833 
0.269919 
-0.299406 
0.630497 
-0.048128 
0.518937 
0.405377 
-0.241035 
0.272683 
0.457442 
0.377483 
0.797906 
0.297403 
-0.689322 
-0.205930 
0.744682 
-0.342778 
-0.334963 
0.088331 
-0.096525 
-0.252597 
-0.015871 
-0.409797 
-0.348460 
-0.329565 
-0.375040 
-0.338101 
0.699777 
0.548279 
-0.560369 
-0.579583 
-0.065033 
0.078142 
0.353553 
0.551012 
0.371319 
-0.062105 
-0.230598 
0.546068 
0.499069 
-0.301584 
-0.326792 
0.275796 
-0.010376 
-0.500236 
-0.374385 
-0.122156 
0.703878 
-0.073441 
-0.495051 
-0.007233 
0.077010 
0.686178 
-0.147853 
0.099541 
0.482192 
0.140857 
-0.762760 
0.908545 
0.036886 
-0.294650 
0.440411 
0.048857 
-0.202783 
-0.047666 
-0.451705 
-0.110758 
-0.391476 
-0.000800 
-0.175203 
-0.411990 
-0.591570 
0.182169 
-0.426828 
-0.096062 
-0.329936 
-0.365707 
-0.346335 
-0.041702 
0.149064 
0.041738 
-0.446100 
-0.583945 
0.313777 
0.292556 
-0.054051 
0.202636 
-0.236196 
-0.121901 
-0.361254 
0.200229 
-0.343509 
0.667593 
-0.153116 
0.609733 
-0.344672 
-0.054943 
-0.060000 
-0.575357 
0.073096 
-0.588211 
0.031112 
0.412227 
0.424527 
0.243430 
-0.274395 
0.323720 
0.010425 
-0.467777 
0.188246 
0.330018 
0.577400 
-0.203518 
-0.583156 
0.053958 
0.210274 
0.363707 
-0.116727 
0.691183 
0.237383 
0.024225 
0.055569 
-0.305760 
0.776335 
-0.111593 
-0.530812 
-0.498271 
-0.063127 
-0.092392 
-0.108672 
-0.215463 
0.235662 
-0.561917 
0.686591 
-0.089614 
0.437985 
0.413155 
-0.291231 
0.776392 
0.265893 
-0.151648 
0.102027 
0.228496 
0.230996 
0.516021 
