-0.579577 
0.232063 
-0.534440 
-0.305246 
0.797021 
0.089175 
0.206854 
-0.077181 
-0.327555 
0.683737 
-0.191748 
-0.094851 
0.450148 
0.426374 
-0.002380 
-0.527421 
-0.860805 
0.181433 
0.585162 
0.198675 
0.433058 
-0.030000 
-0.208289 
0.352794 
0.287149 
0.173070 
0.076998 
-0.646779 
-0.002625 
0.234535 
-0.532395 
-0.279702 
-0.221992 
-0.135624 
0.293315 
0.529478 
0.840494 
-0.252203 
-0.029300 
0.332813 
0.172913 
-0.299159 
-0.069211 
-0.321100 
0.603107 
0.523911 
0.032294 
0.208819 
0.412122 
0.012874 
0.025200 
-0.343053 
0.553720 
-0.361957 
0.650195 
-0.096987 
0.355327 
0.053497 
0.023438 
0.039308 
0.186255 
-0.440321 
0.521439 
-0.150761 
-0.758477 
-0.736961 
-0.485366 
0.066805 
0.517289 
-0.084079 
-0.233518 
-0.345289 
0.209194 
0.067255 
0.140845 
0.190027 
-0.193499 
0.746327 
0.102901 
-0.317369 
0.591693 
0.706574 
-0.599139 
0.282937 
-0.124485 
0.109043 
0.453536 
0.004852 
-0.581927 
0.711600 
0.162297 
-0.730369 
-0.414380 
-0.408338 
-0.653633 
-0.144475 
-0.087155 
-0.688872 
0.054658 
0.343958 
0.346589 
-0.191837 
0.030360 
0.109104 
-0.005127 
-0.874975 
0.152514 
-0.383282 
-0.135303 
-0.247387 
-0.219372 
-0.330732 
-0.216076 
0.348730 
0.150352 
-0.419533 
-0.711570 
-0.377825 
-0.266490 
0.233683 
0.077102 
-0.454422 
0.223930 
-0.412784 
-0.952300 
-0.012988 
0.618368 
0.534009 
-0.107150 
0.016173 
0.307215 
-0.595158 
0.181072 
-0.507983 
0.215049 
-0.053649 
0.019598 
0.321945 
0.675013 
-0.362917 
-0.323527 
0.214042 
-0.150365 
-0.030030 
0.077486 
-0.216834 
0.415967 
-0.588763 
-0.035371 
-0.682516 
-0.009552 
-0.216956 
-0.066042 
-0.035920 
-0.086212 
-0.480739 
0.422066 
0.433557 
-0.357804 
0.701750 
-0.689013 
0.218894 
0.448827 
-0.691628 
-0.129398 
-0.795501 
0.848842 
0.502701 
0.608905 
0.073824 
-0.521378 
-0.126591 
0.077609 
0.793817 
-0.715598 
0.371380 
-0.413190 
-0.062532 
-0.560381 
-0.160375 
-0.744499 
-0.642048 
0.653523 
-0.057924 
-0.409894 
-0.606799 
-0.001068 
-0.383435 
-0.437788 
-0.430799 
0.265063 
0.027796 
0.185328 
-0.217332 
-0.367936 
-0.040484 
-0.482872 
0.021885 
0.337880 
0.039984 
0.640339 
-0.205054 
0.262640 
-0.246406 
-0.080294 
-0.845912 
0.061006 
0.661702 
0.409129 
-0.278573 
0.442854 
-0.103835 
0.512802 
-0.092074 
-0.818755 
-0.000189 
0.646767 
0.241902 
0.174959 
0.367343 
0.306114 
-0.927031 
0.433247 
-0.559612 
-0.296213 
-0.255574 
0.241932 
-0.343394 
-0.276955 
0.347171 
0.340976 
-0.059581 
0.623446 
-0.123024 
-0.241469 
-0.146243 
0.054323 
-0.040406 
-0.844050 
-0.369976 
0.646046 
0.049135 
0.652150 
-0.380017 
0.087954 
-0.868496 
0.151524 
-0.754662 
0.706748 
-0.072390 
-0.009841 
0.451786 
-0.455597 
-0.433378 
0.143050 
-0.385476 
-0.272713 
-0.111573 
0.331416 
0.047892 
0.589007 
0.100585 
-0.873070 
0.388252 
0.159614 
-0.242534 
-0.308368 
-0.287280 
0.326524 
-0.144319 
0.522340 
0.034412 
0.399091 
-0.163736 
0.317423 
0.050181 
0.332778 
0.242754 
0.006186 
-0.050419 
-0.677598 
0.806917 
-0.337416 
0.194813 
0.089358 
-0.185078 
-0.546464 
0.501816 
-0.014740 
-0.705954 
0.332499 
-0.223334 
-0.449843 
-0.489242 
0.286416 
-0.292581 
-0.149022 
-0.152715 
-0.207953 
0.870542 
-0.392680 
0.561988 
0.207258 
-0.244218 
0.769567 
-0.008146 
0.595181 
0.225535 
-0.401746 
0.255879 
0.111977 
-0.543895 
0.239908 
-0.549657 
-0.442616 
0.480792 
-0.163169 
0.435744 
-0.712017 
-0.200589 
-0.047029 
-0.272985 
0.259596 
0.339544 
-0.042084 
-0.253156 
0.224540 
0.039062 
-0.743799 
-0.453734 
0.777707 
-0.134807 
-0.271187 
-0.310958 
-0.865384 
0.493822 
-0.139814 
0.408510 
-0.244553 
0.180075 
0.344823 
-0.505760 
-0.014772 
0.001040 
-0.084170 
0.131879 
-0.613977 
0.391704 
0.545271 
-0.019678 
-0.483691 
0.165653 
-0.060518 
0.158528 
-0.487608 
-0.044320 
0.164586 
0.009500 
0.497543 
0.116123 
0.104038 
0.297189 
-0.607135 
0.235969 
0.549120 
-0.086398 
0.251045 
0.064821 
-0.229286 
0.078494 
0.033200 
-0.030775 
0.599438 
0.046487 
-0.815872 
-0.096422 
0.002068 
0.321083 
-0.023536 
-0.209157 
-0.840785 
0.254263 
-0.745598 
-0.418409 
0.050081 
0.495163 
0.203406 
-0.333659 
-0.479141 
0.419568 
0.519181 
-0.216224 
-0.130955 
-0.512833 
0.233296 
0.522123 
-0.080407 
-0.030093 
-0.304615 
0.454074 
-0.349041 
-0.075186 
-0.190199 
0.739806 
0.037019 
0.084023 
0.125546 
-0.593260 
0.096259 
-0.638150 
-0.025916 
0.085140 
-0.503254 
-0.122227 
0.428307 
-0.247517 
0.382611 
-0.347422 
-0.426489 
-0.491886 
-0.620604 
0.070761 
-0.245735 
-0.399438 
0.531651 
-0.460414 
0.326932 
-0.009294 
0.692221 
0.335234 
0.099547 
-0.134129 
0.461165 
0.621235 
-0.076755 
0.163028 
-0.097641 
-0.193396 
0.333934 
0.849269 
-0.196600 
-0.247719 
0.198614 
-0.106402 
-0.582890 
-0.514860 
-0.008593 
0.436220 
-0.064139 
-0.423655 
0.957062 
-0.437512 
0.089541 
0.381678 
-0.222633 
-0.509018 
0.683828 
-0.132572 
0.195654 
-0.003388 
-0.281869 
-0.158269 
-0.232978 
-0.325999 
-0.556139 
0.348766 
-0.081118 
0.651448 
0.546648 
-0.660756 
0.239448 
-0.497055 
-0.276009 
-0.126133 
-0.694601 
-0.298532 
-0.235878 
0.826167 
0.017889 
0.572299 
0.118880 
0.159715 
0.438119 
-0.289080 
-0.092351 
-0.702146 
0.015788 
0.276835 
-0.063295 
0.876159 
-0.467353 
-0.736933 
-0.150993 
-0.887406 
-0.437001 
0.447576 
-0.356930 
-0.072472 
-0.072023 
0.113233 
-0.678762 
-0.141429 
0.449941 
-0.343046 
-0.541043 
-0.764483 
0.161474 
-0.823820 
0.570136 
-0.538527 
-0.647106 
-0.214394 
-0.265145 
-0.815751 
0.252146 
0.217750 
-0.523331 
-0.039623 
-0.167404 
-0.378841 
-0.444746 
0.008501 
0.142030 
-0.399040 
-0.063417 
-0.191619 
0.525504 
0.050965 
0.192199 
0.266969 
0.170076 
0.568679 
-0.404962 
-0.462292 
0.100846 
0.612990 
0.611713 
-0.026521 
0.228464 
0.511729 
0.148428 
0.146776 
0.086760 
-0.195881 
-0.391697 
-0.302406 
0.658366 
-0.102422 
-0.143925 
-0.355036 
0.719779 
0.317556 
0.140697 
-0.352084 
-0.279556 
-0.429073 
-0.303577 
-0.467430 
-0.604620 
0.052357 
0.160802 
0.329772 
-0.142253 
0.151580 
-0.332401 
-0.500498 
-0.022029 
-0.377540 
-0.360331 
-0.252745 
0.356421 
0.522276 
-0.103916 
0.455652 
0.128430 
-0.222052 
-0.052533 
-0.242754 
0.032903 
0.083332 
0.528697 
0.476438 
0.508944 
-0.448101 
0.296121 
-0.778600 
-0.000604 
-0.351848 
-0.612415 
0.118010 
0.511445 
-0.297475 
-0.338529 
-0.037845 
0.353159 
-0.206212 
-0.056856 
-0.028371 
0.488787 
0.010889 
-0.428437 
-0.109884 
0.430552 
0.134576 
-0.568011 
0.183509 
0.465065 
0.163207 
-0.248024 
0.026974 
0.371064 
0.522489 
-0.256380 
0.629987 
-0.722882 
-0.526686 
-0.469472 
0.131767 
-0.316662 
0.428960 
-0.545824 
0.060214 
0.434456 
-0.646223 
-0.203583 
0.121238 
-0.278298 
-0.377512 
-0.516663 
0.039920 
0.076407 
0.020979 
-0.417188 
-0.026044 
0.075259 
-0.197532 
0.742068 
-0.232432 
0.021105 
-0.204468 
-0.456598 
-0.451503 
0.070490 
0.474153 
-0.043580 
0.213444 
-0.421653 
-0.599463 
-0.281414 
-0.173533 
-0.417248 
0.464321 
-0.132832 
0.072433 
0.689158 
-0.072552 
-0.336375 
0.687881 
0.303999 
0.524160 
0.455241 
0.023493 
0.317964 
-0.031473 
-0.547725 
0.129824 
-0.208756 
-0.061180 
-0.452620 
0.065588 
-0.143819 
-0.496141 
-0.735534 
0.144454 
0.189325 
-0.348132 
0.501364 
0.487706 
0.006531 
-0.194162 
0.189550 
-0.322409 
-0.666931 
-0.768013 
0.527586 
-0.139384 
-0.189860 
0.354372 
0.301069 
-0.386289 
0.106156 
-0.297563 
0.394940 
-0.135370 
0.516343 
0.273995 
0.674947 
0.035218 
-0.312998 
0.000793 
0.742790 
-0.301920 
-0.064180 
0.099246 
0.176092 
0.834773 
0.022191 
0.476780 
-0.326537 
0.402004 
-0.213203 
0.509882 
-0.515572 
-0.743168 
0.852739 
0.597690 
0.237220 
0.014922 
-0.195216 
-0.921165 
0.012081 
-0.248712 
0.562507 
0.007761 
-0.135311 
-0.132505 
0.248676 
-0.069238 
-0.040956 
0.931676 
0.275915 
0.318671 
0.179642 
-0.667578 
0.231074 
0.367482 
0.348107 
0.480933 
-0.006240 
-0.127541 
0.882748 
0.536798 
-0.140585 
-0.455458 
-0.341873 
0.572892 
0.397194 
-0.741391 
-0.122545 
-0.742640 
-0.145425 
0.233296 
0.694571 
0.114309 
-0.224257 
0.824596 
-0.597734 
0.226806 
0.041908 
-0.382913 
-0.271356 
0.242693 
0.222718 
0.446819 
-0.289804 
0.594280 
-0.320312 
0.054505 
-0.183131 
-0.007949 
0.053929 
-0.339560 
-0.542966 
-0.313112 
-0.728046 
0.614707 
-0.140904 
-0.568146 
-0.156566 
-0.430885 
-0.739206 
0.142465 
0.677011 
0.312652 
-0.728058 
0.486186 
0.224337 
-0.254460 
0.168767 
-0.015964 
0.299317 
-0.749679 
0.013262 
-0.462866 
0.489671 
0.193102 
0.307083 
-0.764092 
-0.637910 
0.106175 
-0.250618 
0.293392 
0.545640 
0.136113 
-0.242286 
0.132420 
-0.333445 
0.195349 
-0.160168 
0.125737 
0.708854 
0.809199 
-0.722160 
-0.399213 
-0.371220 
-0.468825 
0.585098 
-0.036321 
-0.050526 
0.299561 
0.606505 
-0.625700 
0.418937 
0.305863 
-0.017518 
0.022698 
0.555589 
-0.384350 
0.457076 
-0.246986 
0.063906 
-0.043825 
0.225349 
0.310739 
-0.316324 
0.250252 
0.127140 
0.035676 
0.501144 
-0.445692 
0.201941 
0.064669 
0.778558 
0.511307 
0.767052 
0.035005 
0.282815 
0.303629 
-0.004212 
0.287576 
-0.034546 
0.106418 
-0.004649 
-0.436878 
0.021686 
-0.033949 
-0.742827 
0.185686 
0.216515 
0.541409 
0.376720 
-0.027609 
-0.161995 
-0.265410 
0.347304 
-0.053981 
-0.293905 
0.130204 
-0.150002 
0.537004 
0.223155 
-0.076323 
0.547014 
-0.335808 
0.091494 
0.214667 
0.580004 
0.195563 
-0.176305 
0.535295 
0.852473 
-0.556963 
0.022340 
0.378674 
-0.243171 
0.719047 
0.569158 
-0.255318 
-0.176939 
0.571882 
-0.637175 
0.658129 
-0.168731 
-0.491798 
-0.093363 
0.137654 
0.214057 
0.098657 
-0.353898 
-0.445487 
0.487396 
-0.181122 
0.327487 
0.614636 
-0.692939 
0.306167 
0.348497 
0.454527 
-0.431745 
-0.246621 
0.191068 
0.015229 
0.256508 
-0.662312 
-0.104444 
0.138744 
0.219224 
-0.013046 
0.443175 
0.706991 
-0.104617 
-0.564906 
0.664202 
0.248167 
-0.433802 
0.018331 
-0.051317 
0.028511 
0.131192 
-0.233835 
-0.691249 
0.011478 
0.181921 
0.131038 
-0.469539 
0.234474 
-0.408451 
0.524763 
0.385911 
-0.242937 
0.620626 
0.308580 
-0.677839 
0.515106 
-0.690512 
-0.114273 
-0.017995 
0.425295 
-0.265120 
-0.450039 
0.202222 
0.206570 
0.302103 
0.270811 
-0.449227 
-0.148400 
0.539079 
0.114562 
0.056401 
-0.151370 
-0.405682 
0.643066 
0.209728 
-0.178936 
0.397232 
-0.464568 
-0.184980 
-0.380153 
-0.504593 
-0.448482 
-0.246319 
-0.277108 
0.477065 
-0.324530 
0.309391 
-0.124513 
0.108401 
-0.000187 
-0.560730 
-0.722956 
-0.348643 
0.535917 
-0.706461 
-0.438093 
0.352274 
-0.593154 
0.013367 
0.262872 
-0.434279 
-0.451010 
0.053521 
-0.223616 
0.312357 
-0.084964 
-0.079810 
0.787186 
0.357623 
0.159345 
-0.045825 
0.247426 
-0.332404 
-0.076729 
0.307175 
-0.110934 
0.100681 
-0.616169 
0.014985 
-0.164281 
-0.231361 
-0.404096 
0.563494 
0.734245 
0.324931 
0.144993 
0.200201 
0.032746 
-0.060121 
-0.655782 
-0.181591 
-0.229225 
0.499255 
-0.052721 
0.129496 
0.467918 
0.210742 
-0.645142 
-0.191819 
0.575960 
0.539232 
-0.724113 
0.562971 
-0.610161 
0.070720 
0.048609 
-0.247749 
-0.397122 
0.381296 
0.163941 
0.491754 
-0.660419 
0.377880 
-0.416771 
0.557756 
-0.164983 
0.105441 
-0.470748 
0.395306 
-0.082034 
0.569048 
0.467818 
-0.450148 
-0.008271 
0.189520 
-0.028260 
-0.841605 
-0.298243 
0.306189 
-0.126846 
-0.191974 
0.232983 
0.222449 
-0.018238 
-0.269405 
0.334891 
-0.053468 
0.276274 
-0.201868 
-0.351107 
-0.054557 
0.655505 
-0.317490 
-0.001855 
0.349149 
-0.107899 
0.634450 
-0.435587 
-0.655538 
-0.151548 
0.242509 
0.506412 
-0.159888 
0.129881 
-0.056722 
0.234074 
-0.722075 
0.267175 
0.163048 
0.289993 
-0.213630 
0.430858 
0.308315 
-0.111736 
-0.143664 
-0.529672 
0.245824 
-0.606461 
0.026295 
0.063416 
0.109224 
0.442335 
-0.132786 
0.438950 
0.579395 
0.297452 
-0.136214 
0.442232 
0.100302 
-0.789230 
0.509543 
-0.679094 
0.605384 
-0.834332 
0.358196 
-0.075705 
-0.130657 
-0.261605 
-0.750517 
0.521281 
0.041273 
0.106479 
-0.280704 
-0.058981 
-0.512833 
0.604698 
-0.308817 
-0.119339 
-0.510317 
0.825081 
-0.119316 
-0.135883 
-0.454450 
-0.418678 
-0.078031 
-0.697543 
-0.092821 
0.588446 
-0.056886 
0.073983 
-0.091421 
0.391269 
-0.395521 
-0.020482 
0.483039 
-0.049244 
-0.339997 
0.053787 
-0.009875 
0.282927 
0.320231 
0.464620 
-0.134695 
-0.401802 
-0.779266 
0.223397 
-0.482852 
-0.825738 
0.027763 
0.375184 
-0.048891 
-0.087375 
0.142582 
0.019208 
-0.233958 
-0.453459 
-0.026293 
-0.116010 
0.046452 
-0.530064 
-0.621503 
0.805910 
-0.208753 
0.429543 
0.328410 
0.098829 
0.506540 
-0.616709 
-0.467509 
0.323387 
0.285341 
0.108520 
-0.506568 
0.723930 
-0.293999 
0.140487 
-0.621632 
0.284377 
-0.331307 
-0.087254 
-0.522963 
-0.838577 
-0.898161 
-0.001928 
-0.659397 
-0.048210 
0.409334 
0.834520 
0.860134 
-0.152900 
-0.333676 
-0.295056 
-0.719773 
-0.543724 
0.520828 
-0.706971 
0.787048 
-0.198065 
0.349620 
-0.457064 
0.392499 
0.374290 
0.633986 
-0.294680 
-0.194538 
-0.198323 
-0.833055 
-0.298425 
0.335320 
0.047010 
0.298556 
-0.295678 
0.130100 
-0.623793 
-0.583270 
0.344707 
0.263497 
-0.846980 
0.381512 
0.206122 
-0.562456 
-0.177465 
0.146794 
-0.933561 
-0.252602 
0.023713 
-0.516274 
0.147740 
0.722312 
0.301180 
0.324401 
0.117682 
-0.096401 
-0.690787 
-0.410751 
-0.456837 
-0.076632 
0.515336 
0.487651 
-0.157156 
0.081404 
-0.598280 
0.485625 
-0.346290 
0.388456 
-0.845684 
0.336250 
0.192922 
0.325724 
-0.042821 
0.317503 
-0.028679 
-0.442331 
-0.430474 
0.120934 
0.401200 
-0.220421 
-0.588498 
0.967527 
-0.226008 
0.095309 
-0.303358 
-0.211066 
-0.002779 
0.668644 
0.370902 
-0.321788 
-0.043260 
-0.188630 
0.604788 
0.745994 
0.026295 
-0.169530 
0.235244 
0.478591 
-0.084658 
-0.285989 
-0.272896 
-0.589099 
0.925626 
0.191198 
0.799585 
-0.123753 
0.745720 
0.071535 
-0.471114 
0.506345 
0.362865 
-0.229436 
0.435283 
0.023972 
-0.493976 
-0.613811 
-0.802672 
-0.449039 
-0.397006 
0.285012 
-0.148914 
-0.545793 
0.226600 
0.164342 
-0.503159 
-0.333262 
0.053529 
-0.353740 
-0.498856 
-0.483505 
-0.684194 
-0.651967 
0.199408 
0.054506 
-0.246468 
-0.538530 
0.099521 
-0.117008 
0.068148 
0.831233 
0.584918 
0.483566 
-0.124332 
0.532914 
0.117496 
0.045412 
0.159886 
-0.048708 
-0.058901 
-0.206671 
0.225257 
0.358287 
0.284249 
-0.184088 
0.150243 
-0.008850 
0.063509 
0.345597 
-0.261939 
-0.408252 
0.038553 
-0.154551 
-0.066768 
0.723016 
0.707756 
-0.267341 
-0.004425 
0.690087 
0.322877 
0.079403 
0.429736 
-0.387549 
0.376257 
-0.241900 
-0.268233 
-0.783561 
-0.684994 
0.173683 
-0.095537 
0.089303 
0.127009 
0.146884 
0.149701 
0.482754 
-0.003685 
-0.519397 
0.194040 
0.042887 
-0.281499 
-0.161008 
-0.277155 
0.933040 
-0.086587 
0.588460 
-0.097379 
0.354654 
-0.454614 
-0.162654 
-0.118237 
0.535340 
-0.418405 
0.166965 
0.593521 
0.532852 
0.374786 
-0.327349 
0.329285 
-0.100506 
0.022807 
-0.277228 
-0.503773 
0.248949 
-0.154689 
-0.033335 
-0.176098 
-0.727617 
-0.410827 
-0.018429 
-0.094585 
0.271016 
-0.194084 
-0.047614 
0.270297 
-0.447797 
-0.051493 
0.219692 
-0.644372 
0.013560 
-0.176743 
0.312440 
0.074681 
-0.235111 
0.853356 
-0.312411 
-0.346584 
-0.122223 
-0.515213 
0.255003 
0.304477 
0.089902 
0.078079 
0.761248 
-0.469868 
-0.222359 
0.357677 
-0.232923 
0.165938 
0.139773 
0.325646 
0.311892 
-0.190621 
-0.510061 
0.004280 
-0.408389 
-0.315928 
-0.577654 
-0.016550 
-0.389136 
-0.090368 
-0.609967 
-0.514529 
0.372093 
0.108396 
-0.425952 
-0.908961 
0.639880 
-0.331528 
0.309433 
-0.745552 
0.002707 
0.724360 
-0.777291 
0.330199 
-0.315633 
-0.046848 
-0.121091 
-0.346760 
0.090157 
-0.414269 
0.263600 
0.494868 
0.009606 
0.200866 
-0.388216 
-0.081512 
-0.501647 
-0.292439 
0.226379 
-0.035101 
0.247991 
0.005516 
0.066500 
0.073876 
-0.239934 
-0.080566 
-0.128143 
-0.002800 
0.493510 
-0.298512 
0.070910 
0.395361 
0.064088 
-0.282957 
-0.057109 
-0.221573 
0.649785 
-0.192832 
0.083668 
0.122644 
-0.711247 
-0.067081 
-0.395101 
0.003108 
-0.018701 
0.224579 
-0.816751 
-0.018962 
-0.372988 
0.316962 
0.586828 
-0.072126 
0.262256 
-0.337932 
0.140080 
-0.397432 
0.007227 
0.418695 
-0.659244 
0.579360 
0.318383 
-0.374580 
0.121482 
0.498459 
0.040383 
-0.166782 
0.084300 
-0.477484 
-0.072069 
0.246923 
-0.220670 
-0.176348 
-0.781549 
-0.453154 
0.030190 
0.232684 
0.783104 
-0.189887 
-0.578575 
-0.706791 
0.291822 
-0.219358 
-0.167945 
-0.261647 
0.167464 
-0.209974 
0.034729 
-0.082563 
0.020036 
0.156585 
0.095703 
-0.318843 
0.573116 
-0.079862 
0.483771 
-0.009426 
-0.060212 
-0.088337 
-0.214334 
0.015160 
0.612854 
-0.054513 
-0.016814 
0.063184 
-0.223234 
0.238141 
0.091273 
-0.273923 
0.240953 
-0.276448 
0.131898 
-0.287807 
-0.286790 
0.070005 
-0.151375 
0.197086 
-0.269972 
0.360376 
0.036238 
-0.198196 
0.648529 
-0.503775 
-0.637481 
0.619261 
0.177404 
0.045659 
-0.155374 
-0.465657 
0.267102 
-0.094514 
0.019522 
-0.320577 
0.153658 
-0.145052 
-0.550417 
-0.314320 
-0.278787 
-0.516360 
-0.488638 
-0.667574 
-0.060125 
-0.266769 
0.019283 
0.043050 
0.726910 
0.383687 
0.780125 
-0.680125 
0.199533 
-0.368818 
-0.322184 
-0.070536 
0.001260 
0.400107 
0.410209 
-0.330414 
-0.469430 
-0.396808 
0.088285 
-0.199921 
-0.028645 
0.479690 
-0.707968 
0.036481 
0.499859 
0.226150 
0.204813 
-0.110553 
-0.345858 
-0.778603 
0.753406 
-0.319074 
-0.295750 
0.985426 
-0.132256 
-0.052121 
0.241098 
0.374852 
0.806960 
0.015004 
0.374622 
0.314822 
0.077530 
-0.328332 
-0.244536 
-0.718691 
-0.283375 
0.221732 
0.421556 
0.055385 
-0.696305 
0.564404 
0.737805 
0.413360 
0.145485 
0.208933 
0.042965 
0.004321 
0.789409 
0.222435 
-0.211545 
-0.107675 
-0.520168 
-0.071644 
0.358643 
0.205989 
-0.150187 
0.150610 
0.109363 
-0.035970 
0.106200 
0.145963 
-0.333842 
-0.112594 
-0.108251 
-0.004666 
-0.615080 
-0.434577 
0.177224 
-0.115355 
-0.829544 
