0.448378 
0.134831 
0.040559 
0.194433 
-0.323496 
0.595141 
-0.590014 
0.622242 
0.015748 
0.111240 
-0.217231 
-0.411023 
-0.215613 
-0.296304 
-0.250160 
0.069491 
-0.337535 
-0.350627 
-0.790673 
0.802850 
0.331227 
0.122089 
0.146434 
0.198301 
-0.012444 
0.464371 
-0.115375 
-0.287854 
-0.401026 
0.172735 
-0.297199 
-0.407190 
-0.590742 
-0.646639 
0.562790 
0.672763 
0.810984 
0.030059 
0.293433 
-0.096753 
0.839717 
-0.017517 
-0.346584 
0.619400 
0.263559 
0.289065 
-0.037011 
0.637037 
0.076896 
0.204562 
0.188583 
0.002319 
0.400027 
0.264439 
0.074786 
-0.719018 
-0.362439 
-0.039742 
0.487269 
0.554455 
0.166539 
0.482181 
-0.277902 
-0.116912 
-0.590565 
0.493606 
-0.486469 
-0.342698 
-0.338299 
-0.198728 
0.281555 
-0.440420 
0.278543 
0.006226 
-0.886536 
0.103481 
0.260436 
0.111441 
0.427506 
-0.712191 
0.333972 
0.634911 
0.075672 
0.116728 
0.776299 
-0.864961 
0.286544 
-0.246110 
-0.126321 
-0.362971 
0.102658 
0.399779 
0.082705 
0.027532 
-0.478875 
-0.347697 
-0.474057 
0.046408 
0.606082 
-0.558475 
0.576149 
-0.300439 
0.527183 
0.145276 
-0.237073 
-0.850370 
0.613361 
-0.358773 
0.760558 
-0.256976 
-0.253398 
-0.447832 
0.241170 
0.674777 
-0.283192 
0.358611 
-0.467764 
0.072451 
-0.111092 
0.360453 
-0.526669 
0.162146 
0.390656 
0.130070 
0.163213 
-0.661551 
-0.155218 
-0.085853 
-0.181158 
0.105920 
-0.471725 
0.237129 
-0.059267 
-0.107822 
-0.645802 
-0.445357 
0.318766 
0.038515 
-0.069948 
0.130375 
-0.400678 
-0.401983 
0.424994 
0.133609 
0.279920 
0.048813 
0.858865 
0.034030 
0.280161 
-0.287146 
-0.350688 
-0.602790 
-0.010991 
0.395616 
-0.654394 
0.423782 
-0.780024 
0.784908 
-0.182263 
0.566960 
-0.632101 
-0.159001 
-0.027118 
0.341574 
-0.009548 
-0.023442 
0.330512 
-0.153148 
0.049313 
0.312933 
0.258566 
0.299827 
-0.481857 
-0.184433 
-0.135420 
-0.060664 
0.368143 
0.330188 
0.043526 
0.414048 
0.070678 
0.228286 
-0.390378 
0.516587 
-0.425844 
-0.504711 
0.098270 
-0.079549 
-0.054237 
-0.487322 
-0.003475 
0.719749 
-0.765711 
0.037596 
-0.354411 
-0.005275 
0.109325 
-0.071511 
0.193474 
-0.318072 
-0.140770 
0.310148 
0.822540 
-0.073869 
0.397122 
0.014222 
-0.583256 
-0.036317 
-0.454512 
0.115665 
0.077303 
-0.343150 
-0.724113 
0.178472 
-0.392438 
-0.822962 
0.247627 
-0.406201 
0.936491 
0.518265 
0.312143 
0.180975 
-0.155676 
0.360362 
0.495193 
-0.671774 
0.231239 
-0.540056 
-0.487533 
-0.275435 
-0.117585 
-0.369644 
-0.124014 
0.181574 
0.873103 
-0.307094 
-0.003008 
-0.447881 
0.639027 
0.216664 
-0.090352 
0.066500 
-0.367054 
0.125469 
0.276790 
-0.401320 
0.698462 
-0.109875 
-0.568520 
-0.175573 
0.024638 
-0.083804 
0.085827 
0.060018 
-0.235708 
-0.480656 
0.478074 
-0.673258 
0.388519 
-0.090678 
-0.374645 
-0.025845 
0.165480 
-0.033924 
-0.094783 
0.723257 
0.191201 
-0.763456 
0.074692 
0.610063 
-0.121822 
-0.274819 
0.515947 
-0.091308 
-0.604326 
0.016395 
-0.628583 
0.474614 
-0.101026 
0.221000 
0.737529 
0.337620 
0.559435 
-0.080801 
0.086864 
-0.419233 
0.296656 
0.116718 
-0.523716 
-0.273618 
-0.067059 
-0.147755 
-0.266720 
-0.169530 
0.542917 
-0.652601 
-0.306960 
-0.284622 
-0.256039 
-0.185101 
1.047742 
-0.224813 
-0.230206 
-0.447942 
-0.564043 
-0.015936 
0.024688 
0.656453 
-0.197604 
-0.728078 
-0.190743 
-0.515550 
0.575617 
0.190100 
-0.303646 
0.239570 
0.137082 
0.152002 
-0.209618 
0.236329 
-0.687410 
-0.071598 
0.628636 
-0.612631 
-0.743108 
0.207183 
0.401563 
0.501644 
-0.349607 
-0.415601 
-0.079068 
-0.254905 
-0.581106 
-0.508163 
0.539083 
0.495914 
-0.240971 
0.214728 
-0.667402 
0.237709 
0.008484 
0.315470 
-0.264077 
0.391797 
0.716269 
0.636402 
-0.253609 
0.648610 
-0.947630 
-0.050050 
0.586257 
-0.109016 
-0.191834 
-0.959786 
-0.435021 
-0.527386 
0.243199 
-0.353352 
0.878707 
0.639821 
-0.661086 
-0.051999 
-0.576250 
-0.142114 
0.202154 
-0.056679 
0.727607 
-0.233175 
0.522033 
0.138810 
-0.102908 
0.039304 
-0.019016 
-0.670440 
-0.560096 
0.342115 
0.654115 
-0.467312 
-0.212471 
-0.104572 
0.596850 
0.580096 
0.544802 
0.054752 
0.149175 
0.355174 
0.241492 
-0.037308 
0.230446 
0.337444 
-0.097719 
0.356548 
-0.642140 
-0.208960 
0.332537 
-0.052969 
-0.162214 
-0.399001 
-0.116780 
0.341186 
-0.166988 
0.397300 
0.462497 
-0.680959 
0.867342 
0.287179 
0.031083 
-0.033623 
-0.098126 
-0.354432 
0.139520 
-0.219565 
-0.206889 
0.396499 
0.686361 
0.743912 
0.143909 
0.504658 
-0.055003 
0.678625 
-0.622880 
-0.067005 
-0.591280 
0.151323 
-0.690310 
-0.753410 
-0.237642 
-0.156263 
0.135056 
-0.185290 
0.136969 
-0.836710 
0.756918 
0.670836 
-0.245559 
-0.602261 
0.167791 
-0.190167 
0.215929 
-0.377000 
-0.906815 
0.402364 
-0.277787 
-0.144267 
0.213121 
-0.356892 
-0.399005 
-0.026307 
-0.779806 
0.226591 
-0.603544 
0.078030 
-0.568093 
-0.043428 
0.479749 
-0.413681 
-0.332161 
0.463558 
-0.009888 
0.083130 
-0.112167 
0.030544 
0.222820 
0.259640 
0.171011 
-0.632553 
-0.701828 
0.329336 
-0.543915 
0.048647 
0.231838 
-0.368146 
-0.191546 
0.353649 
0.122756 
0.397259 
0.100051 
0.856216 
-0.239504 
0.751163 
0.151433 
0.002369 
0.337192 
0.286831 
0.208597 
0.276600 
-0.238823 
0.090693 
0.075535 
-0.469709 
0.185412 
-0.349925 
0.024739 
-0.437631 
0.525524 
-0.311121 
-0.403787 
0.383082 
0.010831 
-0.396078 
0.106267 
-0.211450 
-0.218238 
0.285575 
-0.326305 
-0.641474 
0.193076 
0.566810 
0.379461 
0.431973 
-0.407215 
0.108894 
0.171685 
0.631458 
-0.536640 
-0.074769 
-0.744090 
-0.479348 
-0.441361 
0.340438 
0.457774 
-0.354079 
0.557522 
0.272440 
0.254067 
0.850513 
-0.118387 
0.421878 
-0.192232 
-0.591603 
-0.347881 
0.774464 
0.338279 
-0.156589 
-0.253872 
0.291696 
-0.010110 
-0.246345 
0.316996 
-0.580096 
0.720664 
-0.501389 
-0.526963 
-0.051271 
0.162236 
-0.324046 
-0.541093 
-0.607501 
0.493406 
0.266052 
-0.475128 
-0.469229 
0.314098 
-0.958632 
0.111837 
0.406088 
0.192584 
0.248207 
-0.516378 
-0.538926 
-0.268990 
0.664022 
-0.579882 
-0.085879 
-0.363964 
0.321818 
-0.483657 
-0.574023 
0.618732 
0.608875 
0.244381 
0.674499 
0.636205 
-0.295950 
0.230329 
-0.930196 
0.466761 
-0.133820 
0.200888 
-0.214301 
0.331325 
0.251371 
0.734438 
0.331538 
-0.806954 
0.197304 
-0.661611 
-0.594778 
0.365568 
-0.894198 
0.015412 
0.825416 
0.684110 
0.154576 
0.520086 
-0.522975 
0.172293 
0.877993 
-0.410370 
-0.804493 
0.023740 
0.056978 
-0.614659 
-0.036087 
0.075476 
0.315613 
-0.620137 
0.464428 
-0.315962 
-0.396998 
-0.139318 
0.095866 
0.007935 
-0.897865 
0.010365 
0.399359 
0.486865 
0.281845 
0.484459 
-0.615648 
-0.139559 
-0.165872 
0.406172 
0.510147 
0.665484 
-0.599872 
-0.522172 
0.322857 
0.316905 
-0.528548 
0.061151 
0.108678 
-0.219151 
-0.769153 
-0.286935 
0.396771 
-0.281007 
-0.154668 
0.343110 
-0.972848 
-0.401388 
-0.324288 
-0.394911 
-0.458299 
0.201725 
-0.082583 
-0.336740 
0.068692 
-0.358866 
-0.259371 
-0.542792 
-0.259315 
-0.148700 
-0.071417 
0.467951 
-0.465746 
-0.274087 
0.033984 
-0.010700 
-0.290719 
-0.609917 
-0.014899 
-0.124341 
0.672743 
0.459549 
0.263348 
0.830351 
-0.619434 
-0.566224 
-0.304360 
0.156770 
0.248465 
-0.232012 
-0.201518 
0.569976 
0.463038 
0.269844 
-0.072309 
-0.746208 
-0.101981 
0.244459 
-0.122684 
-0.457201 
-0.281019 
0.058588 
0.605590 
0.271553 
0.905544 
-0.045616 
-0.312265 
-0.251898 
-0.126775 
-0.287834 
0.283645 
-0.047087 
0.400608 
-0.394954 
0.286415 
-0.065722 
-0.206608 
0.040101 
0.789165 
0.292195 
-0.981112 
-0.682359 
-0.614114 
-0.212180 
-0.091818 
-0.575841 
-0.231773 
-0.151531 
-0.602985 
0.875674 
-0.177388 
-0.039521 
-0.748774 
0.294330 
0.307700 
0.385174 
0.627680 
0.415517 
-0.005571 
-0.548784 
-0.864596 
0.602797 
0.303557 
-0.685979 
-0.217020 
-0.133629 
0.435592 
0.215420 
-0.616542 
0.359401 
0.021516 
0.241161 
-0.564087 
-0.573201 
0.265145 
-0.388250 
-0.522361 
0.202702 
-0.427563 
0.414190 
0.055348 
0.103305 
0.706125 
-0.094209 
0.093478 
0.399946 
0.418074 
-0.750053 
-0.290321 
-0.821070 
-0.410810 
-0.206610 
-0.309091 
0.384564 
-0.039723 
0.831208 
0.374320 
-0.244422 
0.878092 
0.004733 
0.920289 
0.216042 
-0.374998 
-0.597369 
-0.566848 
0.072279 
-0.011891 
0.152041 
0.145283 
-0.439121 
-0.899926 
-0.145700 
0.380411 
0.466042 
0.664693 
0.575483 
-0.040859 
0.198843 
0.317059 
0.305123 
0.094487 
-0.696221 
0.089111 
-0.542778 
-0.197491 
0.375378 
-0.102623 
0.471511 
-0.404859 
0.797937 
-0.365337 
0.099979 
0.148350 
0.411145 
-0.073794 
0.237373 
0.071841 
-0.532609 
-0.813256 
0.135413 
0.275768 
-0.819235 
0.438876 
0.783846 
-0.112539 
0.555998 
0.530404 
0.160985 
0.750095 
-0.447135 
-0.597062 
0.028397 
-0.017705 
0.886635 
0.248298 
0.185827 
-0.213933 
0.914117 
0.252266 
0.180722 
0.032131 
-0.359905 
-0.046942 
0.095077 
-0.161413 
-0.211217 
0.362526 
0.189970 
-0.662738 
-0.454817 
-0.473981 
0.282717 
0.129919 
-0.793097 
0.082187 
0.299489 
0.187436 
0.082134 
0.342011 
-0.043893 
0.074526 
-0.846620 
0.091971 
-0.164645 
-0.791653 
0.014373 
0.488270 
-0.353857 
-0.164760 
0.277163 
-0.168717 
-0.093417 
0.164163 
-0.124815 
-0.075136 
0.061061 
-0.242667 
0.185295 
0.319907 
-0.286693 
0.246873 
0.427980 
-0.394665 
0.170457 
-0.173649 
-0.018015 
0.203018 
0.107096 
0.552718 
-0.713468 
0.248693 
-0.186754 
0.666261 
-0.047487 
-0.372841 
0.176366 
-0.205512 
-0.334208 
0.483810 
-0.541002 
-0.790155 
-0.189917 
-0.501907 
-0.408032 
-0.494369 
-0.074190 
0.690145 
0.161870 
0.617234 
0.337168 
0.120613 
0.241077 
-0.205571 
-0.828898 
0.073354 
-0.380932 
-0.025976 
0.583649 
-0.367847 
-0.402666 
-0.330845 
-0.880147 
-0.476221 
-0.650693 
0.469125 
-0.360144 
0.527970 
0.505103 
0.793878 
-0.002716 
0.001282 
-0.573779 
0.203040 
0.843532 
0.153508 
-0.816950 
0.559160 
0.509934 
-0.632069 
0.837573 
0.223241 
0.180525 
0.227556 
0.229201 
-0.094330 
-0.070406 
-0.338980 
-0.515112 
-0.509262 
0.122098 
0.234901 
-0.214454 
0.059023 
-0.041322 
0.205267 
0.597949 
0.146306 
0.288827 
0.140263 
0.249397 
-0.799921 
0.034633 
-0.398110 
0.202908 
0.055292 
-0.377762 
0.658834 
0.620613 
-0.170866 
0.141716 
0.103885 
-0.362313 
-0.684292 
-0.577748 
-0.058341 
-0.903387 
-0.143830 
-0.451832 
-0.323391 
-0.153055 
0.747076 
0.124546 
-0.105524 
-0.204459 
0.135034 
-0.628687 
0.430664 
-0.246410 
0.795458 
-0.461532 
-0.077656 
-0.125120 
0.021088 
-0.104477 
-0.081567 
-0.511216 
0.030094 
-0.335128 
-0.056853 
-0.136636 
-0.162094 
-0.587763 
0.026449 
0.391369 
-0.342866 
-0.190235 
-0.293518 
-0.701101 
-0.628084 
-0.678126 
0.256875 
0.017787 
-0.050591 
0.066854 
-0.506455 
-0.251910 
-0.498773 
-0.121342 
0.576182 
-0.106799 
0.051934 
0.336127 
0.116047 
-0.094177 
0.369886 
-0.380016 
0.575953 
-0.033731 
-0.620289 
0.093583 
-0.156887 
0.842963 
0.065851 
-0.135168 
0.262621 
0.076399 
0.000519 
-0.394724 
-0.118604 
0.337632 
-0.406192 
-0.754226 
0.391058 
-0.512156 
-0.493929 
-0.442499 
-0.089764 
0.453902 
0.494023 
0.150086 
-0.089663 
-0.610524 
0.770505 
-0.048580 
0.049793 
0.515725 
-0.061611 
0.271391 
-0.769066 
0.357519 
0.364436 
0.294565 
-0.742806 
0.510623 
0.064875 
0.095873 
-0.036789 
-0.091482 
0.105477 
0.158330 
-0.136450 
0.223428 
0.485915 
-0.656833 
-0.753939 
-0.081732 
-0.872351 
0.524728 
-0.104337 
0.349017 
-0.207678 
-0.268557 
0.505722 
-0.646290 
0.414380 
-0.106113 
0.317484 
0.427503 
0.050295 
-0.071474 
0.492386 
0.332652 
0.239967 
-0.400556 
0.067488 
-0.190617 
0.303049 
-0.343207 
-0.755378 
0.066885 
-0.263349 
0.471089 
0.020478 
-0.477827 
0.037032 
-0.171947 
-0.693862 
0.074616 
-0.739677 
-0.462803 
-0.269709 
0.025087 
0.767213 
0.161840 
-0.491869 
-0.005103 
-0.292886 
-0.267049 
0.207925 
-0.006905 
-0.391784 
-0.338218 
0.001021 
-0.404811 
0.266274 
0.294958 
-0.002423 
-0.313743 
-0.712749 
0.107483 
0.160195 
-0.395376 
0.605553 
0.265234 
-0.286121 
-0.418012 
0.356170 
-0.400343 
0.217642 
-0.341605 
0.146865 
0.052682 
-0.073429 
-0.201538 
0.156854 
0.033342 
0.033815 
-0.491729 
0.390120 
0.287743 
0.109874 
0.666330 
-0.399098 
0.532630 
-0.619983 
-0.168498 
-0.277269 
-0.265053 
-0.590236 
-0.058176 
0.568577 
0.023976 
0.042000 
0.078800 
-0.622871 
0.485053 
0.383256 
0.160919 
0.345195 
-0.141012 
0.526574 
-0.716544 
0.258650 
0.187368 
0.478198 
-0.217753 
0.254618 
-0.064160 
0.224720 
0.086886 
0.268602 
-0.621498 
0.383679 
-0.133485 
0.093115 
-0.362221 
-0.708818 
0.764094 
-0.199739 
0.228584 
0.706778 
-0.046541 
0.605849 
0.054497 
-0.082382 
0.422178 
0.201249 
-0.453802 
-0.624855 
-0.129742 
0.106871 
-0.413953 
-0.068412 
-0.318198 
-0.085238 
0.204958 
0.257576 
0.030187 
-0.370262 
-0.583022 
0.230479 
-0.071592 
0.052095 
0.825677 
-0.264029 
0.065128 
0.096378 
0.087511 
0.385147 
0.497929 
-0.142043 
0.130686 
-0.002254 
0.234657 
-0.068987 
-0.338761 
-0.131993 
-0.132146 
-0.426711 
-0.638937 
-0.897219 
-0.028459 
0.482387 
-0.110718 
0.036256 
-0.448804 
0.366053 
0.504632 
0.127266 
0.342892 
-0.231583 
0.109239 
0.161989 
0.220400 
-0.541751 
-0.550523 
0.639174 
0.698662 
-0.544450 
-0.238199 
0.164065 
0.426705 
0.028247 
0.657880 
-0.032296 
-0.125374 
0.056917 
-0.544633 
0.160708 
-0.406240 
0.175170 
-0.345052 
-0.055679 
0.111457 
0.648698 
0.838905 
0.490114 
-0.413007 
-0.112735 
0.444667 
0.049911 
0.804520 
0.255203 
-0.529439 
0.187521 
0.192506 
0.429517 
0.087197 
-0.623035 
-0.789078 
0.430915 
-0.069815 
-0.589104 
0.563323 
-0.335986 
0.327504 
-0.283953 
-0.152633 
-0.459441 
0.007263 
0.643035 
-0.031853 
-0.186307 
0.551776 
0.160512 
-0.732888 
0.725418 
-0.438670 
0.004770 
-0.316203 
-0.276498 
0.232182 
-0.173636 
0.247108 
-0.498909 
0.042035 
-0.646684 
-0.018223 
-0.488748 
0.506784 
0.030703 
0.051851 
-0.241832 
-0.426817 
-0.317931 
0.138128 
0.012660 
0.145701 
-0.073074 
0.030419 
0.704259 
-0.135656 
-0.261391 
-0.258394 
-0.763660 
-0.037868 
-0.692518 
-0.474422 
0.128312 
-0.149213 
-0.078899 
0.899697 
0.084154 
-0.688925 
0.385013 
-0.277641 
0.070997 
0.560243 
-0.109411 
-0.174622 
0.583419 
0.584676 
-0.007504 
0.663825 
-0.343577 
0.830414 
0.370011 
0.889497 
0.260200 
-0.339474 
-0.281428 
-0.830036 
0.223362 
-0.360031 
0.403689 
0.555132 
0.356108 
0.674343 
-0.312472 
-0.047192 
-0.400135 
-0.762574 
0.280766 
-0.356367 
0.379129 
0.017150 
0.582293 
0.008765 
0.492816 
-0.508528 
0.870672 
0.904426 
0.318684 
0.159036 
-0.345370 
-0.486809 
0.095036 
0.704154 
-0.094313 
0.184524 
0.816141 
0.188926 
-0.193363 
-0.131884 
-0.686605 
-0.091944 
-0.004515 
0.434105 
-0.252235 
0.489731 
0.689627 
0.044069 
-0.243416 
0.449049 
0.402264 
0.300699 
-0.285195 
0.474990 
0.316080 
0.212714 
0.174444 
-0.563463 
-0.543046 
0.419477 
-0.454573 
-0.070498 
-0.658437 
-0.023255 
-0.013733 
-0.713858 
0.117862 
-0.377514 
0.851533 
0.091477 
0.221335 
0.566106 
-0.570774 
0.242468 
0.456194 
-0.346766 
0.265744 
-0.757012 
-0.302845 
0.296982 
-0.309342 
-0.337474 
0.070698 
-0.408455 
0.484821 
-0.760872 
-0.502173 
0.248313 
0.724235 
-0.045362 
-0.188976 
0.564608 
0.011273 
-0.140558 
0.577249 
-0.398564 
-0.553680 
-0.340475 
-0.081586 
0.002319 
0.498612 
-0.454716 
-0.355205 
-0.813308 
-0.169880 
0.093701 
-0.080837 
0.293537 
-0.405827 
-0.239710 
0.100406 
0.095183 
-0.518682 
-0.060905 
-0.155924 
0.193194 
-0.382465 
0.545948 
-0.088113 
-0.012084 
-0.370155 
-0.380566 
-0.043593 
0.392773 
0.436322 
-0.366967 
0.444745 
-0.351033 
-0.714191 
-0.166305 
-0.127713 
0.278144 
-0.806421 
-0.061557 
0.086646 
-0.192991 
0.711933 
0.173161 
-0.384607 
0.633117 
0.563243 
-0.138529 
0.280169 
-0.064669 
-0.099850 
0.108068 
0.466701 
-0.142450 
0.793388 
0.483283 
-0.751042 
0.396107 
0.307604 
-0.067672 
0.127445 
0.531422 
-0.384320 
0.237526 
-0.306436 
-0.136753 
-0.068880 
-0.011261 
-0.268197 
0.265053 
-0.870113 
-0.417554 
0.376934 
-0.710780 
0.441986 
-0.043158 
0.517136 
0.776852 
-0.250681 
-0.647535 
-0.399090 
0.197556 
0.192145 
-0.029855 
0.459153 
-0.698080 
0.129460 
-0.163305 
0.240944 
0.557207 
-0.540727 
-0.338694 
0.430037 
0.728751 
0.294717 
-0.510999 
0.496171 
-0.447601 
0.103240 
0.300230 
0.567748 
0.408671 
0.430605 
-0.316207 
0.435621 
-0.242191 
0.542375 
0.137577 
-0.034639 
0.078239 
0.344320 
-0.064423 
-0.537782 
-0.535555 
0.275381 
-0.140019 
-0.506647 
0.122785 
-0.210140 
0.608405 
-0.100327 
0.294469 
-0.571546 
0.182793 
-0.004841 
-0.654117 
0.231208 
-0.128452 
0.171604 
-0.074205 
0.566737 
0.215012 
0.259228 
-0.711683 
-0.258244 
-0.069718 
0.254539 
-0.023041 
-0.492089 
0.195358 
-0.038541 
-0.395667 
-0.292108 
-0.173083 
-0.717912 
0.062360 
0.193521 
0.129463 
0.197485 
0.066010 
0.154954 
0.159695 
0.371344 
0.493890 
-0.240352 
-0.834512 
-0.050582 
0.571341 
0.277159 
-0.419141 
-0.575772 
-0.265283 
-0.196417 
-0.397412 
-0.390210 
-0.153264 
-0.020135 
0.267028 
-0.647826 
-0.045731 
-0.156072 
0.669271 
-0.240078 
-0.426305 
-0.285514 
0.452052 
0.380685 
0.476768 
-0.075459 
-0.217597 
0.285859 
0.823664 
0.281086 
-0.147285 
0.542680 
0.194220 
-0.012725 
0.065286 
0.434410 
0.587936 
-0.092168 
0.309059 
0.318674 
0.322244 
0.610534 
0.115669 
0.142965 
0.279051 
-0.454615 
0.188218 
-0.006997 
-0.347284 
0.094427 
0.196661 
-0.789570 
0.194991 
0.093905 
0.734062 
0.148961 
0.094058 
0.450515 
-0.108581 
0.159097 
0.090798 
-0.367534 
-0.006104 
0.215519 
0.329821 
-0.404334 
-0.430673 
-0.425086 
-0.496266 
0.127554 
-0.169730 
0.332041 
0.133793 
-0.103741 
-0.171991 
-0.331745 
0.769046 
0.427410 
-0.243670 
-0.233237 
-0.070067 
0.664580 
-0.699601 
0.734550 
-0.336707 
0.484097 
-0.469157 
-0.059792 
-0.647899 
-0.448076 
0.594272 
-0.287133 
-0.411833 
-0.576634 
-0.096438 
-0.414223 
0.459404 
-0.894097 
-0.868049 
0.480205 
-0.010109 
-0.829343 
-0.834838 
-0.086812 
0.593947 
-0.185369 
0.030468 
-0.162782 
0.140965 
0.305141 
-0.206736 
-0.032816 
-0.117793 
0.214608 
-0.373814 
-0.634401 
0.165319 
0.122371 
-0.351561 
0.312204 
-0.082874 
0.044419 
-0.088769 
-0.593639 
0.936611 
-0.176911 
-0.098408 
-0.792962 
0.658091 
0.124466 
-0.433938 
0.381943 
0.409025 
-0.715279 
-0.098110 
0.301952 
0.213748 
-0.641268 
0.564348 
-0.724307 
-0.020716 
0.167201 
0.190617 
0.108030 
0.416862 
0.089956 
-0.364381 
-0.801266 
-0.211496 
0.270882 
-0.088306 
0.147634 
-0.013090 
0.028973 
-0.149005 
-0.122136 
-0.497659 
0.121094 
0.224667 
-0.127128 
-0.258797 
-0.144532 
0.319832 
0.290610 
-0.377325 
-0.254442 
-0.084839 
0.176936 
0.386781 
-0.536010 
0.594584 
-0.378185 
0.001256 
0.221366 
0.438743 
-0.800400 
0.329776 
-0.014794 
-0.476424 
0.428560 
0.019678 
-0.235530 
0.130070 
-0.176029 
0.062498 
0.031597 
-0.283169 
0.000622 
0.181256 
-0.284446 
-0.553456 
0.065830 
0.024629 
0.091006 
0.669242 
-0.587774 
-0.446180 
-0.344084 
-0.029333 
-0.621185 
-0.465153 
-0.823129 
0.160749 
0.533708 
-0.078860 
-0.933241 
-0.147682 
0.058572 
-0.207026 
0.416041 
0.378484 
0.168408 
0.539004 
0.249518 
-1.373971 
-0.215247 
0.687609 
-0.289190 
-0.654467 
0.097592 
0.368818 
0.599318 
-0.517977 
0.083557 
-0.512553 
0.339301 
-0.437910 
-0.166994 
0.351698 
-0.070260 
0.045660 
-0.210686 
0.213937 
-0.669528 
0.336617 
0.509477 
0.288683 
0.621326 
-0.357290 
-0.105407 
-0.595439 
-0.512002 
-0.028425 
-0.235021 
0.695013 
0.340127 
-0.271775 
-0.353796 
0.173589 
-0.525386 
-0.187996 
0.008520 
-0.661005 
0.390752 
-0.817514 
-0.172120 
-0.008867 
-0.140068 
0.384944 
-0.280953 
-0.413783 
0.277839 
-0.115725 
-0.383077 
-0.357657 
-0.511888 
-0.762566 
-0.598727 
-0.796574 
0.225103 
0.253883 
-0.177979 
-0.725138 
0.113245 
0.539518 
0.672264 
-1.096186 
0.700173 
0.775550 
0.048756 
0.036292 
0.011231 
0.402057 
0.086085 
-0.348455 
0.025637 
0.418200 
-0.389791 
-0.522295 
0.388603 
-0.168656 
0.141105 
0.047517 
-0.520063 
0.307065 
0.263741 
0.493667 
0.096286 
-0.103696 
0.687704 
0.960810 
-0.773558 
-0.033824 
0.462172 
-0.197515 
0.850209 
-0.024861 
-0.045960 
0.029765 
-0.356184 
-0.114611 
0.123994 
-0.222728 
-0.434285 
-0.047060 
-0.516803 
0.031281 
-0.096316 
0.694510 
-0.032258 
0.159917 
0.437880 
0.451857 
0.395093 
0.069643 
-0.739708 
0.133061 
0.123164 
0.128732 
-0.644711 
0.397975 
0.059651 
0.416976 
0.788509 
0.091355 
-0.542153 
0.344371 
-0.247205 
0.447066 
-0.021363 
-0.789300 
0.783746 
0.375500 
0.318003 
0.677206 
0.754814 
0.633076 
0.362560 
0.178961 
0.225191 
0.283120 
-0.159981 
0.662218 
-0.598066 
-0.281188 
0.446243 
-0.156822 
-0.608102 
-0.817408 
0.509367 
0.106328 
0.236950 
-0.173890 
-0.846785 
0.289389 
0.369101 
-0.037100 
-0.335695 
0.066895 
-0.234870 
0.649973 
0.259346 
0.062563 
-0.120884 
0.594470 
0.033692 
0.326975 
-0.022889 
0.502579 
0.503647 
-0.210089 
0.307993 
0.496077 
0.134076 
0.025121 
-0.179457 
-0.733562 
0.487974 
0.581438 
-0.351076 
0.285184 
-0.123508 
-0.460977 
-0.088963 
0.139664 
0.499187 
0.052085 
0.772695 
0.088788 
0.043620 
-0.132171 
0.301749 
0.164006 
-0.159563 
-0.291115 
-0.287623 
0.512031 
0.640247 
-0.888833 
0.083717 
-0.369771 
-0.457555 
-0.443182 
0.366100 
-0.264944 
-0.292424 
0.244880 
0.245572 
-0.368451 
-0.358910 
-0.610462 
0.728858 
0.212633 
0.559525 
0.206091 
0.007167 
-0.422311 
-0.165892 
0.640063 
-0.359980 
0.246602 
-0.625086 
0.704844 
-0.270538 
0.583138 
-0.134831 
0.351840 
0.049847 
-0.035361 
0.544085 
0.521981 
0.164246 
0.095360 
0.116306 
0.183801 
-0.333543 
0.237922 
0.527444 
0.177353 
-0.861347 
0.407525 
0.053021 
0.638988 
0.482947 
-0.124863 
0.004859 
-0.612039 
-0.105838 
0.076517 
-0.217890 
-0.295965 
-0.830126 
0.246394 
0.566226 
-0.481276 
-0.341859 
-0.620576 
0.450236 
0.182897 
-0.375811 
-0.273780 
0.103671 
-0.040865 
0.142334 
-0.047966 
0.853083 
0.339206 
-0.534249 
0.332758 
0.391339 
-0.094713 
-0.100461 
0.188383 
-0.322146 
-0.690524 
-0.408732 
0.060417 
0.637446 
0.729340 
0.282723 
-0.213507 
-0.019778 
-0.171743 
-0.419268 
0.264950 
-0.473604 
0.266207 
0.551763 
0.199993 
0.709895 
-0.712365 
0.218177 
0.716286 
-0.104060 
-0.122469 
0.070273 
0.311331 
0.527108 
-0.514291 
0.052699 
0.378941 
0.243479 
0.250313 
0.405398 
-0.489027 
0.184630 
-0.128498 
0.850991 
0.523059 
-0.445487 
0.390804 
-0.277007 
-0.237353 
0.016327 
-0.037476 
0.172086 
-0.327614 
0.183249 
0.957224 
0.055091 
0.669376 
-0.110088 
0.204348 
-0.376038 
0.655507 
0.746413 
0.532931 
-0.093025 
0.096788 
-0.707231 
-0.019332 
-0.604455 
-0.308967 
-0.143368 
-0.806288 
0.791223 
-0.049577 
0.274080 
0.282551 
0.049947 
0.157789 
-0.449067 
0.142553 
-0.293679 
0.073933 
0.593056 
-0.449904 
0.083323 
0.450691 
0.333280 
-0.631885 
0.434718 
-0.852224 
-0.487044 
-0.245362 
-0.536474 
0.344852 
0.596942 
-0.037706 
-0.113017 
-0.366426 
-0.557025 
0.184811 
-0.211752 
0.749465 
0.263874 
0.722270 
0.718694 
0.075686 
-0.095164 
-0.027651 
-0.164493 
-0.240479 
-0.311567 
0.116323 
0.480480 
-0.255608 
0.245998 
0.384218 
-0.302164 
-0.254438 
-0.004750 
-0.310336 
-0.479758 
-0.391501 
0.224342 
0.413191 
-0.352335 
-0.223040 
0.639507 
0.007691 
0.470658 
-0.155958 
0.116704 
-0.537799 
-0.033648 
0.472369 
-0.733991 
-0.290359 
0.626381 
-0.520532 
-0.417951 
-0.352215 
0.053769 
0.063936 
0.400073 
-0.289923 
-0.305280 
-0.117310 
-0.326561 
0.119234 
-0.775871 
0.085116 
-0.232169 
0.663869 
-0.518326 
0.174413 
0.600360 
-0.014802 
0.864376 
-0.403516 
0.265023 
0.324747 
0.200812 
0.713034 
0.276017 
-0.206601 
0.155006 
0.336661 
0.717769 
0.287028 
0.112750 
-0.262913 
-0.612089 
0.004151 
0.457047 
0.071490 
0.209964 
0.710462 
0.793589 
-0.388046 
0.522397 
-0.499167 
-0.064735 
0.060074 
0.809992 
0.300448 
-0.023630 
-0.346782 
0.381303 
0.019430 
-0.157927 
-0.331704 
0.841109 
-0.652266 
-0.104144 
-0.549181 
0.193189 
0.988088 
0.404595 
-0.099803 
-0.382046 
0.151903 
-0.226742 
0.336904 
-0.792633 
0.048218 
0.787927 
0.436370 
0.417403 
0.384380 
-0.396682 
-0.116034 
0.368127 
0.181451 
0.055793 
-0.054134 
-0.090194 
-0.452132 
0.593109 
0.238460 
-0.307032 
-0.379791 
0.420414 
-0.143353 
-0.734344 
0.457271 
0.486805 
-0.057206 
0.804865 
0.358523 
0.152700 
0.210970 
-0.305217 
-0.808403 
0.713852 
0.180610 
0.437721 
0.056269 
-0.252984 
0.090670 
-0.592688 
0.194285 
0.154122 
-0.130045 
-0.101079 
-0.097700 
-0.155637 
0.111032 
-0.041553 
-0.651776 
-0.281014 
-0.507195 
0.493823 
0.021302 
-0.652174 
-0.067521 
-0.572701 
-0.693242 
0.202133 
-0.388933 
-0.449043 
0.946806 
0.114621 
-0.106625 
0.847330 
-0.444444 
0.700631 
0.065835 
0.265669 
0.135185 
0.320322 
-0.153893 
-0.426160 
0.571723 
-0.553427 
0.588153 
-0.291090 
0.301731 
-0.356097 
-0.135679 
0.832393 
-0.352221 
-0.098495 
-0.004669 
-0.686375 
0.331068 
0.317667 
-0.256252 
-0.803168 
0.169073 
0.921826 
0.300431 
-0.652602 
0.351580 
0.072695 
-0.204903 
0.089546 
0.202948 
0.345899 
-0.686847 
0.347642 
0.448441 
0.924773 
-0.588915 
0.286631 
-0.020264 
0.491134 
0.136246 
-0.547003 
-0.860035 
-0.387919 
-0.502646 
0.544679 
0.349199 
0.619372 
0.619690 
-0.096103 
-0.220654 
0.111407 
0.099255 
0.477223 
-0.494842 
-0.435854 
0.296534 
-0.464268 
-0.740557 
-0.856441 
-0.349956 
0.230419 
0.033844 
0.067254 
0.233096 
-0.715400 
0.244538 
0.560489 
-0.268616 
-0.054649 
-0.180796 
0.293435 
-0.434785 
-0.131233 
0.039829 
0.059977 
0.384700 
-0.548643 
0.725145 
-0.472621 
0.094405 
-0.266914 
-0.431196 
0.498866 
-0.102620 
-0.414547 
-0.251533 
0.244069 
-0.130720 
-0.157195 
-0.596702 
-0.422875 
0.775090 
0.158513 
-0.041932 
-0.464374 
0.443972 
-0.748349 
-0.036313 
0.178151 
1.193094 
-0.003635 
-0.268519 
0.005521 
-0.043428 
0.237408 
-0.245857 
0.206000 
-0.166265 
-0.761925 
-0.002106 
-0.126225 
-0.327494 
-0.691397 
-0.112491 
0.238105 
-0.265419 
0.001304 
0.426119 
-0.029324 
0.062446 
-0.031011 
0.352024 
0.509047 
0.115428 
-0.302829 
-0.049013 
-0.251801 
0.165996 
-0.087321 
0.234059 
-0.300585 
0.744978 
-0.787209 
0.665530 
0.092930 
0.189424 
-0.425214 
-0.033469 
-0.692613 
0.128391 
0.244278 
-0.251896 
-0.637789 
0.190064 
0.356952 
-0.099594 
0.038485 
-0.344859 
0.008824 
-0.236057 
0.715340 
0.596401 
0.426599 
-0.273422 
0.406666 
-0.766917 
-0.033648 
0.158822 
0.723289 
-0.123005 
-0.184570 
-0.288461 
-0.241251 
0.109437 
0.303198 
0.712072 
0.329060 
-0.102330 
0.354596 
0.350108 
-0.291447 
-0.390597 
-0.508591 
-0.274608 
-0.548911 
0.136455 
-0.102502 
-0.098892 
-0.218952 
-0.595278 
0.060335 
-0.330606 
-0.285667 
-0.611009 
-0.033616 
0.879740 
-0.617989 
0.783365 
0.463398 
-0.115895 
-0.228194 
0.246162 
-0.040024 
0.472370 
-0.197663 
-0.542638 
0.514693 
-0.082095 
0.252216 
-0.407071 
-0.769520 
0.628191 
0.571673 
-0.403224 
-0.001480 
-0.126582 
-0.331276 
0.131005 
0.076755 
0.177885 
0.123653 
0.816670 
0.515270 
0.148595 
0.292823 
-0.178697 
0.064670 
-0.314221 
-0.349541 
0.397786 
0.492884 
-0.232014 
-0.469144 
0.256744 
0.489914 
-0.323161 
0.514049 
-0.387777 
0.558648 
-0.246244 
-0.148589 
-0.628136 
-0.202038 
-0.547924 
0.176771 
0.412122 
0.240045 
-0.000801 
-0.554960 
-0.411531 
-0.280424 
-0.635931 
-0.348186 
-0.373052 
-0.281479 
0.693199 
0.159337 
0.521201 
-0.270190 
0.188360 
-0.392862 
-0.143759 
0.479909 
0.699410 
-0.635926 
-0.732830 
0.628865 
0.559587 
-0.109642 
0.137758 
-0.141759 
-0.091041 
0.541732 
0.723784 
-0.527788 
0.398110 
-0.367201 
0.239493 
0.502396 
-0.530573 
0.302047 
-0.742346 
-0.700774 
0.264736 
-0.388043 
-0.280327 
-0.802274 
0.052575 
-0.049609 
-0.060427 
-0.123167 
0.038095 
0.440863 
-0.677244 
0.553702 
-0.219469 
-0.348803 
-0.107369 
0.260916 
0.339054 
0.462386 
0.635340 
0.414448 
-0.596352 
0.692571 
0.237815 
0.366915 
-1.200928 
-0.268287 
-0.054155 
0.787435 
-0.201544 
0.926751 
-0.435717 
-0.122043 
-0.108816 
-0.634880 
0.028243 
-0.046522 
0.328729 
0.036987 
-0.025857 
-0.202124 
0.041177 
0.161797 
0.279021 
-0.336598 
0.013164 
-0.712132 
-0.366817 
0.674740 
0.054374 
-0.193725 
0.140965 
0.660637 
0.098846 
-0.046534 
-0.510543 
-0.658381 
0.532845 
0.249523 
0.038075 
0.236179 
0.017954 
0.603900 
0.274093 
-0.476638 
-0.589160 
-0.236610 
0.298868 
0.083926 
-0.827174 
0.136235 
-0.147649 
-0.090854 
-0.244850 
-0.161626 
-0.000478 
0.706265 
-0.069803 
0.452036 
-0.453376 
0.274477 
0.158612 
0.472236 
-0.244618 
-0.065767 
0.137598 
-0.105939 
0.046991 
0.084619 
-0.475445 
0.171097 
-0.684384 
-0.559190 
0.252089 
-0.086986 
-0.223548 
0.396376 
0.045517 
-0.441979 
0.241398 
0.306845 
-0.132636 
0.312357 
-0.513336 
-0.154898 
-0.016745 
-0.099185 
-0.489045 
-0.591052 
0.415113 
0.794122 
-0.303690 
-0.559435 
-0.416242 
-0.669698 
0.246498 
-0.027100 
0.165624 
-0.250069 
0.503499 
-0.201661 
-0.243868 
-0.380312 
0.215106 
0.469809 
-0.609711 
-0.466971 
-0.085661 
-0.375835 
-0.103293 
0.285275 
-0.229561 
0.203183 
0.024042 
-0.587552 
-0.343812 
0.180477 
0.199152 
-0.392983 
-0.524125 
-0.268409 
-0.467260 
0.790376 
-0.160931 
0.079843 
0.809068 
0.483965 
-0.526465 
-0.830788 
-0.430127 
0.410840 
0.075365 
0.163698 
-0.391031 
0.106643 
-0.373573 
0.103532 
0.147767 
0.534748 
0.572083 
-0.702791 
0.283975 
0.408450 
-0.326506 
0.281150 
0.069008 
-0.147947 
0.434353 
-0.302573 
-0.579805 
0.041058 
-0.902502 
-0.467971 
-0.966672 
-0.140975 
-0.581670 
0.045638 
0.712017 
-0.305379 
0.371750 
-0.320534 
-0.316819 
-0.103347 
-0.339488 
0.412117 
-0.080506 
0.190841 
0.131639 
0.150677 
-0.384115 
-0.309279 
-0.896657 
0.687110 
0.318804 
-0.020814 
-0.190898 
0.666692 
-0.656016 
0.332806 
-0.057891 
-0.117822 
-0.914955 
0.595914 
-0.333179 
-0.330601 
0.054170 
-0.222564 
0.140904 
0.247993 
-0.391919 
-0.132908 
0.440718 
0.488205 
0.209326 
0.297067 
0.043214 
-0.429304 
-0.544877 
-0.010290 
0.142610 
-0.629533 
-0.134499 
-0.182938 
-0.408044 
0.749177 
0.187966 
-0.167529 
-0.034944 
0.121781 
0.343454 
-0.144597 
0.479420 
0.443323 
0.080305 
-0.075108 
-0.395502 
0.163604 
0.477108 
-0.214393 
-0.468921 
0.153557 
-0.198126 
0.508927 
-0.203741 
0.402449 
0.364677 
-0.461999 
0.298862 
0.155987 
-0.217902 
-0.919402 
-0.244033 
-0.443377 
-0.257507 
-0.001653 
-0.005904 
-0.227119 
0.251752 
0.170852 
-0.070021 
-0.301523 
-0.481751 
-0.525889 
0.197901 
-0.051697 
-0.070011 
0.119980 
0.012405 
-0.251420 
0.243065 
-0.525615 
0.159490 
-0.232511 
-0.585469 
0.478530 
0.165077 
-0.006631 
0.667270 
0.655926 
0.496452 
-0.208571 
0.636377 
0.391186 
0.517753 
-0.413195 
0.166730 
-0.152233 
-0.400845 
0.809191 
0.563384 
0.359575 
0.639628 
-0.280056 
-0.692770 
-0.658881 
0.161229 
-0.874334 
-0.549260 
0.587403 
-0.385926 
0.386580 
0.323280 
0.380588 
-0.419615 
0.215979 
0.640624 
-0.466323 
-0.634480 
0.641591 
-0.441694 
-0.345408 
-0.289743 
0.114963 
-0.279641 
-0.710715 
-0.429212 
0.255318 
0.104909 
-0.098025 
0.030584 
-0.030666 
0.278333 
0.252209 
-0.168241 
0.092188 
0.162425 
0.285257 
0.390447 
0.527329 
0.297250 
-0.476363 
0.313272 
-0.111699 
0.609118 
-0.043123 
-0.587970 
0.638569 
-0.325327 
-0.567705 
0.216285 
-0.267953 
-0.513995 
-0.456074 
0.003320 
0.752721 
-0.278540 
0.032080 
0.293885 
-0.437117 
0.503188 
0.657949 
-0.125462 
-0.572375 
-0.334117 
0.606616 
0.320202 
-0.328104 
-0.473525 
0.375104 
0.005127 
-0.187201 
-0.875847 
-0.838540 
0.618182 
0.200293 
0.068762 
-0.316884 
0.156014 
0.146232 
0.691262 
-0.067873 
0.549567 
0.660045 
-0.101973 
0.336972 
0.459133 
-0.628258 
0.354721 
-0.114951 
0.014354 
0.359331 
0.306986 
0.626761 
-0.276061 
-0.693028 
-0.074808 
0.214476 
-0.041053 
0.353038 
-0.105009 
-0.337409 
-0.041707 
-0.384991 
-0.299199 
-0.106240 
-0.176537 
0.231927 
-0.257998 
-0.639081 
0.625900 
-0.078496 
0.943719 
-0.257500 
0.169439 
0.764773 
0.359547 
0.033538 
0.158956 
-0.490033 
0.090302 
-0.370589 
-0.009466 
-0.501228 
-0.321317 
0.318278 
0.088872 
0.292382 
0.192214 
0.727788 
-0.517099 
-0.524560 
-1.018193 
-0.104719 
0.465735 
0.348048 
0.676015 
-0.347508 
0.261793 
-0.266396 
0.388029 
0.011423 
-0.174653 
0.081761 
0.592340 
-0.225544 
-0.058055 
0.481033 
-0.054065 
-0.373017 
0.102324 
-0.102597 
0.199980 
-0.051790 
-0.309624 
0.912753 
-0.108314 
0.201929 
-0.406598 
-0.140459 
-0.276949 
0.082125 
-0.130576 
-0.462531 
0.134832 
-0.404789 
-0.232604 
0.301747 
-0.249462 
-0.001129 
0.219906 
-0.199521 
-0.907730 
0.508441 
-0.105819 
-0.279310 
0.833396 
0.631964 
-0.406029 
0.194495 
0.474746 
0.177233 
0.505656 
0.143519 
-0.048947 
-0.305137 
-0.706129 
0.399604 
-0.469720 
-0.169453 
-0.262011 
-0.200568 
-0.315379 
-0.059119 
-0.185499 
-0.522462 
-0.015390 
0.348788 
0.622755 
-0.515769 
-0.348285 
0.120103 
0.051393 
0.021123 
0.766932 
0.205632 
0.146074 
-0.015653 
-0.214726 
-0.870803 
-0.029508 
-0.824420 
0.233024 
-0.355174 
0.209163 
-0.148037 
-0.127099 
0.462902 
0.195281 
0.005761 
0.488812 
0.796805 
-0.734422 
-0.315505 
0.289316 
-0.012953 
0.048726 
-0.286077 
0.532235 
0.220401 
-0.096583 
-0.489987 
-0.010841 
-0.758148 
0.139293 
-0.464675 
0.341994 
-0.330017 
0.198828 
0.019584 
-0.190480 
-0.027470 
-0.009288 
-0.015301 
-0.234908 
0.045947 
-0.515793 
-0.303356 
-0.058606 
-0.316080 
-0.377528 
0.401920 
0.445562 
0.406453 
0.577482 
-0.327062 
-0.446868 
0.089785 
0.772254 
-0.353291 
-0.657710 
0.409113 
0.392062 
-0.448326 
-0.471475 
0.626267 
0.570287 
0.208208 
-0.229225 
0.392109 
-0.512455 
-0.036051 
-0.055747 
-0.055954 
0.346785 
-0.323228 
0.332303 
0.302141 
0.320291 
0.277474 
-0.080837 
-0.217435 
0.051081 
0.695693 
-0.382055 
0.408789 
0.398961 
-0.065579 
0.263921 
0.144616 
0.421094 
-0.397526 
-0.258077 
-0.274766 
0.565516 
-0.249517 
0.065212 
0.582535 
-0.057740 
-0.288451 
-0.030992 
-0.123356 
0.009803 
-0.047736 
0.514462 
-0.064387 
0.024265 
0.277963 
-0.324742 
-0.299846 
-0.161432 
0.270376 
0.307016 
0.351030 
-0.347987 
-0.447562 
0.689576 
0.038515 
-0.028985 
0.413716 
-0.140922 
0.402178 
-0.020521 
0.034791 
0.207996 
0.388589 
0.646373 
0.961152 
0.035622 
0.257833 
-0.600828 
0.122807 
0.012868 
-0.200625 
-0.098483 
-0.923904 
-0.381571 
-0.487533 
-0.344570 
-0.419466 
-0.031886 
-0.039248 
0.049880 
0.211134 
-0.120591 
-0.695151 
-0.151986 
0.194182 
-0.219598 
0.033037 
0.253295 
-0.482740 
0.129648 
0.159441 
0.234473 
0.342701 
-0.805506 
-0.003163 
0.746223 
0.573534 
-0.688755 
-0.966405 
0.352638 
0.290073 
-0.348855 
0.171606 
0.872583 
-0.466231 
-0.513871 
-0.477204 
0.159409 
0.142001 
-0.244425 
0.185192 
0.051703 
-0.170455 
-0.673801 
-0.320496 
-0.102878 
-0.155579 
-0.271272 
-0.249101 
-0.446928 
0.086233 
-0.480801 
0.804686 
-0.109034 
0.730528 
0.105459 
-0.023041 
-0.080144 
-0.532133 
0.581087 
0.039432 
0.033162 
-0.051137 
-0.089283 
0.032598 
0.548532 
0.414368 
-0.689535 
-0.283558 
-0.660146 
0.354808 
-0.523667 
-0.591846 
-0.086795 
-0.270486 
0.344340 
-0.260109 
0.140568 
0.014893 
0.627461 
-0.214605 
-0.410321 
-0.523057 
0.127110 
-0.586474 
-0.012938 
-0.189886 
0.498734 
-0.820643 
-0.766564 
0.277566 
-0.488088 
0.714408 
-0.082238 
-0.649905 
-0.159031 
-0.386181 
-0.658981 
-0.144923 
0.267251 
0.845698 
0.017505 
-0.421905 
0.578075 
-0.408243 
-0.311713 
-0.476283 
-0.400367 
-0.264954 
-0.104393 
0.283684 
0.284432 
0.620327 
0.734805 
-0.246629 
0.637209 
-0.457979 
-0.832416 
-0.550527 
-0.304320 
-0.395157 
0.726830 
-0.470290 
-0.182316 
0.085831 
-0.820065 
0.008293 
0.243541 
-0.485917 
-0.077280 
-0.006280 
-0.392433 
-0.337666 
0.012055 
-0.728825 
0.283850 
-0.207261 
0.420424 
-0.172454 
-0.249957 
-0.440000 
0.485263 
-0.191640 
-0.311068 
0.760613 
0.016700 
-0.084655 
0.326221 
-0.011276 
0.412579 
0.055539 
-0.863423 
0.265011 
0.526989 
-0.164847 
0.170232 
-0.328686 
0.275175 
-0.046513 
0.175119 
-0.677132 
0.064665 
0.102989 
0.489085 
-0.047675 
0.143313 
0.737724 
-0.299118 
-0.042090 
-0.660523 
0.423386 
-0.218988 
-0.599268 
0.450216 
0.242970 
-0.183672 
-0.297223 
-0.467940 
-0.517246 
-0.523491 
0.538148 
-0.586853 
0.328725 
0.393042 
0.437256 
-0.297809 
-0.027695 
-0.738104 
-0.484726 
0.259194 
0.188336 
-0.554374 
-0.673737 
-0.041991 
0.148788 
0.364405 
0.491220 
0.179690 
-0.809411 
0.617969 
0.170562 
0.317748 
-0.237909 
0.027957 
-0.050071 
0.442744 
-0.730458 
0.437376 
-0.101889 
-0.290872 
0.203162 
0.094667 
0.563004 
0.067351 
0.608232 
-0.146224 
0.372113 
-1.018085 
-0.463292 
-0.085638 
0.242854 
0.712546 
-0.843390 
-0.893277 
0.212472 
0.355309 
-0.057562 
-0.371224 
-0.095045 
0.106533 
-0.388734 
0.690598 
0.393933 
0.533136 
0.428161 
0.291995 
0.276959 
-0.508247 
-0.604591 
-0.297948 
0.093416 
0.023396 
-0.743083 
-0.454207 
-0.108425 
0.201194 
0.407498 
0.010410 
-0.036895 
0.444163 
0.037688 
0.537643 
0.254026 
0.127066 
0.191931 
0.082224 
0.062040 
-0.129615 
0.124165 
0.214835 
0.062314 
-0.928477 
0.691687 
0.265067 
0.419884 
0.013642 
0.412923 
0.356043 
-0.166225 
-0.378344 
0.006314 
-0.153145 
0.587215 
0.206997 
0.029023 
-0.002707 
0.218360 
-0.545004 
-0.047811 
-0.868315 
-0.353123 
0.011275 
0.013830 
-0.062774 
-0.381326 
0.041542 
-0.073063 
0.311777 
-0.509402 
-0.042310 
-0.165667 
-0.731694 
0.706871 
0.413960 
0.351687 
0.154253 
-0.051301 
-0.333806 
-0.031556 
-0.213374 
0.130264 
0.189705 
0.202406 
0.161759 
0.910224 
-0.193220 
0.403715 
-0.315266 
-0.021166 
-0.140782 
-0.010845 
-0.089721 
0.723416 
0.355336 
-0.456463 
0.191553 
0.436835 
-0.376138 
-0.432462 
0.773400 
-0.105136 
0.397208 
0.193424 
-0.189840 
-0.304048 
-0.346640 
-0.407912 
0.551587 
0.206588 
0.076866 
-0.160034 
-0.614216 
0.665131 
0.518265 
-0.497787 
0.804590 
-0.501511 
0.080111 
0.541124 
0.558031 
-0.026460 
0.161504 
-0.407331 
-0.542161 
0.046751 
-0.680627 
-0.174811 
0.434898 
-0.217342 
-0.207591 
-0.383237 
-0.700423 
0.131898 
0.558336 
0.706201 
-0.135406 
0.552714 
-0.246713 
0.777591 
0.401866 
-0.571995 
-0.182619 
0.767971 
0.804937 
-0.538865 
-0.072304 
0.157319 
-0.074387 
0.011805 
-0.028937 
-0.344731 
-0.917508 
-0.097545 
0.165550 
0.237048 
0.521439 
-0.308967 
0.114640 
0.681365 
-0.323373 
0.065318 
0.038571 
0.208874 
-0.031106 
-0.203756 
0.079920 
0.216712 
0.179584 
0.194308 
-0.170129 
-0.416733 
0.070812 
-0.037154 
0.112120 
0.245464 
0.762954 
-0.484842 
-0.272988 
0.028955 
-0.730765 
-0.109952 
0.215272 
0.772968 
-0.865095 
0.261108 
0.606984 
0.156541 
-0.670730 
-0.367046 
-0.298676 
-0.236809 
0.500875 
0.465504 
-0.494915 
0.073825 
0.690974 
0.292954 
-0.496197 
-0.371061 
0.427869 
0.397302 
-0.428296 
0.249881 
-0.529948 
-0.552396 
0.036704 
-0.064998 
-0.087863 
0.072359 
0.189603 
-0.118168 
0.050060 
0.623565 
-0.510933 
0.241550 
-0.372454 
-0.371186 
0.649111 
0.125357 
-0.328773 
-0.112965 
0.210486 
0.543825 
0.658284 
0.248177 
-0.388287 
0.077151 
0.332774 
0.187414 
-0.555345 
0.052095 
0.975768 
0.851405 
0.879147 
0.152501 
-0.845393 
0.003998 
0.696738 
0.569231 
-0.005829 
0.423383 
-0.193518 
0.640217 
-0.058321 
-0.207678 
0.263080 
-0.009091 
0.033561 
0.090017 
-0.217676 
0.177186 
0.658909 
0.479271 
0.720779 
0.815455 
-0.174354 
-0.548156 
-0.315533 
0.180954 
-0.149317 
-0.351295 
0.192079 
-0.417900 
-0.035487 
0.220583 
0.504685 
-0.306279 
-0.445937 
-0.370556 
0.100253 
-0.326792 
-0.322489 
-0.200569 
-0.276467 
0.185827 
-0.017640 
0.829341 
0.133671 
-0.831140 
0.773932 
-0.869323 
-0.119001 
0.758037 
-0.223496 
0.373720 
0.262930 
0.132365 
-0.301218 
0.064979 
-0.063529 
0.389077 
0.410042 
0.145696 
-0.908305 
-0.502697 
0.742711 
0.590564 
0.274161 
0.227668 
0.123566 
-0.667510 
0.345556 
-0.088099 
-0.339984 
0.450352 
-0.687619 
0.399819 
0.114347 
0.248172 
0.678457 
0.039369 
0.184587 
-0.425262 
-0.142806 
-0.564355 
-0.297099 
0.743967 
-0.007552 
0.219605 
0.045224 
0.598499 
-0.049628 
0.652056 
0.685565 
-0.824097 
-0.092229 
-0.116213 
-0.527564 
-0.559389 
0.020920 
0.383853 
0.306314 
-0.855882 
-0.505396 
-0.072421 
0.644569 
-0.322781 
-0.090980 
-0.838566 
0.288375 
-0.386111 
0.443423 
-0.391308 
0.069484 
0.006391 
0.364577 
0.232827 
-0.456494 
0.278841 
-0.451345 
-0.414280 
0.321736 
0.504472 
0.795160 
0.150486 
-0.200675 
-0.290675 
0.658027 
-0.287494 
-0.039568 
0.845427 
-0.482076 
-0.216884 
-0.504204 
0.056490 
-0.361372 
-0.423133 
-0.672464 
-0.194921 
0.926595 
-0.501649 
0.686246 
0.320042 
-0.005825 
-0.177126 
0.014344 
-0.241459 
0.429147 
-0.114958 
0.007534 
0.224830 
0.012043 
-0.123423 
-0.478865 
0.222178 
-0.043536 
0.525132 
-0.517905 
0.168677 
0.518978 
0.226907 
-0.963360 
-0.329252 
-0.240521 
-0.264896 
0.288631 
0.052727 
-0.165288 
-0.199147 
-0.632701 
0.788628 
0.367543 
0.885141 
-0.483270 
0.030254 
-0.956802 
0.493535 
0.050704 
0.013337 
-0.296285 
-0.355389 
-0.576807 
-0.445150 
0.519784 
-0.103921 
-0.033297 
-0.204576 
-0.504567 
0.507799 
-0.111972 
-0.038155 
-0.106189 
0.632497 
-0.371101 
-0.109340 
-0.423975 
0.821699 
0.041079 
0.246946 
0.164064 
-0.082797 
-0.464430 
0.285627 
-0.105733 
-0.332419 
-0.457342 
0.259031 
0.096611 
0.097684 
0.479533 
0.717200 
0.115391 
-0.185142 
0.263745 
0.248299 
0.422038 
-0.902125 
-0.018831 
0.584876 
-0.029770 
0.693951 
-0.113139 
-0.261330 
-0.218167 
-0.085086 
-0.350163 
0.367730 
0.387390 
0.527578 
0.095237 
-0.502991 
-0.316809 
-0.578370 
-0.520646 
0.179981 
-0.313401 
-0.570542 
0.268750 
-0.753446 
0.439403 
-0.044626 
0.383740 
-0.379243 
-0.549065 
-0.104404 
-0.025150 
-0.673936 
-0.196020 
0.159976 
-0.310680 
-0.165474 
-0.351095 
0.250362 
0.433074 
-0.040554 
0.215735 
-0.607986 
-0.361538 
0.247658 
-0.669769 
0.175654 
0.028992 
-0.130761 
0.430523 
-0.301490 
-0.113759 
0.008423 
0.081666 
0.393957 
-0.186897 
-0.176737 
0.085135 
-0.706432 
0.256736 
0.485832 
0.518214 
0.190700 
-0.001099 
-0.214116 
-0.407984 
-0.277353 
-0.048551 
-0.213337 
-0.165559 
-0.107813 
0.451036 
0.107089 
0.118307 
0.038240 
-0.310678 
-0.029391 
0.212968 
0.473003 
0.191362 
0.377275 
-0.760910 
0.562075 
0.398450 
-0.140569 
-0.603626 
-0.162173 
0.180165 
0.218286 
0.236792 
0.052330 
-0.492945 
0.244155 
0.155250 
0.167896 
-0.185308 
-0.348338 
0.281926 
-0.582277 
-0.482528 
-0.260724 
-0.141716 
-0.279461 
-0.076593 
-0.237354 
0.538570 
0.036601 
-0.012207 
0.124798 
-0.193571 
-0.059200 
0.202258 
0.085659 
0.021055 
-0.257432 
-0.096075 
0.200163 
-0.049891 
-0.812860 
-0.021185 
0.149676 
-0.341380 
-0.497919 
0.147068 
0.151655 
0.199083 
0.166393 
-0.225698 
-0.176068 
-0.477920 
-0.117815 
0.028806 
-0.088809 
0.030120 
0.400919 
-0.228313 
-0.635916 
-0.428267 
-0.472641 
-0.260781 
-0.402264 
-0.030884 
-0.233140 
0.338782 
-0.058133 
0.039264 
-0.289239 
-0.164698 
0.041899 
0.008846 
0.227668 
-0.510270 
0.047010 
0.888356 
-0.207286 
0.071844 
-0.535558 
0.417797 
0.512814 
-0.598696 
-0.419053 
-0.529657 
-0.254463 
0.199748 
0.181987 
0.673322 
-0.165509 
-0.130821 
0.323819 
-0.561664 
-0.429053 
0.066559 
-0.646131 
-0.516678 
0.544159 
0.067591 
-0.057900 
-0.444396 
0.126377 
0.069238 
-0.184295 
0.058315 
-0.379143 
-0.465611 
0.422803 
0.544449 
0.063502 
-0.503905 
-0.234840 
0.660917 
-0.391021 
0.317441 
-0.257694 
0.411994 
-0.270649 
-0.277383 
-0.020507 
0.100403 
0.063866 
0.372674 
-0.491098 
-0.750300 
0.565296 
-0.607099 
0.418821 
0.194616 
-0.525620 
-0.084801 
0.100257 
-0.294586 
-0.332512 
0.394669 
-0.401820 
0.265455 
0.470817 
0.082705 
0.766542 
0.118412 
0.298827 
-0.623206 
-0.159545 
0.169188 
0.282620 
0.534065 
0.308884 
-0.029089 
-0.853480 
-0.635171 
-0.603076 
0.632126 
0.424932 
0.022907 
0.030223 
-0.061747 
0.226839 
-0.842337 
0.200989 
-0.144098 
0.163693 
-0.749443 
-0.514629 
0.535539 
-0.086825 
0.239875 
-0.016144 
-0.006806 
0.599322 
0.082980 
0.647572 
0.208991 
-0.210456 
-0.410810 
0.412702 
-0.457778 
-0.126469 
-0.328318 
0.154576 
0.776513 
0.059877 
0.613361 
0.075137 
0.635334 
0.016480 
-0.167792 
-0.406476 
-0.202308 
0.011444 
0.147403 
0.736930 
0.414075 
0.553575 
0.544267 
0.030915 
0.121433 
0.434878 
-0.559498 
-0.129910 
-0.469550 
-0.202029 
-0.619251 
-0.470692 
0.417830 
-0.319922 
-0.344127 
-0.745582 
-0.132511 
-0.329711 
0.410653 
-0.412735 
0.675410 
0.052565 
0.419964 
-0.661647 
0.479066 
0.558458 
-0.262399 
-0.329371 
-0.769089 
-0.050582 
0.096637 
0.646912 
0.636282 
-0.532982 
0.251179 
-0.054752 
0.533403 
0.148089 
-0.366044 
-0.303042 
0.270407 
0.131336 
0.050744 
-0.158164 
0.211717 
-0.098178 
-0.020587 
0.123203 
-0.652971 
-0.219452 
-0.072237 
0.395664 
0.368501 
0.207160 
-0.735662 
0.253242 
-0.825911 
-0.678228 
-0.289438 
0.715937 
-0.234352 
-0.868647 
0.615167 
0.635939 
-0.824930 
0.018800 
-0.217291 
-0.275142 
-0.137037 
0.397107 
-0.348755 
-0.108411 
0.500999 
0.260806 
0.030719 
-0.727816 
0.569107 
0.792171 
-0.220104 
-0.340846 
0.025513 
0.588605 
0.072359 
-0.301538 
-0.566652 
-0.223460 
-0.011819 
0.614757 
-0.569832 
0.264903 
-0.193748 
0.306528 
0.235198 
-0.251174 
-0.005219 
0.617873 
0.152352 
-0.087646 
-0.372739 
-0.116724 
-0.883301 
-0.093266 
0.048708 
0.041613 
0.495109 
-0.642156 
0.369881 
0.170565 
0.228009 
-0.876829 
0.224427 
-0.045889 
-0.245707 
-0.533036 
-0.533834 
-0.204222 
-0.313999 
0.287606 
0.335876 
-0.332627 
0.787167 
-0.997924 
-0.471386 
-0.115549 
-0.040284 
-0.093219 
-0.491665 
0.245418 
0.191105 
0.189963 
-0.177342 
0.605227 
-0.658310 
0.310852 
-0.300504 
0.095157 
0.663834 
0.065655 
-0.346075 
0.142580 
0.358795 
-0.049445 
0.639567 
-0.518486 
0.053654 
-0.124640 
0.337809 
-0.292588 
0.110639 
-0.029165 
-0.273766 
0.441624 
0.251444 
-0.470999 
0.304834 
0.045664 
-0.448658 
-0.228217 
-0.035078 
-0.468966 
0.144481 
-0.491967 
0.030701 
0.931745 
0.504469 
0.270580 
-0.054820 
0.115839 
0.241279 
0.267060 
-0.609862 
-0.366111 
0.386580 
-0.654279 
0.001425 
0.962730 
0.066296 
-0.067524 
0.510089 
-0.568499 
0.295059 
0.670500 
-0.908200 
0.102340 
-0.454617 
-0.765669 
-0.720580 
0.234658 
0.605159 
-0.646295 
-0.048799 
0.551387 
0.857198 
-0.049024 
0.366526 
-0.330031 
-0.718565 
0.238310 
-0.220371 
-0.701873 
-0.290137 
-0.045686 
0.624523 
0.085330 
0.184255 
0.036678 
0.660647 
0.394583 
-0.657618 
-0.576547 
0.488581 
-0.377919 
-0.245705 
0.572314 
0.252855 
-0.147986 
0.512036 
-0.646997 
0.385495 
0.175548 
-0.124184 
0.122079 
-0.389329 
-0.266823 
-0.882505 
-0.027242 
-0.158395 
0.966333 
0.419832 
-0.663218 
-0.153723 
-0.168540 
0.039187 
-0.007797 
-0.860530 
0.273210 
-0.048670 
-0.067718 
0.737412 
0.350235 
0.037804 
0.457931 
0.667946 
0.353849 
-0.169152 
-0.406446 
0.394362 
-0.076618 
-0.518141 
-0.025753 
0.488933 
-0.107777 
0.562795 
-0.244714 
-0.076977 
0.627422 
-0.216102 
-0.655262 
0.833644 
0.129276 
-0.546434 
-0.452223 
0.802026 
0.200812 
-0.137394 
-0.820948 
0.597095 
0.439589 
0.324808 
-0.620837 
-0.546499 
-0.295073 
-0.174653 
-0.444906 
1.121339 
0.550486 
-0.665178 
-0.458595 
0.702689 
0.564978 
-0.231544 
0.001221 
-0.727592 
-0.748283 
-0.509751 
-0.336344 
-0.709922 
-0.024262 
-0.347514 
0.001282 
-0.208014 
0.648246 
0.005402 
-0.114004 
-0.672988 
0.439298 
-0.689950 
-0.523341 
-0.068115 
-0.843034 
-0.062075 
0.041927 
0.146559 
-0.017043 
0.234061 
-0.139150 
0.467270 
0.352062 
0.656471 
-0.691294 
-0.225255 
0.059084 
-0.313236 
-0.687887 
-0.330454 
-0.284158 
0.176580 
-0.078341 
-0.156011 
0.545732 
-0.450728 
-0.525895 
0.161870 
-0.417890 
0.016143 
-0.007569 
-0.763787 
-0.002320 
0.037110 
-0.228401 
-0.872341 
-0.005219 
-0.660024 
0.519120 
-0.389721 
-0.624296 
0.436539 
-0.009097 
-0.062987 
0.547245 
0.826693 
0.209881 
0.154689 
-0.266712 
0.568865 
-0.215628 
0.580366 
-0.235378 
0.172168 
0.636547 
-0.375952 
0.067922 
-0.706078 
0.146982 
0.387542 
0.715781 
-0.443233 
0.423461 
0.091567 
-0.019884 
0.007083 
-0.138648 
0.170329 
-0.559596 
0.138420 
-0.168858 
0.431379 
0.012032 
0.253742 
0.286165 
-0.255245 
0.302772 
-0.521970 
-0.057423 
-0.491113 
0.500483 
-0.391047 
0.315317 
0.091100 
-0.105084 
0.091887 
-0.003991 
0.272327 
-0.643937 
-0.334608 
0.403834 
-0.080557 
0.064073 
-0.304422 
-0.260977 
0.244747 
-0.292663 
0.527992 
-0.365226 
-0.432290 
-0.727939 
-0.249431 
-0.061041 
0.489903 
-0.803735 
0.234048 
-0.566464 
0.356306 
-0.348620 
0.214810 
0.306699 
1.179137 
-0.779072 
-0.441668 
-0.072013 
-0.009674 
0.640131 
-0.541146 
0.104831 
0.563133 
0.144743 
0.612628 
0.619511 
-0.807298 
0.835776 
0.504203 
0.681631 
0.555607 
-0.575838 
-0.654500 
-0.700760 
-0.858142 
0.011193 
-0.016358 
0.270649 
0.535864 
-0.501220 
-0.574480 
0.820624 
0.157618 
0.472133 
-0.148161 
-0.258254 
0.608449 
0.589166 
0.136974 
0.038266 
-0.730994 
0.496841 
0.867063 
-0.068303 
0.805594 
0.118107 
0.748788 
0.042154 
-0.510975 
-0.192639 
0.024608 
-0.150531 
0.554704 
-0.602425 
0.067471 
0.310094 
0.092078 
0.182462 
0.066333 
-0.498125 
-0.843936 
0.625254 
-0.473601 
-0.169713 
0.661600 
0.876006 
-0.449568 
0.009182 
-0.466864 
0.157940 
0.042536 
0.012934 
-0.071260 
-0.042847 
-0.123753 
-0.937017 
0.179374 
0.195291 
0.176429 
-0.502965 
0.799564 
-0.853874 
0.410834 
-0.132433 
0.305866 
-0.130192 
0.985810 
0.355589 
-0.341147 
0.029512 
0.100779 
-0.549374 
-0.576286 
-0.551415 
-0.486701 
0.442231 
0.249184 
-0.152216 
-0.671746 
-0.300485 
0.327023 
0.114222 
-0.490474 
-0.441680 
0.848968 
0.542594 
0.050014 
0.190771 
-0.030860 
-0.037279 
0.460402 
-0.104212 
-0.039736 
-0.232278 
-0.349078 
0.372378 
-0.450465 
0.097267 
-0.402509 
-0.617934 
-0.302672 
0.035249 
-0.739966 
0.773022 
0.777602 
0.706611 
0.139501 
-0.753472 
0.393933 
-0.629048 
0.299460 
-0.263753 
0.684889 
-0.219092 
-0.071763 
0.690662 
0.380241 
0.814343 
0.040836 
-0.360562 
-0.721000 
-0.701064 
0.641567 
-0.196439 
-0.136002 
-0.149525 
0.865890 
-0.251360 
-0.302739 
-0.819158 
-0.539750 
0.206763 
-0.783122 
-0.362987 
0.151982 
-0.385296 
0.061373 
0.071230 
-0.852779 
0.422620 
-0.450819 
-0.523484 
-0.507035 
-0.122074 
-0.346657 
0.219022 
0.406845 
-0.031170 
-0.549087 
0.820852 
-0.675903 
-0.503647 
0.547496 
-0.093905 
0.169266 
-0.155131 
-0.626363 
0.007326 
0.095478 
-0.501706 
0.567702 
-0.044028 
0.016150 
0.082755 
0.101901 
-0.621046 
-0.543236 
0.183201 
-0.074474 
0.330945 
0.382847 
0.500454 
0.184915 
0.208547 
0.088683 
-0.367107 
-0.126328 
0.888651 
0.446427 
0.527633 
0.794209 
0.141441 
0.380999 
-0.234696 
0.334800 
-0.440105 
0.242347 
-0.361439 
-0.513718 
0.589251 
-0.635426 
0.188055 
0.034913 
0.030976 
-0.558641 
-0.147191 
-0.657826 
0.778039 
0.563982 
0.347174 
-0.392383 
0.292064 
0.754180 
-0.420167 
-0.827990 
0.380987 
-0.201227 
0.245036 
0.099857 
-0.023496 
0.213259 
0.224672 
-0.693368 
0.305652 
-0.050378 
-0.275479 
0.433456 
-0.070779 
-0.534638 
0.331858 
0.467125 
0.515512 
0.831456 
-0.042724 
0.070382 
-0.049551 
0.068992 
0.451373 
-0.132942 
-0.697881 
0.222938 
0.028686 
0.185031 
-0.348475 
-0.074297 
0.380004 
0.476224 
-0.726703 
0.226087 
-0.332436 
-0.298573 
-0.266671 
0.397338 
-0.061468 
-0.164293 
0.151953 
-0.383515 
0.684414 
0.116639 
-0.034712 
-0.111064 
0.060328 
0.751091 
-0.156210 
0.231234 
-0.561226 
0.060525 
-0.168316 
0.312876 
-0.667547 
0.580799 
0.492897 
-0.135151 
-0.429121 
0.100378 
0.224320 
-0.116879 
0.154956 
0.076022 
-0.116520 
0.058896 
0.163765 
0.290767 
0.443272 
-0.068270 
-0.512194 
0.309976 
0.120727 
-0.201080 
0.410116 
-0.069908 
0.256899 
0.106104 
0.182694 
-0.237385 
0.509384 
-0.467183 
0.253104 
-0.258141 
0.131769 
0.523902 
-0.385333 
0.624814 
-0.002539 
0.348112 
-0.586915 
-0.698264 
-0.311704 
0.323766 
0.256616 
-0.093906 
-0.102520 
-0.539164 
-0.497971 
0.616402 
-0.694206 
0.233182 
-0.180883 
0.706506 
-0.193794 
-0.812031 
0.310075 
-0.326718 
-0.321303 
0.299524 
-0.744848 
0.240203 
0.833398 
-0.092746 
-0.174915 
-0.155695 
-0.031980 
-0.104727 
-0.138473 
0.678320 
0.122289 
-0.126707 
0.578363 
0.105687 
-0.118870 
0.160268 
0.198461 
-0.580387 
-0.300141 
-0.352478 
-0.462897 
0.668613 
0.675950 
-0.273752 
-0.264887 
-0.061861 
0.649044 
0.301088 
0.326326 
0.287699 
-0.170483 
0.436715 
0.196646 
-0.074641 
-0.053686 
-0.316605 
0.044130 
-0.273405 
-0.287928 
-0.235999 
0.483468 
-0.203437 
0.329451 
0.276399 
0.274114 
0.628141 
0.529429 
0.151372 
0.050800 
0.048830 
0.967956 
-0.630604 
0.350475 
0.317576 
0.715262 
0.614460 
0.291116 
-0.036714 
0.208045 
-0.258644 
-0.275674 
0.043306 
-0.382153 
0.201239 
-0.134006 
-0.093660 
-0.260018 
0.056948 
-0.561754 
0.458296 
0.383770 
-0.383823 
0.310327 
-0.057046 
0.278373 
0.879069 
0.686266 
0.138405 
-0.592358 
0.216724 
-0.491104 
0.240254 
0.020040 
-0.015927 
0.061406 
0.027768 
-0.316367 
0.260774 
0.205041 
-0.259632 
0.021016 
0.051210 
-0.406351 
0.121581 
-0.255069 
0.047103 
-0.597712 
0.356684 
0.084638 
0.008253 
0.668790 
-0.424046 
0.480789 
0.406143 
-0.720418 
0.039123 
0.436929 
-0.542716 
0.826805 
-0.206247 
0.236171 
-0.059686 
-0.137961 
-0.556139 
-0.416831 
-0.471255 
0.182013 
0.305986 
-0.015457 
0.021869 
-0.550785 
0.188652 
-0.550218 
0.880876 
0.068636 
-0.333872 
0.149800 
-0.003374 
0.427188 
-0.054617 
0.462682 
0.827545 
-0.694061 
-0.077415 
-0.626174 
-0.198981 
0.176263 
0.054485 
0.320749 
-0.479931 
-0.129602 
-0.190829 
-0.217090 
-0.642814 
-0.546272 
0.094998 
0.868435 
-0.108714 
0.332985 
-0.242334 
-0.300055 
0.147065 
-0.160278 
0.272758 
0.125011 
-0.397727 
0.297772 
-0.067812 
0.059354 
-0.258322 
0.022730 
-0.142372 
-0.505661 
0.829480 
0.202884 
-0.029817 
0.765676 
0.167452 
-0.032136 
-0.077701 
-0.223204 
-0.352376 
0.021864 
0.393826 
-0.040713 
0.712917 
-0.221401 
-0.267529 
-0.044572 
-0.675893 
0.073545 
0.127956 
0.160558 
0.002121 
0.197958 
-0.105753 
-0.480298 
-0.043249 
0.362823 
-0.908759 
0.765007 
-0.032423 
0.743509 
-0.353887 
-0.106828 
-0.075878 
0.517520 
0.540254 
0.423653 
-0.648986 
-0.505614 
0.587909 
0.263595 
-0.706096 
-0.681392 
-0.303378 
0.154062 
-0.564605 
0.148374 
0.504581 
0.378842 
-0.203686 
-0.863033 
-0.894372 
0.621630 
-0.097171 
-0.433546 
0.060884 
0.160618 
0.484998 
0.448103 
0.340525 
-0.156109 
-0.305429 
-0.060854 
-0.249453 
-0.279471 
-0.125790 
0.319407 
0.310077 
-0.533159 
0.135561 
-0.328445 
-0.010515 
-0.663442 
0.347264 
-0.119011 
-0.080569 
-0.578319 
-0.363194 
-0.328733 
0.048085 
-0.304707 
-0.523874 
0.062307 
0.375134 
0.340494 
-0.834132 
0.757530 
-0.308054 
-0.457503 
-0.256447 
-0.330729 
-0.124607 
0.055269 
-0.323618 
-0.010620 
-0.358593 
-0.107098 
-0.230557 
0.151545 
0.074272 
0.313571 
-0.429743 
0.331357 
0.030689 
0.112334 
0.059328 
0.044578 
-0.704733 
0.494369 
0.816065 
0.189398 
-0.821802 
-0.310068 
0.383923 
-0.371746 
-0.357067 
0.568163 
0.111515 
0.482667 
-0.267418 
0.183418 
0.308267 
-0.821190 
-0.464902 
0.079017 
0.646858 
-0.849313 
-0.270974 
-0.325076 
0.664907 
-0.474319 
0.288949 
-0.246956 
0.362224 
0.439222 
-0.188726 
0.224708 
0.107852 
-0.281747 
-0.000305 
0.075320 
-0.281900 
-0.134190 
-0.212989 
0.355937 
0.558641 
0.328745 
-0.399396 
0.569231 
0.059908 
0.138188 
0.257988 
-0.439833 
-0.250141 
0.066974 
0.604190 
0.117183 
-0.252405 
-0.739450 
0.581515 
0.810266 
0.630398 
0.291635 
-0.147854 
-0.446809 
-0.470325 
-0.021074 
0.507175 
0.042332 
0.029857 
-0.141152 
-0.772088 
-0.070448 
0.000221 
0.104899 
-0.477464 
-0.278837 
0.064443 
-0.268977 
-0.109774 
-0.461308 
0.312926 
0.093387 
-0.171875 
0.211585 
-0.395276 
-0.523667 
-0.853633 
0.062410 
-0.646382 
-0.898038 
0.310739 
-0.596088 
0.754357 
-0.287912 
0.398413 
-0.372448 
0.235442 
0.320309 
-0.061223 
0.154431 
0.493653 
-0.647098 
0.175282 
-0.173833 
0.009279 
0.423469 
-0.170951 
-0.176923 
0.091081 
-0.208575 
0.592495 
-0.017002 
-0.676074 
-0.474649 
-0.234962 
0.628592 
-0.502332 
-0.430798 
-0.224877 
0.380236 
0.553890 
0.415146 
0.697971 
0.462321 
0.094812 
-0.241859 
-0.377451 
0.170193 
0.092294 
-0.134712 
0.198739 
-0.165053 
-0.244606 
-0.474747 
-0.018639 
-0.561107 
0.039003 
-0.192122 
-0.072275 
0.584273 
-0.478769 
-0.167794 
-0.454340 
-0.480446 
0.022550 
0.830392 
-0.271929 
-0.661458 
-0.038833 
0.447776 
-0.331126 
0.620091 
0.115398 
-0.530693 
-0.934778 
-0.020103 
-0.294738 
-0.058632 
0.220466 
0.165303 
0.255062 
0.370696 
0.945746 
0.158522 
0.086092 
-0.112350 
-0.033504 
0.702561 
-0.956896 
-0.024222 
-0.041559 
-0.945736 
-0.491588 
0.575620 
0.177884 
0.460695 
0.254136 
0.631628 
0.145964 
-0.215282 
-0.401034 
0.241168 
0.044204 
-0.373609 
-0.125386 
-0.563095 
-0.109072 
-0.035084 
-0.291592 
-0.099311 
-0.320194 
0.057155 
0.371684 
-0.332292 
-0.015960 
0.068006 
0.371703 
-0.550348 
0.305720 
0.254619 
-0.003451 
0.271088 
-0.391989 
0.364395 
0.235987 
0.654252 
-0.034446 
0.184643 
-0.314121 
0.298386 
0.518309 
0.648005 
-0.108801 
0.237981 
-0.070828 
-0.080104 
-0.391295 
-0.523884 
-0.450733 
0.430480 
0.076839 
0.332025 
-0.662475 
0.407912 
-0.831838 
-0.220446 
0.394490 
0.333211 
-0.561091 
-0.493888 
0.043177 
0.558537 
-0.510913 
0.158299 
0.639021 
0.355718 
0.634096 
-0.149878 
-0.209721 
0.186342 
-0.225090 
-0.188671 
-0.162039 
-0.812695 
-0.487038 
0.324302 
-0.198970 
-0.527669 
0.309109 
0.197563 
-0.436352 
-0.513135 
-0.018995 
0.707708 
-0.607972 
-0.544327 
-0.488776 
-0.441410 
0.013771 
0.470940 
-0.214260 
-0.067466 
-0.351108 
0.311269 
0.545452 
-0.509884 
0.543932 
0.009529 
-0.147033 
0.392508 
0.006983 
-0.193755 
0.660151 
0.097590 
0.135236 
0.127821 
0.076728 
-0.271858 
-0.255005 
0.011464 
0.295254 
0.078747 
0.448813 
-0.086646 
0.492973 
-0.196054 
0.221189 
-0.495557 
-0.588663 
0.154207 
-0.161790 
0.783743 
0.088959 
0.131602 
-0.033349 
-0.667518 
0.222929 
-0.347238 
-0.339886 
-0.325536 
0.873126 
0.429144 
-0.446629 
0.257514 
0.167688 
0.094601 
-0.513600 
-0.115816 
-0.000358 
-0.471087 
-0.435336 
0.193544 
-0.004082 
0.798341 
0.246972 
-0.016671 
-0.386834 
-0.709346 
0.179192 
0.738658 
-0.237799 
-0.257190 
0.221888 
-0.033575 
-0.162204 
0.048528 
-0.402850 
-0.235311 
-0.744394 
0.026041 
-0.628851 
-0.270626 
-0.195325 
0.202693 
-0.049457 
-0.199689 
0.550859 
0.551697 
0.654711 
-0.091470 
-0.049489 
-0.016473 
0.418613 
-0.086780 
-0.114010 
0.461617 
-0.026611 
0.484862 
0.420173 
0.546809 
-0.407385 
0.350945 
-0.428889 
0.235274 
0.780802 
-0.482822 
0.552944 
-0.121584 
0.061733 
0.103174 
0.624653 
0.759674 
0.106775 
-0.222513 
-0.063574 
0.423864 
0.081485 
0.729819 
0.103402 
-0.437763 
-0.448416 
-0.262068 
0.301700 
0.387200 
-0.377966 
-0.327904 
0.040346 
0.811019 
-0.173858 
-0.594226 
0.133626 
-0.440534 
-0.710201 
-0.227885 
0.334639 
-0.079623 
0.853829 
-0.116304 
-0.101999 
-0.288851 
-0.651980 
-0.549528 
0.092031 
-0.308116 
-0.135604 
-0.561170 
-0.163363 
0.042978 
-0.500545 
0.230634 
0.203965 
-0.204483 
0.195026 
0.000860 
-0.015589 
-0.622561 
0.545038 
-0.443054 
-0.097135 
-0.388853 
-0.814667 
-0.059335 
0.434546 
0.687930 
-0.135751 
0.171693 
0.088973 
0.700820 
-0.100677 
-0.414955 
0.418888 
-0.191162 
0.151522 
0.368932 
-0.532857 
0.335178 
-0.636575 
0.146642 
-0.079346 
0.087437 
-0.223026 
0.635981 
0.225129 
0.191805 
-0.331517 
0.021096 
-0.679215 
0.397686 
-0.309615 
0.239256 
-0.394065 
-0.072302 
-0.594415 
0.075886 
-0.098014 
-0.377881 
0.121059 
-0.102879 
0.085312 
0.351545 
-0.094660 
-0.815934 
-0.226859 
0.174917 
-0.087352 
-0.229335 
-0.384831 
0.224195 
-0.685485 
-0.433265 
-0.324821 
-0.157977 
0.163624 
0.089390 
-0.628120 
-0.477768 
0.186542 
0.434578 
-0.808442 
0.634223 
0.027279 
0.451240 
0.759880 
-0.157207 
0.185037 
-0.178165 
-0.850591 
0.007987 
-0.313447 
-0.084028 
0.647067 
-0.370645 
-0.045005 
0.130425 
0.402398 
-0.101952 
-0.189396 
0.050824 
-0.040091 
-0.420570 
0.177276 
-0.299821 
-0.093170 
-0.422250 
-0.163481 
-0.023545 
-0.052757 
0.062917 
0.262283 
0.813797 
-0.363317 
0.152146 
0.376840 
-0.203268 
0.366154 
-0.297818 
-0.071800 
0.024534 
-0.450972 
0.635279 
-0.717266 
-0.048758 
-0.822701 
-0.432861 
0.384761 
-0.123422 
0.028672 
0.413298 
0.728497 
-0.574241 
-0.687567 
-0.137162 
0.478202 
-0.244924 
-0.147188 
0.849127 
-0.404553 
0.354288 
0.346478 
-0.737519 
0.525285 
-0.499646 
-0.499105 
-0.102730 
-0.104073 
0.247494 
0.249148 
0.661560 
-0.115237 
0.755621 
0.177947 
-0.194796 
0.552774 
-0.175083 
0.784498 
0.388703 
-0.390915 
0.065781 
-0.028968 
0.423398 
-0.489289 
-0.619915 
-0.560824 
-0.371906 
0.455600 
0.619097 
0.273177 
-0.517018 
0.098509 
-0.450610 
0.015142 
-0.733459 
0.044529 
0.031896 
0.468436 
0.181138 
-0.020403 
0.330993 
-0.062010 
-0.369117 
-0.293222 
-0.083345 
-0.109692 
0.646276 
0.291172 
0.012102 
0.128146 
-0.089965 
-0.071356 
0.190078 
-0.020039 
0.414477 
-0.511928 
-0.348175 
-0.629265 
-0.154326 
0.772220 
0.042495 
0.203895 
0.072888 
0.205121 
-0.407478 
0.024762 
-0.282706 
0.164411 
-0.075096 
0.075108 
0.310262 
0.013894 
0.073711 
-0.200791 
0.643430 
0.578558 
-0.072998 
-0.123038 
-0.715209 
0.155852 
-0.248899 
-0.819990 
0.049505 
-0.448783 
-0.380735 
-0.380352 
-0.669847 
-0.468387 
-0.811547 
0.792728 
0.109986 
-0.117486 
-0.457256 
-0.303270 
0.243468 
-0.506991 
-0.616116 
0.792583 
-0.123646 
-0.390935 
-0.179101 
0.556671 
0.142790 
0.237954 
-0.925585 
-0.828934 
0.225385 
0.236704 
-0.553897 
0.274067 
-0.350391 
-0.167231 
0.260423 
0.489218 
-0.520289 
-0.038510 
-0.049420 
0.350489 
0.341601 
-0.365419 
0.601939 
0.148963 
-0.977671 
0.005652 
-0.106497 
-0.309868 
-0.293005 
-0.370779 
0.003398 
-0.360626 
0.222165 
0.341977 
0.036029 
-0.079531 
-0.108408 
-0.006123 
0.097037 
-0.084922 
-0.341596 
0.032608 
0.614616 
0.151136 
0.207255 
-0.057052 
-0.009082 
0.241625 
0.561474 
-0.144823 
-0.284529 
-0.083948 
-0.266316 
-0.018488 
-0.232874 
-0.545462 
-0.302838 
-0.064539 
0.040856 
0.409661 
-0.175901 
-0.341689 
0.233465 
-0.089803 
0.009147 
-0.649139 
-0.610684 
0.486124 
-0.275263 
0.191519 
-0.052279 
0.054948 
-0.616122 
0.365791 
-0.714240 
0.222275 
-0.314151 
0.266179 
0.696478 
-0.162625 
0.197025 
0.137394 
0.391814 
-0.252899 
0.241647 
-0.390636 
0.291923 
0.018509 
-0.414223 
-0.450158 
0.037757 
-0.048407 
0.511560 
0.372864 
0.317593 
-0.098257 
-0.278585 
0.557400 
-0.164675 
-0.010268 
-0.229798 
0.228353 
-0.431851 
0.303184 
-0.108142 
-0.081744 
-0.405123 
0.104194 
-0.289385 
0.490246 
0.123033 
-0.427887 
-0.622032 
0.024452 
0.495820 
-0.507954 
-0.601202 
-0.099131 
0.013206 
-0.106677 
0.064228 
-0.074600 
-0.087756 
-0.530238 
-0.697721 
0.465293 
0.501634 
-0.004485 
0.398018 
-0.065695 
-0.663100 
-0.116899 
0.027445 
0.178709 
0.171731 
0.391752 
0.172178 
0.480201 
-0.440400 
0.566403 
-0.087056 
-0.681051 
0.386500 
-0.253734 
0.223654 
-0.056043 
-0.411450 
-0.323465 
0.059000 
0.095963 
-0.239187 
0.111715 
-0.152740 
-0.016523 
-0.327453 
0.239867 
-0.170473 
0.265732 
-0.595762 
-0.632305 
0.042463 
0.391091 
0.221489 
-0.249242 
-0.189820 
-0.550695 
0.041629 
0.446777 
0.053519 
-0.822339 
-0.006470 
0.627857 
-0.006856 
-0.548156 
-0.281294 
-0.234672 
-0.028236 
-0.254337 
-0.016372 
0.709681 
-0.212549 
0.276266 
0.030621 
-0.204237 
-0.639291 
-0.453267 
-0.738477 
-0.171323 
-0.307278 
-0.643638 
0.194181 
-0.518316 
-0.448612 
-0.076946 
-0.854325 
0.161806 
0.209923 
-0.164498 
0.586396 
-0.026453 
-0.298789 
-0.006164 
-0.696097 
-0.317845 
0.301347 
0.393289 
0.384233 
-0.115124 
-0.325450 
-0.509126 
-0.572675 
-0.352278 
-0.796059 
0.672131 
-0.064072 
-0.327541 
-0.085570 
-0.101031 
-0.017885 
0.135872 
-0.172966 
0.489997 
0.327664 
-0.358465 
-0.374918 
-0.601471 
0.446986 
0.725741 
0.147785 
-0.054798 
-0.120907 
0.780347 
-0.383508 
0.000260 
0.099351 
-0.665726 
-0.169873 
0.158299 
-0.152225 
-0.685930 
-0.163688 
0.333892 
0.302339 
-0.246560 
-0.274413 
-0.341794 
0.017414 
0.511074 
0.142178 
0.516426 
-0.746698 
0.036583 
0.092624 
0.188679 
-0.107550 
0.063431 
-0.694122 
-0.200454 
-0.265048 
-0.009355 
-0.717450 
-0.284125 
0.006200 
0.051500 
-0.040399 
0.045015 
-0.378398 
-0.027843 
0.025805 
0.260847 
-0.188742 
0.551599 
-0.666620 
0.520119 
0.146161 
0.242136 
0.380210 
-0.124136 
0.060541 
0.419612 
-0.098932 
-0.166950 
0.479374 
-0.807108 
-0.021280 
-0.054588 
0.050301 
-0.673868 
0.308439 
0.124242 
-0.480046 
0.528410 
0.156880 
0.517703 
0.226386 
0.265704 
0.393309 
-0.232158 
-0.285709 
-0.411945 
0.493129 
-0.603319 
0.056955 
-0.128757 
-0.074916 
-0.058093 
0.471039 
0.256597 
-0.637955 
0.073444 
-0.115323 
-0.009587 
0.044692 
0.317318 
0.697332 
0.038207 
-0.004739 
-0.532002 
0.336792 
-0.719024 
-0.293616 
0.178438 
0.066986 
-0.029414 
0.233648 
-0.219862 
-0.224103 
-0.567485 
-0.892865 
0.338883 
-0.497036 
0.173702 
0.043065 
-0.097494 
0.650804 
-0.238678 
0.533352 
0.062436 
0.047907 
0.155895 
-0.222093 
0.257342 
-0.026996 
0.004539 
0.450382 
0.402140 
-0.177540 
0.227075 
-0.215072 
-0.067729 
-0.078206 
-0.349275 
0.127304 
0.141514 
-0.452828 
-0.067639 
-0.427111 
-0.267198 
0.025460 
0.128282 
0.537855 
-0.015102 
-0.004148 
-0.004930 
-0.671594 
-0.293680 
-0.110438 
0.004965 
0.008859 
-0.698731 
-0.453945 
-0.405048 
-0.236932 
0.484103 
0.603575 
0.430367 
-0.460077 
0.441460 
-0.108419 
0.812764 
0.162684 
-0.144195 
-0.062724 
-0.354277 
-0.109884 
-0.183140 
0.000827 
0.239611 
-0.754834 
-0.491792 
-0.487185 
-0.582855 
0.117270 
0.439645 
0.100707 
-0.085916 
0.457784 
0.008944 
0.014643 
-0.671974 
0.136738 
-0.009374 
0.015900 
0.788696 
0.254495 
-0.413776 
-0.298203 
-0.014471 
-0.251112 
0.025443 
-0.101185 
-0.096550 
-0.650883 
0.074960 
-0.287075 
-0.009766 
0.451905 
0.056105 
-0.564863 
-0.281333 
0.467591 
-0.081881 
0.227721 
-0.041578 
0.042278 
0.334012 
0.716489 
0.036478 
-0.342686 
-0.451901 
0.254152 
-0.078402 
-0.787326 
0.573661 
-0.330520 
0.647085 
-0.011282 
-0.237115 
0.530497 
-0.341688 
0.000343 
0.623208 
-0.102364 
0.438696 
-0.054028 
0.224090 
0.524725 
-0.032849 
-0.067416 
-0.089744 
0.093297 
0.113142 
0.151862 
-0.508480 
-0.162981 
0.656043 
0.048752 
-0.013438 
0.491454 
0.563746 
0.346639 
0.403951 
-0.072403 
-0.513485 
-0.380682 
0.457760 
-0.103818 
-0.203781 
0.485771 
-0.080486 
-0.595765 
-0.056132 
0.555227 
0.368621 
-0.291067 
-0.283788 
-0.355707 
0.025255 
0.549994 
-0.593775 
0.026229 
-0.554875 
0.367857 
0.213397 
-0.026870 
0.067311 
0.129394 
0.296512 
-0.708630 
0.244039 
-0.263879 
-0.380456 
0.171380 
-0.424687 
-0.718638 
-0.113338 
-0.556943 
-0.814137 
-0.291563 
-0.377455 
0.070011 
-0.052074 
0.504256 
-0.108079 
0.143532 
0.227898 
-0.453832 
-0.373305 
0.030064 
0.119093 
0.223626 
0.044547 
-0.229731 
-0.700359 
0.617229 
-0.356729 
-0.380548 
-0.043953 
-0.097829 
-0.103308 
0.019250 
0.165521 
-0.122658 
-0.054398 
0.591548 
-0.400171 
0.486345 
-0.180617 
0.575522 
0.585277 
-0.472760 
0.719246 
-0.143423 
0.186085 
0.553669 
-0.662344 
-0.700938 
0.225393 
-0.550809 
0.288763 
-0.305842 
0.319650 
-0.310611 
0.639052 
0.008055 
0.296850 
0.403696 
0.755075 
-0.810072 
0.372377 
0.621122 
-0.208370 
-0.129034 
0.333838 
0.358357 
0.901269 
0.600901 
0.278668 
-0.083965 
-0.104099 
-0.112133 
-0.365361 
-0.092859 
-0.319226 
0.063804 
0.781923 
-0.322833 
0.034610 
0.136751 
-0.052480 
0.138264 
-0.237754 
0.370459 
0.174295 
0.116206 
0.247107 
-0.379591 
0.337052 
-0.766678 
0.406363 
-0.037474 
-0.513755 
-0.550915 
0.418252 
-0.901155 
0.160502 
-0.135768 
-0.560043 
-0.230410 
0.270331 
-0.268115 
0.123081 
0.260264 
-0.675511 
0.180356 
0.085306 
-0.259944 
-0.029118 
0.228051 
-0.154531 
-0.130532 
-0.193398 
-0.086098 
0.125282 
-0.342108 
-0.543087 
-0.119634 
0.485674 
0.492898 
-0.517176 
-0.380604 
0.047496 
0.074324 
0.486105 
-0.091958 
0.234923 
0.105359 
0.133736 
0.891718 
-0.342425 
-0.580027 
0.270636 
-0.725547 
0.648638 
-0.440366 
0.527137 
0.327511 
0.472078 
0.076704 
-0.082652 
0.061891 
0.494838 
0.022647 
-0.418872 
0.648533 
0.442918 
0.131640 
-0.157091 
0.223604 
-0.111943 
0.487263 
-0.179207 
0.039202 
0.187018 
0.602419 
-0.323820 
-0.144600 
-0.555059 
0.293505 
0.729746 
-0.235746 
0.561234 
-0.603039 
-0.009665 
0.687444 
-0.187285 
-0.263330 
0.127790 
0.250578 
-0.324250 
0.144796 
-0.244199 
-0.015624 
-0.030937 
0.272032 
0.791659 
-0.541915 
0.826602 
-0.536947 
0.066442 
0.385698 
-0.189427 
-0.514504 
-0.554677 
-0.051517 
0.436621 
-0.207017 
0.012260 
-0.048689 
-0.198374 
-0.009970 
0.323754 
0.137469 
0.393103 
0.286682 
0.124669 
0.401377 
0.809428 
0.565009 
-0.503108 
-0.133818 
0.614897 
0.144143 
-0.260181 
-0.259755 
0.904180 
0.076692 
-0.158688 
-0.839409 
0.205829 
-0.693212 
-0.184923 
0.622634 
-0.493629 
0.387150 
0.138589 
0.058532 
0.356791 
0.643520 
0.043687 
0.057165 
-0.769701 
-0.292546 
0.368855 
-0.072003 
0.068147 
0.704574 
-0.456068 
0.534733 
0.024748 
0.014441 
-0.016147 
0.472860 
-0.509084 
0.190505 
0.089715 
0.110634 
0.212500 
-0.281316 
-0.148476 
-0.076585 
-0.071469 
0.010074 
0.664161 
-0.554388 
0.375404 
-0.911962 
0.003716 
0.678256 
-0.426176 
-0.656675 
0.494279 
-0.182085 
-0.387446 
0.605192 
0.321499 
-0.073472 
-0.286159 
-0.517144 
-0.654004 
-0.572462 
-0.131067 
-0.067169 
-0.121314 
0.720998 
0.635665 
0.353714 
-0.015726 
-0.223182 
-0.233866 
-0.356210 
0.073823 
-0.283026 
-0.165840 
0.018875 
-0.435803 
-0.511907 
0.386678 
0.411359 
-0.086200 
0.419551 
-0.463691 
0.027593 
-0.081521 
0.109665 
-0.458226 
0.366740 
0.579503 
-0.150714 
-0.613247 
-0.140283 
-0.156913 
-0.731764 
0.527360 
0.181336 
0.084038 
-0.033216 
-0.364675 
-0.145521 
0.557295 
-0.425468 
0.292462 
0.122892 
0.230628 
0.526162 
0.016289 
0.107375 
-0.006068 
0.476403 
0.700341 
0.330941 
-0.146128 
0.519079 
0.042150 
-0.098792 
0.452375 
0.419379 
-0.059486 
0.097704 
0.750872 
0.532147 
0.121669 
0.737613 
0.537674 
0.156430 
0.368538 
-0.299653 
0.464250 
-0.011960 
0.098651 
0.716846 
0.076683 
0.224673 
-0.211929 
-0.236881 
0.657234 
0.363860 
-0.393381 
0.253732 
-0.463937 
-0.320115 
-0.058415 
-0.292278 
-0.197016 
0.102958 
0.286626 
-0.062907 
-0.692616 
0.110363 
0.239724 
-0.541230 
0.128299 
0.038821 
0.050028 
0.745548 
0.114562 
-0.089183 
-0.278533 
-0.361805 
0.015174 
0.002561 
-0.494646 
0.179445 
0.703198 
-0.421929 
-0.325417 
-0.257406 
-0.179205 
0.262167 
-0.359113 
0.058249 
0.163848 
0.173199 
0.538712 
0.340984 
0.434586 
0.134923 
-0.328128 
-0.526619 
0.557490 
0.364333 
-0.334633 
0.411998 
0.114445 
-0.633101 
0.201144 
0.499061 
0.223804 
-0.626027 
-0.051991 
0.005022 
-0.246668 
-0.006016 
0.254785 
-0.624665 
-0.250594 
0.157357 
-0.626008 
0.348953 
0.089419 
0.143565 
-0.769604 
0.129364 
0.508801 
-0.641410 
-0.116579 
0.164359 
0.079286 
0.193521 
0.207162 
0.220709 
0.480939 
0.037017 
0.549013 
-0.270551 
0.390503 
-0.570022 
-0.241316 
0.291197 
-0.305762 
-0.448685 
0.246529 
-0.344523 
-0.525016 
-0.602010 
-0.322694 
0.328528 
0.109774 
-0.031088 
0.939556 
0.427439 
0.168443 
0.220740 
0.321493 
0.129776 
-0.770321 
0.410487 
0.272284 
0.107175 
0.462562 
0.002250 
0.853496 
-0.235587 
0.254133 
0.145272 
-0.103217 
0.657773 
0.125410 
-0.429804 
-0.441904 
0.613171 
0.057954 
-0.844178 
0.018435 
-0.154577 
0.255179 
-0.197327 
-0.487659 
0.276061 
-0.697198 
-0.233678 
0.805368 
-0.045151 
0.064919 
0.219118 
0.193354 
-0.302062 
-0.043394 
-0.380442 
0.048726 
0.047989 
-0.415237 
-0.075682 
-0.192084 
-0.776661 
0.107060 
0.191321 
-0.433490 
0.444099 
-0.056123 
-0.909704 
-0.132111 
0.370693 
0.126833 
-0.702352 
-0.423642 
-0.202060 
-0.052891 
