-0.234413 
0.573779 
-0.089785 
-0.730003 
-0.615314 
-0.678945 
0.026276 
0.140873 
-0.529191 
-0.356548 
-0.333109 
-0.129734 
0.522904 
0.813044 
-0.688284 
0.056642 
-0.541612 
-0.132145 
0.335521 
0.353679 
0.691397 
0.315439 
0.336100 
-0.576769 
-0.337043 
-0.718702 
-0.132575 
0.204877 
0.057870 
-0.572266 
0.194954 
0.788933 
0.404276 
-0.096977 
-0.785743 
0.026972 
-0.365858 
0.068284 
-0.721466 
0.218003 
0.308511 
-0.128181 
-0.206745 
-0.994311 
-0.084394 
-0.012556 
0.112441 
0.209078 
-0.283543 
0.442695 
0.611171 
0.986097 
-0.123232 
-0.207649 
-0.389910 
0.105931 
0.488922 
-0.986944 
0.084284 
0.451685 
0.005391 
0.302939 
-0.651685 
-0.216556 
0.915692 
-0.656829 
0.498518 
-0.885818 
-0.505561 
-0.237785 
-0.024261 
0.049083 
0.377671 
0.743506 
-0.195639 
-0.140780 
0.272530 
0.122562 
0.164708 
-0.664449 
-0.612781 
-0.006592 
-0.639515 
-0.366253 
-0.291208 
-0.058229 
0.196417 
0.174474 
-0.453719 
-1.307956 
0.621253 
-1.435100 
1.087168 
-0.025672 
0.726873 
