0.294412 
0.430769 
-0.481979 
0.934751 
0.360630 
0.842891 
0.038047 
0.046621 
0.460738 
0.446109 
-0.772018 
0.585559 
0.697233 
0.148858 
-0.698965 
0.039423 
0.156281 
0.790551 
0.882025 
-0.149854 
0.665029 
-0.206043 
0.149463 
0.034120 
0.263982 
-0.592369 
0.470504 
-0.289374 
0.614612 
-0.785546 
-0.729196 
-0.829815 
0.348796 
-0.137059 
-0.143801 
-0.257179 
0.087458 
0.046313 
0.823969 
0.151990 
0.152659 
-0.820460 
0.692980 
0.422268 
0.124515 
0.360046 
0.293078 
0.190863 
-0.150860 
0.406513 
0.503494 
0.123981 
-0.235675 
-0.299539 
-0.350987 
0.145972 
-0.059053 
-0.147378 
0.245699 
-0.888150 
-0.694646 
0.868762 
0.104587 
-0.035373 
0.483157 
0.475906 
0.190566 
0.057383 
0.442793 
1.717438 
-0.596904 
-0.521744 
-0.928488 
-0.276389 
0.285836 
0.742750 
0.146005 
0.123020 
0.480165 
0.494453 
-0.170232 
0.156481 
-0.042449 
-0.014405 
0.481836 
0.296056 
-0.121860 
0.149038 
0.291880 
-0.088168 
0.373684 
-0.050169 
0.216346 
-0.917712 
0.158452 
0.036866 
0.851179 
0.577320 
-0.505844 
-0.715898 
-0.478034 
-0.000458 
0.010736 
0.280761 
0.490799 
-0.244438 
-0.301643 
0.227088 
-0.306185 
0.594340 
-0.362285 
-0.172795 
-0.045596 
0.164983 
-0.220802 
-0.333278 
-0.325388 
0.115485 
0.052573 
0.327433 
1.246466 
-0.542408 
0.312967 
0.340708 
0.230847 
0.538381 
0.434765 
-0.393518 
-0.432119 
0.395177 
-0.330881 
0.691644 
-0.218353 
-0.222016 
0.129059 
0.664200 
-0.311374 
-0.063700 
0.594018 
0.014623 
0.100879 
-0.237594 
-0.236124 
-0.241126 
0.351386 
0.545425 
-0.062305 
-0.682297 
-0.091765 
-0.244428 
-0.749340 
0.417975 
0.528012 
-0.525043 
-0.650902 
0.306863 
0.520309 
0.611134 
-0.209133 
0.845250 
-0.583717 
-0.072239 
0.501749 
0.664286 
-0.605999 
