-0.717093 
-0.207312 
-0.379040 
0.376751 
0.157353 
0.379833 
0.671346 
-0.462355 
0.288308 
-0.485519 
-0.197333 
0.807825 
-0.178961 
0.035981 
0.350169 
0.233741 
0.456099 
-0.219794 
-0.382061 
-0.414869 
-0.682566 
0.156538 
-0.005030 
0.120754 
-0.293074 
-0.848906 
0.389917 
0.073038 
0.115977 
0.149732 
0.123872 
-0.268189 
-0.163892 
-0.072988 
-0.764863 
0.250803 
-0.466966 
-0.060181 
-0.330566 
0.126333 
0.677456 
0.014148 
-0.296915 
0.038362 
0.540788 
-0.183111 
-0.394726 
0.071261 
-0.634632 
-0.193884 
-0.070345 
-0.404279 
-0.154454 
-0.222114 
0.844234 
0.155461 
0.155309 
-0.169164 
0.017426 
-0.201575 
0.008454 
-0.080538 
-0.178472 
-0.094790 
0.269300 
-0.069546 
-0.025174 
0.338304 
-0.040413 
0.162693 
0.210758 
0.139917 
-0.923422 
-0.044623 
0.576658 
0.226001 
-0.612229 
0.055267 
0.802563 
0.607068 
0.281566 
0.097740 
0.184261 
0.347673 
-0.191418 
0.191987 
0.038205 
0.182829 
-0.592774 
-0.002765 
0.022498 
0.066726 
-0.077928 
0.976655 
-0.491113 
-0.203295 
-0.816424 
0.059719 
0.065843 
0.348170 
0.300347 
-0.161208 
-0.309101 
0.131818 
-0.326231 
0.218479 
0.040854 
0.199998 
0.110921 
0.852486 
-0.178197 
-0.013741 
0.115935 
-0.171825 
0.536337 
-0.679487 
0.219556 
0.050434 
0.695864 
0.003198 
0.285774 
0.667094 
-0.082265 
-0.705216 
0.567103 
-0.051384 
0.334291 
-0.435845 
0.052529 
-0.277016 
0.555798 
-0.467564 
0.199881 
0.567720 
0.170333 
-0.457512 
0.185182 
0.553572 
-0.230455 
0.142649 
0.620605 
-0.474961 
-0.389607 
0.611968 
0.236597 
-0.250197 
0.287791 
0.827506 
0.618324 
-0.231257 
-0.620344 
0.312306 
0.161750 
-0.148953 
-0.331294 
0.382968 
-0.664323 
-0.235198 
0.538203 
-0.034929 
-0.316249 
0.264771 
0.570991 
0.309824 
0.388287 
0.457228 
-0.138829 
0.187139 
0.099490 
0.010029 
-0.486679 
-0.035218 
0.582781 
-0.468276 
0.103395 
-0.445022 
0.212562 
-0.401557 
-0.013093 
0.013981 
0.254571 
-0.854374 
-0.128147 
0.067956 
0.011107 
0.219191 
-0.270507 
-0.524695 
-0.040937 
-0.460748 
0.074766 
-0.220013 
0.312713 
0.061432 
-0.531472 
-0.739277 
-0.275186 
0.019166 
0.254952 
-0.743248 
-0.043006 
0.303119 
0.838473 
-0.419707 
-0.170583 
0.616149 
0.119021 
0.031565 
0.565658 
-0.494756 
-0.220930 
0.111919 
-0.407035 
0.779029 
0.490011 
-0.632450 
0.246853 
0.902903 
0.512626 
0.114374 
0.228123 
0.874252 
-0.201198 
0.439217 
-0.305908 
0.023225 
0.223912 
-0.319768 
-0.466189 
0.025357 
-0.264213 
1.457835 
0.862347 
-0.663164 
-0.026110 
-0.036330 
-0.654788 
1.383571 
-0.448177 
0.487585 
0.098179 
0.219703 
-0.816441 
-0.324014 
-0.250927 
0.226157 
-0.663197 
0.633150 
-0.387585 
0.064304 
-0.403138 
0.305551 
-0.058901 
0.631184 
0.087497 
0.046510 
0.110935 
0.481307 
-0.054659 
0.438795 
-0.001129 
0.502091 
-0.289193 
0.348277 
-0.320658 
0.895566 
-0.015931 
0.207770 
0.329081 
-0.217689 
-0.368603 
0.845180 
0.679769 
0.265068 
0.488313 
-0.188699 
-0.040380 
0.061180 
-0.427791 
0.216405 
-0.585750 
0.535062 
0.749808 
0.018897 
-0.048407 
0.194281 
-0.023177 
-0.125956 
0.471026 
-0.118627 
-0.186923 
-0.347210 
0.496546 
-0.408442 
0.606457 
0.778305 
-0.377198 
-0.102889 
0.220821 
0.243044 
0.188573 
0.132702 
-0.017059 
-0.382050 
-0.448780 
0.024900 
0.081661 
0.009414 
0.995683 
-0.141830 
-0.153665 
-0.211364 
0.207761 
-0.269908 
-0.337496 
0.097382 
-0.358957 
0.147370 
0.400995 
-0.089621 
-0.193283 
0.061515 
0.665878 
-0.181055 
-0.347920 
-0.024490 
-0.136184 
0.539953 
0.687885 
0.173711 
-0.449461 
-0.115879 
0.437220 
0.607014 
-0.551272 
-0.326966 
0.836729 
-0.187929 
-0.487427 
-0.248939 
-0.063204 
0.341746 
0.100620 
0.600177 
0.890286 
0.539384 
0.740135 
-0.084048 
0.087893 
-0.670064 
-0.159813 
-0.253137 
0.536725 
0.183863 
-0.546214 
0.731672 
-0.199921 
-0.544594 
0.690101 
0.166617 
-0.634104 
0.054835 
-0.264485 
0.273656 
-0.298368 
0.285899 
-0.863721 
0.414888 
-0.175382 
0.249501 
-0.272525 
0.496598 
0.242443 
-0.155220 
0.165704 
0.222286 
0.456896 
-0.033961 
-0.010503 
0.037738 
-0.486639 
