-0.243904 
0.494980 
-0.207770 
-0.689291 
-0.294107 
0.086093 
0.312021 
0.096805 
0.564470 
-0.818506 
-0.703207 
-0.591571 
0.220710 
0.062197 
-0.192480 
-0.424177 
-0.322794 
0.033265 
0.156613 
-0.122349 
0.387248 
0.325832 
-1.303376 
-0.066762 
-0.180151 
-0.473087 
0.098608 
-0.611718 
0.075069 
-0.585456 
-0.296087 
-0.098148 
0.027235 
-0.017979 
0.952021 
0.199099 
-1.109451 
-0.294767 
-0.378907 
-0.180333 
0.472489 
0.080910 
-0.830546 
-0.527089 
0.009788 
0.503158 
0.241809 
-0.284887 
0.354923 
0.424336 
1.507037 
0.587549 
-0.922350 
-0.851873 
-0.133586 
-0.008304 
-0.330851 
-0.650294 
-0.210901 
0.376708 
-1.542703 
1.670455 
-0.157123 
0.183539 
0.865081 
-0.871609 
0.084838 
0.849359 
-0.190703 
0.084977 
0.921146 
-0.935214 
0.079050 
0.158011 
-2.225693 
2.881771 
-0.578361 
-0.769980 
-0.839668 
-0.386048 
0.500244 
1.249687 
-0.323366 
0.010574 
0.989477 
-0.191836 
-0.191975 
-1.427255 
-0.081067 
-0.040411 
0.434342 
0.210794 
-0.193088 
0.531323 
-0.088653 
0.375652 
0.019904 
0.599121 
-0.125265 
0.162692 
-0.056279 
0.232905 
-0.014040 
0.164751 
-0.276448 
-0.129360 
0.376692 
-0.427522 
0.515488 
0.290323 
0.534806 
0.692404 
0.365520 
0.482620 
-0.043886 
0.012940 
-0.177435 
0.056917 
0.170348 
0.138339 
-0.390000 
0.085127 
-0.316388 
-0.597647 
0.754124 
-0.200644 
0.174181 
-0.254526 
0.354808 
0.556291 
0.399823 
-0.720115 
0.937223 
0.746971 
0.471389 
-0.561846 
0.801904 
0.803644 
-0.280082 
0.424973 
0.385698 
-1.020996 
-0.186416 
0.173304 
-1.411404 
0.305466 
0.690313 
0.254070 
-0.696342 
-0.281607 
1.547053 
-0.077318 
0.121673 
-0.327957 
0.823958 
0.326484 
0.062677 
-0.023360 
-0.366474 
-0.666476 
0.217852 
0.416165 
-1.046786 
0.204324 
-0.202759 
-0.423624 
0.625873 
-0.208446 
0.158267 
0.233867 
0.033458 
-1.173849 
0.677172 
-0.127032 
0.235663 
-0.017451 
-0.404008 
-0.883547 
0.307245 
-0.115079 
0.092052 
-0.464977 
-0.062302 
0.182687 
0.673339 
-1.896328 
0.267062 
-1.249552 
-0.440962 
-0.252632 
0.484207 
0.007080 
-0.621052 
-0.514939 
0.161809 
-0.236824 
-0.083712 
0.223548 
0.481077 
0.699392 
-0.445260 
0.127722 
-0.275657 
-0.823650 
-0.074159 
-0.052918 
-0.981763 
0.075913 
-0.538541 
-0.173277 
1.809049 
0.396470 
-0.464714 
-0.070147 
-0.282962 
0.190270 
-0.038457 
0.169772 
0.524655 
0.054797 
0.301996 
-1.729963 
0.442910 
-0.018920 
0.276902 
-0.965411 
0.276282 
0.073160 
-0.090480 
-0.239937 
0.027649 
-0.073690 
-0.145248 
-0.325179 
-0.836933 
0.536142 
-0.122160 
-0.261143 
-0.017432 
-0.032700 
-0.128581 
-0.406105 
0.259811 
-0.968711 
0.342066 
-0.000391 
0.031481 
-0.326110 
-0.048347 
0.358719 
1.148966 
-0.017463 
-1.050562 
-0.043215 
-0.506974 
0.465797 
0.149707 
1.086451 
0.183015 
-0.025723 
-1.476046 
0.711711 
0.169763 
0.236185 
-0.548682 
-0.141761 
-0.055799 
1.101925 
-0.023315 
-0.376994 
0.761511 
-0.737156 
0.225583 
0.026048 
-0.178087 
0.571077 
0.125763 
2.656846 
0.059885 
-0.555803 
0.397779 
0.228895 
-0.042982 
-0.739033 
-0.486733 
0.174678 
-0.451924 
-0.065755 
0.000279 
0.642101 
1.107114 
-1.123718 
0.039558 
0.038011 
-1.528659 
-0.090261 
1.562217 
-0.001834 
1.301978 
0.413701 
-1.968959 
-0.237753 
-0.175984 
0.009298 
-0.895350 
-0.331281 
-0.068508 
0.821136 
-0.662454 
0.180571 
-0.055057 
-0.249714 
0.107105 
-0.080355 
-0.121991 
-0.623254 
0.118965 
-0.531692 
0.437896 
-0.292380 
-0.284300 
-0.551813 
-0.281939 
0.385270 
-0.556181 
0.238077 
-0.752706 
-0.069731 
-0.148412 
-0.328588 
-0.313353 
0.508696 
0.278682 
0.147152 
0.402144 
0.797534 
-0.573277 
-0.190283 
-0.874615 
0.584486 
0.158973 
-0.654106 
-0.606803 
1.397762 
-0.251018 
-0.511764 
0.257434 
-0.232981 
0.343480 
