0.230384 
0.064608 
-0.278146 
-0.253090 
-0.150761 
0.678732 
0.461562 
-0.369488 
0.653798 
-0.101657 
0.062105 
-0.037782 
-0.207678 
0.840297 
-0.394269 
-0.236793 
-0.011963 
-0.206336 
0.725974 
0.016327 
0.616871 
-0.076876 
0.132420 
-0.381018 
0.283197 
-0.458653 
0.534050 
-0.136865 
0.093092 
0.505558 
-0.423142 
0.345114 
0.294168 
-0.097022 
0.236369 
0.228317 
0.212390 
-0.519300 
0.037322 
0.025479 
-0.194042 
-0.086610 
0.261241 
-0.551862 
0.480850 
0.110488 
0.254552 
-0.759880 
-0.088482 
-0.727657 
0.246972 
0.374012 
0.623916 
-0.168127 
0.448989 
-0.688027 
-0.007904 
-0.035218 
-0.424879 
0.691427 
0.110324 
0.249672 
-0.034852 
-0.175604 
-0.272469 
-0.100986 
-0.529771 
-0.368877 
-0.852596 
0.425550 
-0.254099 
-0.672812 
-0.157545 
-0.164372 
0.087763 
-0.086790 
-0.486444 
0.455297 
-0.176047 
0.198306 
0.755272 
-0.127616 
0.117138 
0.204499 
-0.036857 
-0.101696 
-0.256795 
-0.023075 
-0.943907 
-0.199504 
0.485278 
0.319400 
-0.402997 
0.421796 
0.548846 
-0.198634 
0.140667 
-0.630028 
-0.251581 
0.399186 
-0.776924 
-0.057409 
0.379614 
0.933374 
0.411664 
0.859838 
0.117060 
-0.367119 
0.291809 
0.037572 
-0.278607 
0.057373 
0.177613 
-0.028479 
0.598063 
-0.001981 
0.380139 
0.822596 
-0.228697 
0.347160 
0.658122 
-0.420845 
-0.014968 
0.110451 
-0.295754 
0.229299 
-0.101187 
0.386508 
0.109622 
-0.052668 
0.059236 
0.348555 
-0.802547 
0.061550 
0.131531 
0.214914 
-0.509772 
0.786273 
0.360919 
-0.495542 
0.117893 
-0.038704 
0.368999 
-0.100894 
0.610492 
-0.009522 
-0.150182 
0.303995 
0.761315 
0.224097 
-0.346904 
0.154393 
0.817805 
-0.331523 
0.162919 
-0.274689 
-0.159880 
-1.080466 
0.182788 
-0.409279 
0.312305 
0.292901 
-0.031119 
-0.825063 
0.001465 
0.331980 
0.823603 
-0.845507 
0.009404 
0.359939 
0.033058 
-0.299756 
0.367030 
0.463276 
0.334986 
0.162884 
-0.174993 
-0.649236 
-0.474359 
-0.332131 
-0.041888 
-0.236993 
0.155960 
0.296180 
-0.271600 
-0.272117 
0.109121 
0.436809 
0.292520 
-0.048869 
-0.337932 
0.067743 
0.189517 
-0.495343 
0.297647 
-0.787165 
-0.338996 
0.263574 
0.368742 
0.480808 
0.240669 
0.722272 
0.334657 
0.053929 
0.394289 
0.487571 
-0.092694 
0.122889 
-0.921654 
0.523068 
0.386280 
0.354276 
-0.177068 
0.167976 
0.415267 
-0.650410 
0.305806 
-0.389531 
-0.200618 
0.027708 
-0.578409 
-0.644149 
0.289233 
-0.418360 
0.494217 
-0.581556 
0.200568 
0.295206 
0.443556 
-0.533433 
0.005280 
0.100009 
0.562304 
0.725303 
-0.144230 
0.767327 
-0.505081 
-0.225013 
-0.068324 
-0.029308 
-0.164296 
-0.199874 
-0.265880 
0.759419 
0.367289 
0.014572 
0.304916 
-0.610785 
-0.164403 
0.411383 
0.399385 
-0.200423 
0.634285 
-0.015101 
-0.047679 
-0.051898 
0.793766 
-0.068586 
0.018730 
-0.456717 
-0.218940 
-0.186086 
-0.525544 
-0.341899 
0.075826 
0.258663 
-0.591630 
-0.175681 
0.016561 
-0.088305 
-0.311756 
0.089794 
-0.164983 
0.606461 
0.750122 
0.486673 
-0.038955 
0.024242 
-0.155685 
-0.078724 
0.374993 
-0.067321 
-0.015960 
-0.313378 
0.224158 
-0.083269 
0.157906 
0.397119 
-0.358660 
0.487967 
-0.500808 
-0.487710 
-0.551958 
-0.099240 
0.774272 
-0.016091 
-0.117100 
-0.748301 
-0.634705 
0.283425 
-0.488418 
0.269208 
0.563982 
-0.231537 
-0.034340 
0.461684 
0.062475 
-0.534897 
0.937437 
-0.158452 
-0.052905 
-0.069381 
-0.025780 
0.153318 
-0.120918 
-0.277349 
-0.476952 
-0.574745 
-0.230214 
0.271769 
-0.309885 
0.500423 
-0.652450 
0.624256 
-0.053023 
-0.628310 
-0.956717 
-0.112244 
0.051249 
-0.392594 
-0.060223 
0.159994 
0.104221 
-0.006133 
0.201033 
-0.740056 
0.826303 
-0.302203 
-0.664556 
0.110980 
-0.279894 
0.129660 
-0.211079 
0.089640 
-0.212195 
-0.111710 
0.174278 
0.951470 
-0.003330 
-0.369934 
-0.080228 
1.050002 
-0.751236 
-0.413149 
0.491991 
0.358894 
-0.521592 
-0.109355 
0.064463 
0.143021 
-0.216399 
-0.708415 
0.418652 
0.566866 
0.241077 
0.226858 
0.734184 
-0.285924 
0.027375 
-0.187070 
0.503746 
-0.785120 
-0.037128 
-0.372800 
0.163709 
0.482519 
-0.242212 
0.064460 
0.187319 
0.263306 
-0.115909 
-0.251310 
0.040334 
0.596999 
0.728830 
0.738932 
0.511772 
0.376872 
0.097806 
-0.914234 
-0.205846 
-0.476018 
0.080599 
0.062848 
0.049816 
-0.627060 
0.215367 
-0.713659 
0.172926 
-0.014409 
0.491486 
-0.803627 
-0.044477 
0.155993 
-0.284341 
-0.194361 
0.055901 
0.395003 
0.406924 
-0.238807 
0.251072 
0.144774 
0.569291 
-0.080962 
0.224456 
-0.465231 
-0.060457 
0.377718 
-0.587345 
0.890270 
-0.310258 
-0.172755 
0.707365 
-0.075187 
0.110347 
0.018880 
0.683633 
-0.230971 
-0.562151 
0.043677 
-0.828011 
-0.430551 
-0.194112 
0.061169 
0.567387 
-0.556712 
0.175855 
0.568483 
0.469362 
0.017458 
-0.583483 
-0.247698 
-0.494104 
-0.758530 
0.415913 
-0.812544 
-0.838138 
0.062571 
-0.268934 
0.368443 
0.141896 
0.396492 
0.085726 
0.495749 
-0.231554 
-0.085310 
-0.105228 
-0.472200 
-0.509901 
-0.971424 
0.767843 
-0.107743 
0.463707 
-1.590050 
-0.355663 
0.195057 
-0.895016 
0.407575 
-0.042482 
-0.632252 
-0.656789 
-0.061647 
0.028199 
-0.044435 
0.011231 
-0.337626 
0.764550 
-0.124882 
0.690006 
-0.529916 
-0.287972 
-0.200520 
-0.273492 
0.754072 
0.089837 
-0.102928 
0.211898 
-0.613032 
0.575945 
-0.085405 
-0.035268 
0.377440 
-0.058114 
-0.103742 
0.433917 
0.270244 
0.334643 
-0.319738 
-0.757847 
0.151908 
0.150029 
0.013723 
-0.310327 
0.047133 
0.378726 
-0.708699 
0.183557 
-0.587882 
0.005055 
0.146370 
0.451611 
0.086896 
0.484634 
0.224600 
0.047769 
0.648632 
-0.312292 
0.738527 
-0.865524 
0.270138 
0.329730 
-0.434077 
0.173354 
-0.437105 
-0.011872 
0.364123 
0.143088 
0.709466 
-0.903386 
0.001579 
-0.233619 
0.343905 
-0.406829 
0.202673 
0.698785 
-0.838482 
-0.535997 
0.707551 
0.246191 
-0.275068 
0.381120 
0.265514 
0.402641 
0.329031 
-0.694158 
-0.633613 
-0.519120 
0.836762 
-0.404889 
-0.454824 
-0.304167 
0.273659 
0.093108 
0.203808 
-0.509319 
-0.379174 
-0.354398 
0.264257 
0.595899 
0.079144 
-0.071902 
-0.185419 
-0.391708 
-0.380746 
-0.063755 
-0.673463 
-0.077968 
0.888985 
0.634363 
0.106079 
-0.649509 
0.448860 
0.357677 
0.727895 
1.133990 
-0.181029 
-0.204784 
0.896503 
0.221008 
-0.114293 
-0.813704 
0.087074 
-0.060282 
-0.743386 
0.111118 
-0.612393 
0.222330 
-0.647605 
0.273498 
-0.112678 
-0.381733 
0.542993 
0.300967 
0.289363 
-0.104991 
-0.230527 
0.232582 
0.342469 
-0.359569 
0.192480 
0.526933 
-0.648885 
-0.263558 
-0.325327 
-0.756767 
-0.503128 
0.149663 
-0.381970 
0.567583 
0.236702 
0.318564 
0.451259 
-0.097377 
0.157551 
-0.002289 
0.484474 
-0.759951 
-0.068607 
0.349289 
-0.411225 
0.247169 
-0.634186 
-0.394899 
-0.522874 
0.841916 
-0.143354 
-0.175263 
-0.433799 
0.252938 
-0.212281 
-0.283017 
-0.245051 
0.672445 
-0.580972 
-0.331913 
-0.544728 
0.392177 
-0.565910 
-0.334861 
-0.276813 
-0.484396 
-0.454150 
-0.370299 
0.554006 
-0.001099 
-0.094405 
-0.631506 
-0.470778 
-0.822737 
-0.480217 
-0.121471 
0.198953 
-0.196630 
0.797223 
0.018098 
0.049793 
0.120823 
-0.034034 
0.006438 
0.404736 
-0.109195 
-0.606281 
0.215033 
-0.471847 
-0.970672 
0.201941 
0.351238 
-0.174963 
0.155644 
-0.259896 
-0.587059 
-0.541799 
0.266121 
-0.338094 
0.634621 
0.016825 
0.312150 
0.800634 
-0.274677 
0.468458 
0.428297 
0.252744 
-0.719382 
0.352428 
0.612232 
-0.510025 
0.389782 
-0.249733 
-0.250099 
0.053957 
0.200598 
-0.023652 
-0.044435 
0.757988 
0.133497 
-0.865012 
0.700509 
-0.415101 
-0.016409 
-0.217650 
-0.069895 
0.616518 
0.539717 
-0.815105 
-0.569414 
-0.428791 
-0.291265 
-0.145458 
0.339756 
0.649971 
-0.500817 
-0.133995 
0.425440 
0.894053 
0.391598 
-0.821495 
-0.292886 
-0.567950 
0.269023 
-0.317573 
0.330802 
-0.405449 
0.196372 
-0.239882 
0.440595 
0.582145 
0.171448 
-0.478033 
-0.216102 
-0.435383 
-0.115970 
0.488235 
-0.066652 
0.021516 
-0.307504 
-0.104678 
-0.412214 
0.138401 
-0.399457 
0.086611 
0.289132 
0.580859 
-0.463377 
-0.015297 
-0.127296 
0.643484 
0.318830 
0.376668 
-0.486867 
-0.034515 
-0.317903 
-0.827423 
0.464705 
0.786575 
0.451216 
0.318674 
-0.185858 
0.485855 
0.582018 
0.171514 
0.384625 
-0.014191 
0.186132 
-0.140233 
-0.349345 
0.336711 
-0.234230 
0.184088 
0.349040 
-0.049318 
0.061861 
0.093997 
-0.443190 
0.302927 
-0.617817 
-0.358989 
0.269662 
0.134739 
-0.628198 
0.432023 
0.480548 
-0.827738 
0.635399 
-0.452321 
-0.240014 
0.175527 
0.958944 
0.136548 
0.311136 
0.183208 
-1.324328 
0.183248 
-0.407517 
0.372195 
0.249637 
-0.753642 
1.197533 
-0.076280 
-0.874436 
0.198039 
-0.684164 
0.340310 
-0.361689 
-0.580385 
-0.033979 
0.500964 
-0.202731 
-0.257311 
-0.448527 
0.432073 
0.343280 
0.721368 
-0.139744 
0.177747 
0.861765 
-0.873230 
-0.205583 
-0.919846 
-0.833414 
-0.394058 
-0.740329 
0.477976 
-0.786811 
0.110543 
0.540727 
-0.148801 
-0.005437 
-0.121891 
-0.500137 
0.136387 
0.373394 
0.348399 
0.089873 
-0.022018 
-0.453959 
0.600787 
0.458083 
0.477004 
-0.699721 
-0.058631 
0.907484 
-0.016138 
0.042464 
0.284797 
0.380028 
-1.013699 
0.116976 
-0.431253 
0.201910 
-0.495956 
0.359261 
-0.084335 
0.697246 
0.563422 
0.412568 
0.129694 
0.277794 
0.121235 
-0.026348 
-0.424088 
0.334941 
-0.053182 
-0.155699 
-0.198056 
0.272070 
0.035836 
0.030526 
0.154927 
-0.209450 
-0.757746 
-0.222596 
0.165201 
-0.622639 
-0.277412 
-0.219001 
-0.354106 
-0.631764 
-0.672903 
0.218360 
-0.142399 
-0.435469 
0.028016 
-0.254158 
-0.106723 
0.291482 
0.532792 
-0.129502 
-0.369210 
-0.020051 
0.522498 
-0.726838 
0.219323 
0.321377 
0.271583 
0.126839 
-0.022052 
-0.534440 
-0.033727 
-0.037162 
-0.309366 
0.857479 
0.384656 
0.500972 
0.163725 
0.065129 
0.010976 
0.336416 
-0.066050 
0.198706 
-0.183141 
0.259357 
-0.380749 
0.488418 
0.470352 
0.196119 
0.349188 
0.321292 
-0.088236 
0.241927 
-0.472474 
-0.315012 
-0.080389 
0.115600 
-0.320322 
-0.416272 
0.219964 
-0.414321 
-0.105244 
0.270051 
0.236293 
0.074635 
0.676714 
-0.502121 
0.523607 
-0.391242 
0.713675 
0.062676 
0.024259 
-0.193708 
0.374113 
-0.124822 
-0.198219 
0.051358 
-0.297786 
-0.425367 
0.166174 
0.297612 
-0.249712 
0.528117 
-0.529792 
-0.008066 
-0.403916 
-0.683338 
0.152846 
0.620793 
0.228394 
-0.299417 
0.016478 
-0.330128 
-0.882876 
0.317786 
0.272222 
0.129432 
-0.366478 
0.865312 
0.224992 
-0.687236 
-0.520438 
-0.506272 
0.708873 
-0.379639 
-0.952043 
-0.243239 
0.626543 
0.241000 
0.744145 
0.866463 
-0.489883 
-0.073305 
-0.602320 
-0.111209 
0.739777 
-0.437187 
-0.207786 
-0.425367 
0.647535 
0.577936 
0.844985 
0.110602 
-0.048194 
-0.625135 
-0.134616 
0.121891 
-0.644026 
-0.028966 
0.226884 
-0.082493 
0.520621 
0.055600 
-0.353144 
0.568684 
0.020591 
-0.409377 
-0.116715 
0.214698 
0.874618 
0.668478 
-0.039403 
0.641530 
0.062080 
0.176229 
-0.258218 
0.201287 
0.454380 
-0.208205 
0.692205 
-0.041047 
-0.530949 
0.340853 
-0.052401 
-0.322713 
-0.310774 
0.184565 
0.332932 
0.347315 
0.089891 
-0.202379 
-0.239244 
0.400800 
-0.348372 
0.380531 
-0.403583 
0.036720 
-0.366220 
0.088403 
-0.802046 
-0.531252 
0.301309 
-0.537657 
0.615026 
-0.174932 
0.088332 
0.168065 
0.378002 
0.317301 
0.235054 
-0.186529 
0.151524 
0.775262 
0.136479 
-0.242958 
0.433912 
0.239937 
0.939238 
0.379894 
-0.064028 
-0.360485 
-0.221900 
-0.073183 
0.142369 
0.867519 
-0.524033 
-0.165471 
0.264870 
0.360851 
-0.253212 
-0.440260 
-0.304666 
0.178137 
-0.101260 
-0.092593 
-0.040864 
-0.422437 
0.037324 
-0.141331 
-0.832270 
0.095279 
-0.231391 
-0.101060 
-0.027497 
0.123325 
-0.597766 
-0.153416 
0.017249 
-0.012477 
-0.345533 
0.180007 
-0.108541 
-0.472976 
-0.148076 
-0.133061 
-0.415876 
0.169683 
-0.366527 
0.691580 
-0.564409 
-0.487136 
0.154576 
0.083377 
-0.408246 
0.400372 
-0.210212 
0.451473 
-0.043674 
-0.499694 
0.308418 
-0.069218 
-0.384446 
0.426840 
-0.293227 
0.022889 
0.956347 
0.104740 
-0.816915 
0.869907 
-0.264176 
0.247711 
-0.098178 
0.451156 
-0.250221 
-0.702918 
1.024927 
0.619371 
-0.203562 
0.158910 
-0.222654 
-0.175939 
-0.102390 
-0.400952 
-0.218146 
-0.104892 
-0.106265 
-0.414960 
0.155278 
-0.435591 
0.005585 
0.195441 
0.395520 
0.478744 
-0.647841 
0.014432 
1.366830 
0.744595 
-0.143410 
-0.795621 
0.331195 
0.004420 
0.940659 
0.445051 
0.125483 
-0.412704 
0.061318 
0.566082 
-0.133177 
0.164013 
0.195111 
-0.329907 
0.560411 
-0.828634 
0.481001 
-0.279092 
-0.457303 
0.266400 
0.639972 
-0.919093 
0.266984 
-0.167720 
-0.510546 
0.418249 
0.629156 
0.432406 
-0.211667 
0.903165 
0.499974 
0.201036 
-0.527762 
0.374123 
-0.084548 
-0.444916 
-0.280788 
-0.200630 
0.248405 
-0.021744 
-0.254537 
-0.076876 
-0.442940 
-0.512717 
0.317517 
0.609251 
-0.532779 
-0.277919 
0.498476 
-0.298074 
1.639185 
0.998609 
0.128035 
0.247963 
-0.129561 
0.652308 
0.413815 
0.308089 
0.192361 
0.063048 
0.599449 
-0.498121 
0.465456 
-0.832230 
-0.599771 
-0.135411 
-0.235366 
-0.136012 
0.101212 
-0.135739 
0.578436 
0.088590 
0.211387 
0.440256 
0.387827 
-0.589344 
-0.170119 
-0.235511 
-0.142569 
-1.021179 
-0.081620 
-0.515458 
0.402693 
0.595992 
-0.202358 
0.948243 
0.674641 
0.434493 
-0.904260 
-0.072115 
-0.717317 
-0.696768 
0.229102 
-0.314493 
-0.074557 
0.415143 
0.060060 
-0.605060 
-0.300363 
-0.302042 
-0.244881 
-0.191839 
0.148320 
0.018551 
0.298161 
-0.667872 
1.162720 
0.774669 
0.451401 
-0.133810 
-1.348158 
-0.651403 
1.228660 
-0.683950 
0.806376 
-0.432098 
-0.061724 
-0.020728 
-0.356401 
0.395356 
-0.506324 
-0.267721 
-0.472589 
0.487970 
0.264985 
0.304544 
-0.097681 
0.321876 
-0.402111 
0.057985 
0.731880 
-0.268769 
0.769538 
0.081711 
0.292710 
-0.401758 
-0.447439 
-0.447554 
-0.348812 
0.310729 
-0.022797 
0.230185 
-0.444541 
-0.216787 
0.476131 
-0.694348 
0.437749 
-0.619031 
-0.064261 
0.249611 
-0.159805 
0.242303 
0.130116 
-0.704564 
-0.343161 
0.389416 
0.200463 
-0.678211 
-0.793287 
0.222915 
0.088947 
-0.019349 
-0.201520 
0.056262 
0.096164 
-0.063417 
-0.163862 
-0.905468 
0.151381 
-0.378545 
0.054237 
-0.633370 
-0.304106 
0.209723 
-0.191992 
0.429351 
-0.028003 
0.428663 
0.159704 
-0.733967 
0.456829 
-0.643190 
-0.547131 
-0.878108 
0.221051 
0.264626 
-0.072999 
-0.097965 
-0.437828 
0.247670 
-0.151177 
0.085508 
0.256587 
-0.762407 
0.772793 
-0.332473 
0.821249 
-0.178594 
-0.729147 
0.201996 
-0.537847 
0.171201 
-0.038982 
-0.217699 
0.499553 
-0.595770 
1.350280 
0.825574 
-0.837065 
-0.111393 
-0.970704 
-0.600706 
0.647167 
0.346392 
1.303336 
0.941020 
-0.519447 
0.171286 
-0.006256 
-0.334411 
0.674034 
0.291635 
-0.184450 
0.669847 
-0.348965 
-0.102031 
0.279700 
-0.771152 
0.038701 
-0.122822 
-0.490087 
-0.276504 
-0.085202 
0.657186 
-0.607866 
0.362383 
0.121425 
-0.021515 
0.478304 
0.134953 
0.555214 
0.223435 
-0.398539 
-0.383840 
-0.884462 
-0.102451 
-0.177653 
-0.305110 
-0.076751 
0.741437 
-0.052593 
0.155339 
-0.548443 
1.022702 
-0.775943 
-0.127830 
-0.653265 
0.195166 
0.091895 
0.391285 
-0.224168 
-0.031169 
0.331801 
0.376147 
0.425914 
-0.786414 
0.183997 
0.100145 
-0.239577 
0.486770 
0.537938 
-0.465315 
0.359165 
0.167367 
0.123889 
-0.454010 
0.265351 
-0.442522 
-0.140645 
-0.537327 
-0.566694 
-0.552202 
-0.525910 
-0.168524 
-0.087341 
-0.305471 
-0.712079 
-0.674049 
-0.790056 
1.100832 
-0.420471 
-1.455322 
-0.241073 
-0.022950 
0.117544 
-0.116602 
0.329159 
0.237098 
0.806415 
0.955902 
-0.149231 
0.129403 
0.107049 
-0.783816 
0.382243 
0.180639 
0.227794 
0.702659 
-0.187780 
-0.290628 
-0.002984 
0.618784 
-0.101920 
-0.012955 
-0.085104 
-0.459693 
0.545535 
-0.143376 
0.373192 
-0.962234 
-0.056411 
0.747866 
-0.144195 
-0.253251 
-0.171197 
0.627523 
0.336550 
-0.564388 
0.210060 
-0.520615 
0.842958 
0.375314 
0.303079 
-0.067812 
0.123783 
-0.244118 
-0.123114 
-0.754845 
0.591632 
-0.363231 
-0.846705 
-0.316050 
-0.592578 
-0.410022 
0.583514 
-0.161194 
-0.335811 
0.497400 
-0.671405 
-0.299210 
-0.916540 
-0.141123 
0.207368 
0.250282 
0.212087 
-0.322190 
0.196185 
-0.485945 
-0.859429 
-0.395331 
0.387469 
-0.804378 
0.659387 
0.069741 
0.013040 
-0.412213 
0.022812 
0.172616 
-0.618215 
-0.504278 
0.019143 
-0.647133 
0.783220 
-0.425375 
0.284242 
-0.039279 
-0.158989 
-0.280313 
-0.848893 
0.165487 
-0.183279 
-0.868913 
-0.208332 
0.277014 
-0.202119 
-0.491269 
-0.198882 
0.257523 
0.020009 
-0.232765 
-0.226515 
0.063780 
-0.271892 
0.891509 
-0.354313 
-0.270627 
0.412237 
0.014972 
0.552292 
-0.057883 
0.424212 
-0.065645 
-0.188919 
0.887516 
0.497106 
0.530126 
-0.106769 
0.057751 
-0.062258 
-1.021730 
-0.309803 
-0.268055 
-0.484689 
-0.008240 
0.299495 
1.469316 
-0.221795 
-0.816817 
0.937768 
0.272312 
-0.085052 
-1.401677 
-0.457789 
0.336522 
0.008332 
0.261391 
0.201025 
0.073400 
0.077468 
0.016852 
-0.401018 
-0.317900 
-0.205659 
-0.483863 
-0.510429 
0.609488 
0.991595 
0.100986 
-0.055306 
0.262691 
-0.076159 
-0.145599 
-0.055900 
-0.536909 
-0.102867 
-0.043924 
-0.023449 
-0.717582 
-0.149639 
-0.111820 
-0.070826 
0.212868 
0.410565 
0.001379 
0.015120 
-0.230175 
-0.091327 
-0.149192 
-0.153141 
-0.071532 
-0.476647 
0.505020 
0.158498 
-0.043747 
0.345287 
0.047515 
0.098842 
-0.288275 
0.658500 
-0.043842 
0.129031 
0.269403 
0.429963 
0.322398 
0.111336 
-0.644933 
-0.152357 
0.419445 
0.033820 
-0.087404 
0.291122 
-0.202473 
0.193009 
-0.269058 
-0.396052 
0.684194 
-0.025896 
-0.059874 
-0.540452 
0.336687 
-0.113865 
-0.099699 
0.276018 
-0.722787 
-0.429968 
0.290255 
-0.205888 
-0.108036 
0.548068 
0.042214 
0.754404 
0.305772 
0.396464 
0.512355 
-0.358354 
0.256172 
-0.323276 
0.002977 
0.545608 
0.689169 
-0.384728 
-0.966512 
0.447901 
0.105565 
-0.354460 
0.223719 
-0.322884 
0.199841 
0.259931 
0.315605 
0.501917 
0.245338 
-0.193271 
-0.121508 
0.003540 
-0.742632 
-0.758458 
-0.494096 
-0.077120 
-0.593514 
0.768400 
0.328969 
-0.050057 
0.640889 
-0.073619 
0.612183 
0.749138 
0.038607 
0.132674 
0.167011 
-1.038044 
-0.460576 
-0.770170 
-0.399318 
0.591021 
-0.148961 
-0.138177 
0.411368 
0.474102 
-0.057618 
-0.684527 
0.469626 
-0.701186 
-0.870222 
-0.068598 
0.342029 
0.023521 
-0.769402 
-0.123283 
-0.430813 
-0.316077 
-0.356121 
-0.307519 
0.182496 
-0.883475 
-0.134190 
-0.164542 
-0.473839 
0.442940 
-0.553960 
-0.192650 
0.391007 
0.467438 
0.382617 
-0.299859 
-0.751883 
0.612717 
-0.215086 
0.069000 
0.232371 
-0.956842 
0.164210 
0.113887 
-0.332988 
-0.617334 
-0.155403 
-0.542370 
0.175403 
0.050538 
0.457356 
0.009808 
-0.476430 
-0.509034 
-0.090687 
-0.780950 
0.319624 
-0.310052 
-0.479020 
0.576963 
-0.631637 
-0.142381 
0.271244 
0.670804 
-0.173385 
-0.013586 
-0.405219 
0.289031 
0.232795 
-0.895030 
0.201292 
0.024819 
-0.673611 
-0.105990 
-0.274523 
-0.227949 
0.647321 
-0.657754 
0.526147 
-0.281792 
0.358475 
0.578444 
0.680780 
-0.255881 
0.279560 
0.416837 
-0.440704 
0.029646 
-0.668575 
-0.740558 
-0.196123 
-0.204361 
0.043159 
0.806645 
0.632659 
-0.102120 
-0.251209 
-0.141458 
-0.273042 
0.793453 
-0.477279 
0.699284 
-0.176303 
-0.356986 
0.122619 
-0.610587 
-0.220771 
0.518338 
-0.446113 
-0.003749 
0.390789 
-0.455962 
-0.030790 
-0.426434 
0.777156 
0.307844 
-0.224131 
0.792422 
0.349766 
-0.533195 
-0.422289 
0.147834 
-0.460413 
0.095294 
0.667679 
0.640252 
-0.506845 
-0.319646 
-1.142654 
0.640369 
1.067808 
0.264431 
-0.467983 
0.536308 
0.417755 
-0.426650 
-0.224126 
0.407046 
-0.318727 
-0.588198 
1.016261 
0.184668 
-0.388572 
0.422139 
0.624152 
-0.691351 
-0.744385 
-0.405287 
0.352453 
-0.192931 
-0.274524 
0.334990 
0.157499 
0.345287 
-0.246014 
0.335416 
-0.107360 
0.177334 
0.276773 
0.169230 
-0.213457 
-0.426450 
0.764281 
0.128204 
-0.812448 
0.500434 
0.055045 
0.025485 
-0.458406 
0.574447 
-0.330659 
0.877666 
0.015939 
-0.373477 
-0.196558 
0.071956 
0.204980 
-0.428763 
0.129120 
-0.225379 
0.008097 
-0.212127 
0.054471 
0.067229 
0.178566 
-0.376615 
0.093250 
-0.242203 
0.005596 
0.104254 
-0.241441 
0.001100 
-0.735120 
0.384859 
-0.218158 
-0.543344 
0.150729 
0.033903 
-0.279870 
0.188834 
-0.328970 
0.132563 
0.117050 
0.791869 
-0.060660 
0.712189 
0.677503 
-0.028957 
0.234464 
-0.618167 
0.063684 
-0.083978 
0.688342 
-0.070723 
-0.037119 
-0.047701 
0.873852 
0.280759 
-0.004986 
-0.115422 
0.114069 
0.060274 
-0.462279 
-0.459380 
0.210480 
0.006702 
-0.066153 
0.012632 
0.605166 
-0.039528 
0.530405 
-0.250835 
-0.513763 
-0.813752 
0.117679 
-0.371661 
-0.153171 
-0.306542 
-0.124088 
0.236277 
-0.064566 
-0.001380 
-0.061953 
0.664664 
0.118674 
0.009987 
-0.589603 
0.438628 
0.521303 
-0.496689 
0.312616 
0.304699 
0.016140 
0.325190 
0.025870 
0.091762 
-0.378876 
0.769015 
0.045285 
-0.042005 
0.423990 
-0.004648 
-0.360927 
-0.015922 
0.003536 
0.141173 
-0.231829 
-0.323513 
-0.548276 
-0.132135 
-0.141940 
0.029030 
0.014322 
-0.495453 
0.005536 
-0.017607 
-0.057174 
0.122090 
-0.009237 
0.517755 
0.347489 
-0.013417 
-0.081004 
0.638717 
0.156797 
0.181515 
0.920761 
0.356475 
-0.030601 
-0.026644 
0.003388 
-0.039134 
-0.240708 
0.778734 
0.123682 
-0.065277 
-0.349518 
0.118675 
-0.570209 
0.032802 
-0.028687 
0.430601 
0.289149 
0.113803 
0.008927 
-0.753807 
0.167804 
-0.195984 
-0.042816 
0.717753 
0.065562 
-0.468321 
-0.416520 
0.057872 
-0.015468 
0.712370 
-0.850540 
-0.242274 
-0.099128 
-0.533830 
0.145025 
-0.751466 
0.394265 
0.345687 
0.325784 
0.210877 
0.074902 
0.132141 
-0.354876 
0.215169 
-0.508392 
0.828695 
-0.030743 
-0.209958 
-0.051010 
0.476505 
0.485084 
0.054000 
0.088149 
0.497939 
0.256476 
0.399929 
-0.188027 
-0.492874 
0.298957 
-0.078130 
-0.169245 
0.128197 
0.033009 
0.645467 
0.426561 
-0.062201 
-0.249563 
0.222272 
-0.064914 
0.172210 
-0.113132 
-0.323218 
-0.361439 
-0.122987 
0.084112 
-0.654530 
0.159969 
0.281102 
-0.062912 
0.156563 
0.018363 
-0.018019 
0.014341 
0.278110 
-0.039635 
0.385034 
0.031557 
-0.160686 
-0.047412 
0.175992 
0.135500 
-0.345948 
-0.062067 
0.534350 
-0.244102 
0.326310 
-0.027918 
-0.585322 
0.643783 
0.014878 
-0.156820 
0.332373 
0.726584 
-0.038624 
0.792109 
-0.421823 
0.130519 
-0.006878 
0.096662 
-0.066472 
0.129354 
-0.146305 
0.504586 
-0.072863 
-0.059683 
0.396135 
-0.028504 
-0.782067 
-0.029011 
-0.072281 
-0.619530 
0.240329 
0.008968 
0.278277 
-0.308766 
-0.410205 
0.021061 
-0.118621 
-0.088084 
0.082078 
0.091536 
0.025386 
0.058009 
0.019752 
-0.605729 
-0.138053 
-0.026409 
0.618488 
0.145198 
-0.284763 
-0.168466 
-0.186536 
0.430858 
0.095863 
-0.028104 
0.027588 
0.744014 
0.790845 
0.727203 
-0.354627 
0.580518 
0.758687 
-0.402443 
0.216992 
0.043823 
0.471113 
-0.202344 
