0.220985 
-0.146245 
-0.218116 
-0.250526 
0.627735 
-0.174230 
0.146519 
-0.108066 
-0.530137 
-0.239296 
-0.427168 
0.149236 
-0.618061 
-0.349956 
-0.484146 
-0.602130 
0.284066 
0.056215 
-0.432112 
-0.250618 
0.210143 
0.565386 
0.536020 
0.252347 
0.634699 
-0.254352 
0.023269 
-0.899601 
0.307505 
0.576250 
0.498917 
0.399598 
-0.432173 
0.457004 
-0.102052 
0.024603 
-0.674152 
0.579447 
0.650134 
0.000965 
0.692953 
-0.057235 
0.404924 
0.036409 
0.201160 
-0.169281 
-0.336794 
-0.200517 
-0.291721 
-0.355787 
0.153387 
0.011048 
-0.036709 
0.222833 
0.123661 
0.072248 
-0.206776 
-0.023996 
-0.000764 
-0.519609 
-0.042347 
-0.000588 
0.166295 
-0.649809 
0.379013 
-0.679800 
-0.199183 
0.371936 
0.062442 
-0.029276 
-0.219761 
0.748767 
-0.661255 
0.790277 
0.320194 
-0.820419 
-0.188391 
0.132336 
-0.564441 
-0.271773 
-0.445224 
0.369655 
-0.451280 
-0.164250 
0.155431 
0.097687 
0.515246 
0.209113 
-0.319981 
0.128279 
-0.684134 
-0.121577 
-0.144277 
-0.031179 
-0.069606 
0.107913 
0.226751 
-0.276121 
0.134129 
-0.729712 
-0.001999 
-0.293033 
0.326702 
-0.140003 
-0.607872 
0.078238 
-0.294046 
-0.440096 
0.537399 
0.643880 
-0.723305 
-0.061872 
-0.536161 
-0.302582 
-0.554837 
-0.336535 
0.514620 
-0.011902 
-0.368624 
-1.502815 
0.180181 
0.633067 
-0.290093 
-0.178082 
-3.747766 
-0.893310 
-0.108670 
0.311214 
-0.508682 
0.088768 
-5.496240 
0.107691 
-0.845857 
-0.450011 
-1.662091 
-7.929334 
-0.836455 
-0.149446 
-1.837187 
0.022797 
-0.489160 
0.063499 
-0.523484 
0.323181 
0.698902 
-0.534074 
-0.101431 
0.820994 
0.692426 
-0.403172 
-0.742637 
-0.126004 
0.095970 
-0.096744 
-0.692022 
-0.700012 
0.006463 
-0.093195 
0.152344 
0.461478 
0.577315 
-0.507370 
0.441701 
0.399204 
-0.090854 
-0.006386 
-0.341151 
-0.195244 
-0.191564 
0.208564 
0.028756 
-0.454451 
-0.162267 
0.387974 
0.590848 
0.187170 
0.965211 
-0.448282 
0.047518 
1.171494 
-0.379589 
-0.259888 
-0.693451 
-0.254982 
0.007825 
-0.863617 
-0.410169 
0.150154 
-0.208728 
0.613753 
0.371076 
-0.526273 
0.273005 
0.363693 
0.614093 
0.256391 
-0.773828 
-0.362346 
-0.101099 
-0.106870 
-0.270312 
-0.602680 
0.117647 
-0.092431 
-0.043700 
0.705557 
0.444590 
-0.638901 
-0.456679 
-0.177883 
0.859077 
0.077652 
0.362724 
-0.400776 
-0.528808 
0.468089 
0.297037 
0.377810 
-0.088191 
0.629719 
0.651728 
-0.384469 
-0.893305 
-0.046114 
0.749358 
-0.035813 
0.603800 
0.397046 
-0.272452 
4.982111 
0.089518 
0.505372 
0.735270 
1.508142 
6.848769 
0.775018 
0.759347 
1.588907 
0.902158 
-0.383273 
0.013649 
0.793176 
-0.350512 
0.024964 
0.054527 
-0.030115 
0.832886 
-0.081041 
0.134526 
0.341380 
0.172765 
-0.346051 
-0.204016 
0.199611 
-0.362082 
-0.240833 
0.551974 
-0.430827 
0.025092 
-0.864496 
-0.203681 
-0.310852 
0.748674 
-0.171209 
-0.002915 
0.053546 
-0.021076 
1.387119 
-0.541649 
0.530817 
0.355915 
-0.280892 
-0.197178 
0.547154 
-0.123600 
-0.044000 
0.098447 
-0.764683 
-0.041341 
-0.469654 
-0.520310 
-0.167479 
0.689596 
0.168317 
0.532909 
0.456893 
0.415164 
-0.586291 
0.242500 
-0.448465 
-0.529357 
-0.109811 
-0.712583 
0.162084 
-0.420927 
-0.051013 
-0.107236 
-0.464576 
-0.391995 
-0.064238 
-0.015292 
-0.106509 
-0.465438 
-0.215811 
0.359022 
0.514279 
-0.815976 
-0.619203 
-0.322075 
0.093752 
0.146457 
0.026871 
-0.638737 
-0.312639 
0.645712 
0.055757 
-0.044898 
0.442163 
-0.246820 
-0.069355 
0.201960 
