0.466933 
0.371502 
-0.099246 
0.420331 
0.294046 
0.450789 
0.144261 
-0.305124 
0.324809 
0.079012 
0.770836 
0.398267 
0.048036 
0.435957 
0.429518 
-0.346202 
0.105167 
0.076907 
0.148930 
-0.000519 
-0.120966 
0.135685 
0.165601 
-0.158478 
-0.478293 
0.047014 
0.253149 
0.408382 
-0.364746 
-0.345927 
0.537607 
0.190290 
0.228675 
0.102628 
-0.142426 
-0.074030 
-0.603158 
-0.147006 
-0.444347 
0.018896 
0.332804 
0.479228 
-0.172063 
-0.489975 
-0.064596 
-0.147695 
0.546043 
-0.473295 
-0.118651 
-0.156005 
-0.413854 
-0.764397 
0.203344 
0.417667 
-0.342998 
0.276595 
0.345475 
-0.147147 
-0.503529 
-0.200461 
-0.162333 
-0.016984 
0.357067 
-0.203986 
0.231939 
0.821741 
0.019230 
0.089768 
-0.261775 
0.216908 
-0.065135 
-0.134412 
0.357879 
-0.154027 
-0.103234 
-0.460043 
-0.600574 
0.271308 
-0.000690 
0.244435 
-0.424987 
-0.318829 
-0.033237 
-0.225230 
0.577471 
0.092113 
-0.035404 
0.044069 
0.155187 
0.048499 
-0.000242 
0.016272 
-0.293194 
-0.155208 
-0.375141 
0.260750 
0.329278 
0.192969 
0.362926 
0.701468 
0.420454 
0.456679 
0.508469 
0.274117 
-0.248329 
0.343455 
-0.546098 
-0.222541 
0.041586 
0.107212 
-0.483640 
-0.653508 
0.037787 
-0.747587 
-0.732756 
0.405895 
0.091814 
-0.262551 
0.360830 
0.123142 
0.243568 
-0.323252 
-0.138585 
-0.638936 
-0.210364 
0.545213 
0.072573 
-0.868160 
0.370586 
-0.119602 
-0.135148 
0.549608 
0.544404 
-0.513779 
0.503198 
-0.716388 
-0.134267 
0.135610 
-0.023984 
-0.488845 
0.463935 
-0.226092 
-0.176580 
0.371656 
0.121191 
0.222116 
0.464465 
-0.081632 
-0.149351 
0.379693 
0.025727 
-0.427412 
-0.030294 
-0.072207 
-0.331163 
-0.924516 
0.700727 
-0.470858 
-0.579416 
-0.056162 
0.196457 
-0.451888 
-0.498575 
0.422758 
-0.788263 
0.219426 
0.144783 
-0.067499 
0.048239 
-0.614084 
-0.061199 
0.029243 
-0.732597 
-0.314467 
0.656094 
-0.141118 
0.678241 
0.255577 
-0.462651 
-0.891700 
-0.045805 
-0.065656 
0.204644 
0.431562 
-0.297110 
0.969599 
-0.092502 
0.471663 
0.047089 
-0.778134 
0.401529 
0.241186 
-0.305370 
-0.139848 
0.249153 
0.112003 
0.524256 
-0.429060 
-0.339027 
0.261120 
-0.339231 
0.260238 
-0.179111 
-0.376016 
0.053900 
-0.743980 
-0.286111 
0.361729 
0.556169 
0.014355 
0.456914 
-0.253069 
-0.481701 
0.312620 
0.116475 
0.742493 
-0.219153 
-0.034077 
0.051668 
-0.164037 
-0.574419 
0.027192 
0.737449 
0.557512 
0.680258 
0.480544 
0.084994 
0.404340 
-0.416730 
0.454574 
0.277657 
0.307499 
0.044920 
-0.079122 
0.097061 
0.581315 
-0.575069 
-0.099560 
-0.249519 
0.376284 
0.516187 
0.065497 
0.105250 
-0.400251 
-0.308311 
-0.667293 
-0.074951 
-0.370687 
-0.536027 
-0.013449 
0.483538 
0.553687 
-0.654337 
-0.542245 
0.075384 
-0.471062 
0.112229 
0.051917 
0.080651 
0.184681 
0.395193 
