-0.660634 
0.229499 
0.268960 
-0.105075 
0.107059 
0.486282 
-0.478408 
-0.043580 
-0.438307 
0.001068 
-0.226722 
0.100040 
-0.427320 
-0.120792 
0.502976 
-0.582385 
-0.001923 
0.124912 
0.279916 
-0.185949 
-1.972846 
-0.405608 
0.082822 
-0.072395 
-0.497232 
-9.071579 
-1.390655 
-1.004919 
-4.442924 
0.109104 
0.687874 
-0.607101 
-0.011902 
-0.270876 
-0.189858 
0.157648 
-0.120823 
0.017995 
-0.051289 
0.121344 
0.580096 
0.005791 
10.103421 
0.144444 
-0.767758 
-0.193515 
-1.456466 
12.129286 
2.883224 
2.231724 
12.746178 
0.568102 
-0.345334 
0.059628 
0.094180 
0.062863 
0.183186 
0.075734 
0.085985 
-0.395477 
0.040025 
-0.228665 
-0.204382 
0.457316 
-26.547684 
0.564843 
-4.742115 
-4.316671 
-6.832572 
-7.650413 
-2.321505 
-1.753324 
-4.084702 
0.343516 
0.759963 
-1.120505 
0.696799 
-0.785774 
-0.652286 
-0.071554 
-0.517547 
-0.765596 
-0.860009 
-7.417971 
-0.251167 
0.150347 
-10.486539 
-0.254892 
1.877146 
1.507917 
1.525766 
-28.350906 
-1.890866 
-2.719225 
-3.333777 
0.253548 
0.330958 
0.279378 
-0.030241 
0.561650 
0.475395 
0.404809 
-0.063476 
-0.109224 
0.248258 
2.009846 
-0.659322 
0.762122 
-7.705936 
-0.335093 
0.367852 
-0.272459 
0.396208 
-6.887640 
-2.565866 
-2.031777 
-13.342019 
-0.048585 
0.190877 
-0.445188 
0.233253 
0.234890 
0.263572 
0.323493 
-0.416478 
0.053580 
0.082926 
0.153894 
0.221656 
-0.401193 
-0.645845 
0.836146 
-0.146079 
0.398774 
-0.417440 
-0.029768 
-0.102459 
0.179480 
-0.497054 
0.710013 
0.631289 
10.469529 
-0.023313 
0.650313 
0.446290 
0.930519 
9.940703 
0.608476 
0.231609 
-1.328474 
-0.591113 
0.034213 
0.131593 
-0.123966 
0.203398 
0.130936 
0.171088 
-0.146866 
-0.531973 
-0.063255 
0.144877 
-0.160741 
0.053733 
-0.221041 
0.201880 
0.002774 
0.137868 
-0.151832 
0.150569 
-0.308997 
-0.262150 
0.359973 
-0.277047 
0.444604 
-0.048201 
0.088870 
0.362300 
0.686068 
0.843789 
0.404311 
0.303960 
-0.052360 
-0.444203 
0.611744 
-0.243507 
-1.168390 
-0.038209 
-0.285118 
-0.527156 
-0.296651 
-0.765253 
-0.696128 
0.162572 
-3.432437 
-0.079714 
0.548546 
-6.532831 
-0.069611 
0.136659 
-0.602564 
-0.490490 
-13.424328 
-0.646249 
0.013072 
0.581044 
-0.429701 
0.575293 
-8.873981 
-0.030757 
0.901801 
0.686921 
1.498396 
-16.144329 
-2.756752 
-2.283566 
-7.332620 
0.395764 
0.394301 
-8.344513 
0.229841 
-1.411095 
-0.389159 
-2.607998 
-19.413506 
0.488210 
-0.626570 
2.267812 
0.094516 
-0.512323 
-4.312663 
0.151330 
-2.705785 
-3.438985 
-5.253170 
-28.963564 
0.545294 
0.405468 
5.074185 
0.330577 
0.142355 
-1.142504 
0.045045 
0.339678 
-0.033639 
0.008767 
-1.325785 
0.422527 
-0.122049 
-0.196422 
0.098880 
0.104406 
0.608348 
0.023499 
-0.163432 
0.469065 
0.151391 
-0.339783 
-0.063251 
-0.443788 
-0.903469 
0.160741 
-0.367863 
0.671617 
0.025178 
-0.010894 
0.489537 
0.559406 
-0.410896 
0.182344 
0.740219 
-0.097800 
0.739860 
0.354950 
-0.592786 
-0.239937 
-0.125784 
-0.569005 
0.343122 
0.545741 
-0.535631 
-0.467248 
-0.492026 
0.240394 
-0.268401 
-15.464305 
0.156079 
-2.637712 
-3.089584 
-4.126863 
-4.555671 
-2.392365 
-2.894489 
-10.861974 
0.004791 
0.542491 
0.001610 
-0.173588 
-0.878284 
-0.057748 
-0.018527 
-0.234317 
-0.149285 
0.145151 
-0.534053 
-0.419452 
-0.039796 
0.214503 
-0.232144 
-0.142736 
0.039084 
-0.380514 
-0.033197 
-0.159067 
0.028492 
0.079798 
-0.011105 
-0.113521 
-0.047456 
0.140598 
0.094985 
-0.128382 
-0.098615 
0.198758 
-0.312862 
-0.035999 
0.092954 
-0.368888 
0.005887 
-0.508178 
-0.150034 
0.305840 
0.084274 
0.535330 
0.438091 
0.215844 
0.027124 
-0.136451 
0.078122 
-0.041093 
0.095254 
0.000673 
0.119591 
-0.029150 
0.144178 
-0.211039 
0.033459 
-0.587254 
