-0.255654 
0.689596 
0.481460 
0.062929 
0.403668 
-0.423719 
0.350749 
-0.302469 
-0.275033 
-0.230201 
0.118625 
-0.341533 
0.136631 
0.156011 
0.039796 
-0.230567 
-0.166997 
-0.484146 
-0.575915 
0.350688 
0.877384 
-0.146240 
-0.548622 
0.591962 
-0.631376 
0.022729 
0.490721 
0.759426 
-0.965164 
0.062960 
-0.202637 
0.434812 
0.542955 
0.055211 
0.193210 
-0.648076 
0.438766 
0.256316 
0.101718 
0.130688 
-0.404736 
-0.687236 
1.128846 
-0.094029 
-0.333988 
0.373508 
-0.044781 
0.826913 
0.710201 
0.414989 
-0.491178 
0.109867 
0.141890 
-0.240547 
-0.158544 
-0.556444 
0.154515 
-0.177557 
0.024537 
-0.550279 
-0.249397 
-0.135289 
-0.185095 
0.067293 
0.274337 
0.001185 
-0.392678 
0.790909 
-0.599417 
0.347573 
-0.093425 
-0.385956 
0.037902 
0.647816 
-0.334263 
0.457470 
-0.109958 
0.003623 
0.270363 
0.263222 
0.043446 
-0.698905 
0.546494 
-0.050784 
-0.670827 
-0.260292 
0.841379 
0.731326 
0.465854 
0.873408 
0.315913 
-1.808357 
-0.071813 
-0.180997 
-0.072527 
0.028565 
0.493132 
0.138090 
-0.185035 
-0.069965 
0.368992 
-0.697694 
0.637533 
-0.293914 
-0.613871 
0.326634 
-0.183935 
0.167814 
0.256661 
-0.194617 
0.506211 
0.063601 
0.848415 
0.465773 
-0.225410 
0.218696 
0.212622 
0.270730 
0.076174 
0.355052 
0.761698 
-0.260205 
0.164328 
-0.249246 
0.575773 
-0.405026 
-1.804512 
0.163220 
-0.502060 
0.900557 
-0.008603 
0.297159 
0.073223 
-0.313336 
0.000426 
-0.656249 
0.511582 
-0.423292 
-0.071365 
-0.120487 
-0.497936 
0.802306 
-0.458745 
0.655866 
0.173524 
-0.283842 
-1.150317 
-0.855963 
-0.028889 
0.027977 
-0.362743 
0.613901 
0.444990 
-0.080081 
-0.249947 
0.115146 
0.458571 
0.211524 
0.214209 
-0.336406 
0.049593 
0.236824 
0.107120 
0.485288 
0.055635 
-0.442772 
-0.181378 
-0.277920 
0.298757 
-0.373515 
0.546259 
0.452946 
-0.709983 
0.048335 
0.164953 
0.279244 
0.430497 
-0.527838 
-0.239570 
-0.541520 
0.715140 
-0.108428 
-0.453559 
-0.563280 
0.937895 
-0.671762 
-0.677172 
-1.154660 
-1.223499 
-3.343760 
1.534260 
-1.912672 
-2.272090 
-1.382632 
-0.808130 
1.059316 
0.389691 
-0.067537 
-0.106479 
-0.380657 
0.350871 
0.369030 
0.208380 
-0.262734 
0.284921 
-0.558611 
0.164525 
0.059965 
0.034893 
-0.224267 
0.673811 
-0.288340 
-0.700318 
-0.106733 
0.039548 
0.043711 
0.652272 
0.340905 
0.689340 
0.146275 
-0.303167 
0.582597 
-0.205789 
0.434543 
0.352349 
0.693512 
-0.821897 
-0.568163 
0.245563 
0.827228 
0.491589 
-0.227229 
0.280948 
0.829124 
-0.146361 
-0.611149 
-0.023930 
-0.024293 
-0.668905 
0.326810 
-0.960255 
0.468975 
-0.559443 
-0.311870 
0.481446 
0.387915 
1.567261 
1.271600 
-1.044255 
0.565348 
-0.255573 
-0.900325 
0.743254 
-0.169467 
0.754128 
1.219257 
0.154924 
0.924100 
1.188661 
0.873911 
-0.179734 
0.649576 
-0.418836 
0.402291 
1.228098 
-0.389236 
-0.502656 
-1.075947 
-0.402417 
-0.667312 
-0.222828 
-0.012932 
-0.847825 
-0.252240 
-0.124685 
0.665051 
-0.568530 
-0.456093 
0.491116 
-0.488369 
0.489707 
0.205579 
