-0.320811 
0.230476 
0.571764 
0.580493 
0.734001 
0.552538 
0.745109 
-0.074862 
-0.289224 
0.529435 
0.019898 
0.055635 
0.608386 
-0.569018 
0.356212 
0.392407 
-0.757653 
-0.120792 
-0.117679 
-0.127995 
0.136722 
0.301035 
0.065219 
0.796439 
1.011515 
-0.120938 
-0.131913 
0.338941 
-0.101500 
0.018677 
-0.451558 
-0.428497 
0.421308 
0.334178 
-0.244757 
0.262095 
1.555272 
-0.105078 
0.575287 
1.077153 
-0.197760 
-0.585614 
-2.835570 
-0.588605 
-3.952296 
-5.453872 
-19.551121 
-0.312812 
-2.331771 
-1.390621 
-1.362273 
-0.563005 
0.015698 
-0.416476 
-0.726676 
0.663078 
0.131501 
-0.172076 
1.078343 
-0.142191 
0.271628 
0.574239 
0.646443 
0.051084 
-1.000000 
0.062186 
-0.721730 
-0.602472 
-3.484201 
-0.069358 
-0.833569 
-0.696117 
0.557328 
0.066897 
-0.601662 
-0.651349 
-0.117037 
-0.006567 
-0.549215 
0.077325 
-2.953936 
-0.500000 
-0.133413 
-0.405313 
0.403485 
0.094948 
1.279995 
-0.087011 
1.082772 
1.508794 
6.796952 
0.155896 
0.137890 
0.699716 
0.591343 
0.131443 
-0.200247 
0.341594 
0.270211 
-0.393199 
-0.303960 
0.228329 
-0.100158 
-0.087794 
0.105841 
-0.240559 
0.348430 
-0.353450 
-13.177944 
0.360996 
-7.444417 
-8.202666 
-15.747709 
-34.611130 
-2.092797 
-1.803089 
-3.489881 
-0.110843 
0.477860 
-0.147849 
-0.454848 
-0.242690 
-0.575357 
-0.324365 
0.055918 
-0.635920 
0.239859 
0.384787 
0.511002 
0.049148 
-0.378522 
-0.090022 
0.359404 
-0.597149 
-0.283710 
-2.162569 
-0.854256 
-0.359357 
-0.582714 
0.340037 
-0.592097 
0.598374 
-0.024637 
-0.158508 
0.135732 
-0.048882 
0.513271 
0.477646 
-0.024485 
0.097785 
0.339061 
-0.370433 
-2.444459 
0.888195 
-1.994882 
-2.458780 
1.694009 
-34.466400 
-1.816936 
-3.420583 
-5.405793 
0.815332 
0.034942 
0.258288 
-0.372387 
0.439685 
0.343847 
1.584038 
1.102548 
0.643087 
0.141833 
0.640240 
0.432722 
0.423784 
0.226366 
-0.544878 
0.169623 
0.388317 
-0.085544 
0.124309 
0.359981 
-0.450828 
0.234286 
0.324442 
0.379892 
-0.054808 
-0.547868 
-0.460434 
-0.474581 
-0.119610 
-0.146398 
-0.691635 
0.550147 
0.486118 
0.223365 
0.307268 
0.012723 
-0.230598 
-0.826586 
0.379757 
0.038699 
-0.968282 
-0.368878 
-0.154834 
-0.252058 
-0.464949 
-0.180152 
0.257571 
-0.310495 
-0.028291 
-0.058137 
0.442390 
2.030058 
-0.302934 
-0.576718 
0.501015 
0.473251 
0.329285 
1.967164 
0.092096 
0.507414 
1.678865 
-1.281001 
18.423820 
1.079237 
1.408335 
2.273146 
0.260903 
-0.120755 
0.036759 
-0.529038 
0.981176 
-0.095312 
-0.109404 
4.417253 
-0.052097 
1.027677 
0.983544 
-0.529801 
-0.290032 
0.674313 
-0.187952 
0.133695 
-0.346592 
0.572190 
-0.058866 
0.631374 
0.207239 
-0.020908 
0.315517 
-0.143672 
-0.326193 
-0.207167 
-0.370972 
0.085775 
0.048509 
-0.547608 
-0.371956 
-0.337612 
-0.138104 
-0.206951 
0.512395 
-0.005275 
-0.129629 
-0.125499 
0.121538 
0.314710 
-0.122845 
0.378771 
0.051283 
0.105635 
-0.305996 
-0.007621 
0.396100 
-0.433551 
0.053659 
-0.044566 
-0.248024 
-0.376001 
0.811622 
0.442097 
-0.796237 
