0.521653 
-0.266579 
-0.581530 
0.362560 
-0.243416 
-0.603717 
0.132420 
-0.168889 
0.173345 
0.255135 
0.645802 
-0.180425 
0.195746 
-0.094821 
-0.652577 
-0.891018 
0.384686 
0.176580 
-0.260018 
-0.495682 
2.570619 
-0.162564 
-0.151276 
0.875685 
0.764410 
3.100922 
0.622042 
0.316499 
-0.091247 
0.809076 
0.182897 
-0.420135 
0.204595 
0.601214 
0.462996 
0.933140 
-0.072374 
1.198465 
-0.007468 
0.243421 
0.407758 
0.087179 
-0.258377 
0.384381 
0.399304 
0.376659 
0.581216 
0.235385 
0.372152 
-0.277571 
0.501726 
-0.146611 
0.609374 
1.000000 
-0.087313 
0.190430 
0.837646 
-0.165344 
0.668177 
0.147871 
-0.647228 
-0.315597 
0.156407 
-0.238669 
1.777570 
-0.085601 
-0.067166 
0.797733 
-0.013444 
1.981147 
0.019905 
0.127386 
0.630389 
-0.544450 
0.402554 
1.370445 
-0.026915 
-0.057225 
-0.078412 
0.871976 
1.286933 
0.070813 
0.328054 
0.191124 
0.217292 
0.083264 
-11.900208 
0.553646 
-6.433819 
-6.470898 
-4.757756 
-28.766018 
0.445438 
1.000000 
0.215807 
-0.970214 
0.850444 
-0.170967 
-0.196509 
-0.125964 
0.123446 
-0.577553 
-0.123381 
-0.264976 
-0.121056 
0.189507 
0.768639 
-0.430675 
-16.000000 
-0.244783 
-5.167212 
-7.619340 
-18.492315 
-31.000319 
-4.000000 
-3.500083 
-6.019386 
0.541887 
0.469347 
-12.539477 
0.158137 
-7.737044 
-7.687867 
-9.403334 
-29.629906 
-0.396223 
-0.361890 
0.083747 
-0.353710 
0.208955 
0.919652 
0.251792 
-0.498874 
0.090228 
-1.522629 
-0.491960 
-1.120623 
-1.235959 
-0.364937 
0.269845 
-0.362318 
0.500000 
0.058107 
-0.156651 
-0.053197 
-0.774469 
-0.647025 
0.367209 
0.250000 
0.531963 
0.374371 
0.452864 
0.028126 
-0.567003 
-0.869426 
-0.142878 
0.252281 
0.304594 
-0.089738 
-0.040852 
-0.109801 
0.573443 
-0.172581 
-0.171756 
0.438762 
0.500000 
0.383854 
0.411217 
-0.012670 
0.534284 
0.736427 
0.640448 
-0.608814 
-0.169458 
4.029924 
-0.811535 
-0.405313 
-0.531760 
-0.212666 
-4.390975 
-1.000000 
-2.505571 
-3.252721 
-0.454207 
0.370557 
-1.535846 
0.335551 
0.305936 
-0.106930 
-0.610102 
-1.745014 
0.128650 
-0.005955 
-0.016095 
-0.653981 
0.103162 
0.390745 
-0.042667 
-3.809366 
-5.793267 
-18.969942 
1.345050 
-1.340623 
-1.640144 
-2.408698 
-0.576800 
0.808519 
-0.077873 
-0.458846 
-0.003576 
0.551977 
-0.106267 
-0.196213 
0.225345 
0.458377 
-0.220258 
-0.659688 
0.584047 
-0.629120 
0.959655 
0.260529 
-0.725921 
0.547611 
-0.357036 
0.823835 
0.109190 
-0.483282 
-0.372509 
0.770128 
-2.989143 
-0.428101 
-0.931077 
0.008528 
-0.527036 
3.074821 
1.443464 
1.876613 
2.000000 
-0.009857 
-0.416405 
-0.243732 
0.432248 
0.036788 
-0.079205 
-0.185948 
-0.160462 
-0.002325 
-0.048999 
-0.038744 
-0.010366 
0.116521 
0.104718 
-0.155684 
0.136686 
0.344999 
-0.196530 
0.032402 
-0.155721 
0.058457 
0.361012 
0.182570 
