0.595721 
-0.422254 
-0.271157 
-0.457015 
-0.278237 
-0.112400 
0.405957 
0.443190 
0.393719 
-0.119297 
-0.833430 
-0.493545 
0.233924 
0.689810 
-0.013092 
-0.450545 
-0.126957 
-0.477676 
0.515519 
0.440077 
0.413616 
0.738670 
0.777472 
0.426985 
0.333549 
-0.560890 
-0.625815 
-0.036533 
0.040357 
-0.503311 
0.186428 
0.035894 
-0.301675 
0.226356 
0.589923 
0.005402 
0.801844 
0.371809 
0.138709 
-0.084667 
-0.962340 
-0.270638 
-0.218368 
-0.668355 
-0.217594 
0.217238 
0.560795 
-0.330852 
0.045136 
-0.547594 
-0.183668 
0.017273 
-0.077649 
-0.169076 
-0.111179 
-0.528129 
0.549442 
0.104061 
-0.677913 
-0.039766 
0.554735 
-0.542711 
-0.433027 
0.570332 
0.001019 
0.088351 
-0.818148 
0.376568 
-0.108677 
0.275062 
-0.455370 
-0.222954 
0.012743 
0.004364 
0.045952 
0.245636 
-0.459151 
-0.060302 
-0.221800 
-0.028952 
-0.255852 
0.136110 
-0.205112 
0.092580 
-0.026002 
0.029964 
0.758949 
0.649190 
-0.242064 
0.004927 
0.127859 
-0.030554 
0.057392 
0.547532 
-0.068022 
0.292276 
-0.173622 
-0.207594 
-0.074435 
0.392736 
-0.457528 
0.483615 
0.316836 
0.020328 
0.160219 
-0.175968 
-0.127079 
0.673909 
0.549146 
-0.762993 
-0.165249 
-0.017894 
-0.503949 
0.206789 
-0.097211 
-0.528467 
0.097218 
0.182257 
0.050765 
-0.053905 
0.746727 
0.236739 
-0.293023 
0.244198 
0.589381 
0.124579 
-0.546024 
-0.311667 
-0.570238 
-0.141568 
0.228370 
-0.234107 
0.275979 
0.805963 
0.046693 
0.593616 
0.201697 
0.239479 
0.177587 
-0.354595 
-0.155003 
-0.567186 
-0.137181 
-0.871395 
-0.647816 
0.234138 
-0.483505 
-0.198279 
-0.169012 
0.144317 
-0.571734 
0.302622 
0.303636 
-0.104770 
-0.033564 
-0.023348 
-0.839771 
0.527859 
0.280860 
-0.795099 
0.111615 
-0.029542 
-0.493512 
-0.783251 
-0.357769 
-0.885652 
-0.536316 
-0.508680 
0.947282 
-0.600441 
-0.130071 
0.443253 
-0.531358 
-0.111605 
0.034937 
-0.095645 
0.681248 
0.829943 
0.061925 
0.834370 
-0.286164 
-0.234792 
-0.448655 
0.731925 
0.218572 
0.087067 
-0.174047 
0.409954 
-0.162604 
0.119508 
0.590045 
-0.651112 
0.160955 
0.701743 
0.174078 
0.516251 
-0.850844 
0.262337 
0.212581 
-0.308992 
0.219885 
0.342435 
-0.130240 
-0.687819 
0.442754 
-0.046052 
0.522906 
-0.211532 
-0.226875 
-0.402762 
-0.044631 
-0.698604 
-0.711789 
-0.099737 
0.098253 
0.208239 
0.279977 
0.912149 
0.172774 
-0.231941 
0.647106 
0.244157 
-0.463837 
-0.437769 
-0.138216 
-0.351776 
0.633641 
0.344066 
-0.577814 
-0.905068 
-0.035554 
0.172445 
0.784074 
-0.671881 
0.092934 
0.473851 
-0.145738 
-0.018088 
-0.518693 
0.248911 
-0.079783 
-0.909569 
-0.345872 
-0.031242 
0.060148 
0.400121 
0.670732 
-0.344244 
0.231453 
-0.554584 
-0.048768 
0.322856 
-0.407381 
0.254949 
0.269215 
-0.650681 
0.538465 
-0.526411 
0.348205 
0.485509 
-0.042055 
