0.552385 
0.539903 
0.791681 
-0.150517 
0.139744 
0.442671 
-0.724693 
-0.256569 
-0.137364 
0.359020 
0.026673 
0.355632 
-0.164006 
-0.395337 
-0.581347 
-0.175695 
-0.664602 
-0.058779 
-0.163549 
-0.602344 
0.624936 
0.029115 
-0.244448 
0.136632 
-0.713651 
0.380537 
-0.679852 
0.118754 
0.045995 
-0.185797 
0.420805 
0.248376 
0.102910 
-0.578275 
0.291542 
-0.047437 
0.093277 
-0.042009 
-0.486678 
-0.162425 
-0.259438 
-0.128786 
-0.386674 
-0.039583 
0.028192 
-0.239058 
0.478374 
0.003703 
0.216637 
0.268471 
0.216706 
-0.343791 
-0.707893 
0.517212 
-0.091647 
0.504306 
0.150852 
-0.763940 
-0.246669 
0.176127 
-0.475786 
-0.088881 
-0.363903 
-0.467369 
0.204134 
0.040193 
-0.005842 
-0.029964 
-0.098523 
-0.613983 
-0.456436 
0.158298 
-0.399032 
0.043550 
0.543510 
0.210517 
-0.637471 
-0.163732 
-0.062807 
-0.602222 
-0.342753 
-0.716422 
-0.069796 
-0.648915 
0.194769 
0.053835 
0.060079 
0.764367 
-0.748923 
-0.083387 
-0.184954 
-0.409166 
-0.502717 
0.196848 
0.629328 
-0.219947 
-0.666850 
-0.150437 
0.558214 
0.435492 
-0.276478 
-0.641011 
0.413513 
0.487829 
0.435500 
-0.315071 
-0.291086 
0.017056 
0.032653 
-0.168126 
0.083453 
-0.113633 
0.103424 
0.240370 
0.515916 
-0.103671 
0.065067 
0.054384 
0.087373 
0.536671 
-0.458235 
0.168643 
0.417129 
0.271403 
-0.845196 
0.673150 
-0.236981 
0.042865 
-0.034364 
0.776640 
0.566086 
0.664144 
0.073793 
-0.728112 
-0.455582 
0.416087 
0.175390 
-0.497391 
0.281136 
0.302835 
-0.724082 
0.799233 
-0.710227 
-0.271856 
0.041651 
0.439503 
-0.404464 
0.705977 
0.627691 
0.099078 
-0.183233 
-0.437078 
-0.023684 
0.806299 
-0.268971 
0.136321 
-0.217627 
0.368739 
-0.621562 
0.497398 
-0.435224 
-0.545183 
-0.379709 
-0.863765 
-0.244881 
-0.209021 
-0.801599 
0.646260 
-0.157506 
-0.629749 
0.361675 
-0.026795 
0.319132 
-0.221961 
-0.106011 
0.087435 
-0.055567 
0.165266 
-0.235471 
0.180479 
0.608745 
0.726551 
0.107049 
0.436506 
0.620583 
-0.393453 
-0.141331 
0.098751 
0.570927 
0.393153 
0.840794 
0.309469 
-0.350650 
0.060673 
-0.680349 
0.243938 
0.468766 
-0.587207 
0.090274 
-0.170751 
0.398359 
0.048715 
-0.947935 
-0.054901 
0.388686 
-0.193304 
0.289041 
-0.871944 
0.301309 
-0.278329 
-0.352702 
-0.225105 
-0.263466 
-0.522385 
0.813379 
-0.155004 
0.361553 
0.360485 
-0.106401 
0.064119 
0.738796 
0.711646 
-0.514535 
-0.371302 
-0.346748 
0.880300 
0.269439 
0.401257 
-0.058923 
-0.320723 
-0.928526 
-0.370418 
-0.180211 
-0.672298 
0.457616 
0.133084 
-0.288206 
-0.074510 
0.785089 
0.014183 
-0.341198 
0.425615 
-0.204363 
-0.101293 
-0.347495 
-0.193907 
-0.293608 
0.491185 
0.289850 
-0.199008 
0.021054 
0.033629 
-0.402962 
0.305040 
-0.248600 
0.705659 
0.150264 
0.120617 
-0.006925 
0.015151 
-0.184415 
