0.016572 
-0.151463 
-0.230934 
-0.347270 
-0.675436 
-0.208045 
-0.636067 
0.006806 
0.072573 
0.641346 
0.629078 
0.041993 
-0.204230 
-0.129460 
0.735649 
-0.543901 
0.180456 
0.311441 
0.076174 
-0.062288 
-0.678271 
0.044235 
-0.009536 
-1.020637 
-0.034212 
-1.777413 
-0.332321 
0.101696 
-0.092390 
-0.206305 
0.585914 
-0.077306 
0.212597 
0.339872 
0.342900 
-0.079053 
0.582754 
0.115734 
0.550260 
0.647934 
0.752373 
-0.488592 
3.290592 
0.067369 
0.362201 
0.991340 
2.148413 
5.842996 
0.676634 
-0.165947 
0.818527 
0.150304 
-0.367434 
0.539206 
0.025297 
0.255466 
0.494248 
-0.145615 
-0.731817 
-0.725506 
-0.025941 
0.254947 
0.343608 
0.107791 
0.243569 
0.683920 
0.357477 
0.051551 
-0.417487 
-0.039937 
0.600934 
-0.128664 
0.188923 
0.217231 
-0.493431 
-0.873086 
0.296091 
0.344977 
0.680039 
-0.812196 
0.196687 
0.406622 
0.180214 
-0.102677 
0.530931 
-0.392599 
-0.921422 
0.219367 
0.814943 
-0.482064 
-3.207813 
-0.539150 
-0.848954 
0.118060 
-0.133663 
0.120457 
-0.352388 
0.001137 
0.195990 
-0.006963 
0.186747 
0.802011 
-0.075555 
0.773655 
-0.769547 
0.020975 
0.001740 
0.053436 
-4.778133 
0.924390 
-5.893062 
-5.690820 
-8.380054 
-23.363647 
-0.816894 
-2.088350 
-2.968670 
0.523423 
0.303898 
-0.290436 
0.425455 
0.491247 
0.293587 
-0.453092 
-1.496661 
-0.440269 
-0.164101 
0.052645 
0.256203 
0.855031 
0.094849 
-0.336070 
-0.594809 
-0.099599 
0.158215 
0.713343 
0.444699 
0.158272 
-0.306206 
0.780877 
-0.534423 
3.224113 
0.340790 
1.087698 
0.249946 
5.502798 
3.583649 
1.209432 
0.579831 
-0.288308 
0.452345 
-0.595609 
-0.484350 
0.071273 
0.120240 
-0.355173 
-0.982010 
-0.460782 
-0.234524 
0.355111 
0.383757 
0.069216 
0.615709 
0.713835 
-0.005172 
-0.678191 
0.033753 
-0.271740 
-0.308348 
-0.132341 
0.743822 
0.195211 
0.665273 
-0.670937 
-3.861739 
0.568460 
-2.069274 
-2.423487 
-5.922478 
-11.547367 
-0.809836 
0.117722 
-1.007869 
-0.131474 
0.617834 
-0.265592 
-0.533575 
1.479675 
0.412107 
0.367927 
2.928502 
0.029531 
0.520433 
0.828839 
-0.064455 
0.149022 
-11.186647 
0.603107 
-4.677357 
-6.350296 
-13.542375 
-25.711998 
-0.508979 
-0.953492 
-1.761124 
0.171056 
0.493790 
-0.853587 
-0.146001 
0.160451 
0.432210 
0.133244 
-0.361480 
-0.109105 
0.417037 
-0.214194 
-0.518204 
0.050414 
2.008393 
-0.509115 
2.247220 
2.551232 
2.516925 
8.689536 
0.186413 
0.758792 
0.472097 
-0.208930 
0.078414 
0.044016 
-0.691397 
-0.100395 
0.192218 
0.296453 
-0.143248 
-0.491871 
0.050262 
0.149950 
0.451857 
-0.531177 
-0.081651 
0.250000 
-0.263933 
0.386892 
-0.262559 
-0.061327 
-0.853226 
-0.131912 
0.097139 
0.131941 
0.241308 
-0.797084 
-0.526836 
0.254669 
-0.064962 
0.363592 
-0.179315 
-0.597706 
-0.068004 
-0.200038 
0.588355 
0.374521 
0.151667 
0.756533 
0.031571 
-0.792282 
-0.064709 
0.184867 
0.077101 
0.100072 
0.070505 
-0.033722 
0.539419 
-0.022599 
-0.263989 
0.192533 
0.188381 
0.321766 
0.097622 
0.764859 
-0.241832 
0.004191 
