0.509262 
-0.462783 
0.251106 
0.474837 
-0.557604 
-0.369884 
-0.348827 
-0.036164 
0.152165 
0.608234 
0.077487 
-0.774865 
-0.362102 
-0.003174 
0.039399 
-0.125767 
0.719810 
-0.291482 
-0.468917 
-0.109745 
-0.504595 
0.121189 
0.736957 
-0.053127 
0.278913 
-0.339589 
-0.776116 
0.227613 
0.071024 
-0.143651 
-0.334253 
-0.263194 
-0.485641 
-0.039626 
0.021744 
0.311467 
0.294043 
-0.030430 
-0.768846 
0.495061 
0.265999 
0.344681 
0.529936 
0.049920 
-0.439441 
-0.229956 
-0.043995 
-0.450455 
-0.021347 
0.174631 
-0.332681 
0.651540 
0.077488 
0.437941 
-0.226966 
-0.522050 
0.285653 
0.115696 
0.149113 
0.158238 
-0.618488 
0.554064 
-0.413923 
-0.670827 
0.471347 
-0.594226 
0.743349 
-0.066409 
0.000617 
0.003495 
-0.105980 
-0.478129 
-0.371129 
0.552721 
0.156081 
0.143254 
0.768395 
-0.019837 
0.170904 
0.593463 
0.013799 
-0.258370 
0.314066 
0.300516 
-0.541612 
0.285440 
0.314215 
-0.369182 
-0.283750 
-0.611414 
-0.047616 
-0.381901 
0.209207 
0.084074 
0.636839 
-0.194983 
0.376707 
0.464744 
-0.190680 
0.045441 
-0.019578 
-0.339011 
0.190762 
-0.145940 
0.004325 
0.342236 
0.769341 
-0.268331 
-0.781992 
-0.106052 
0.757798 
-0.410705 
0.081114 
0.030296 
0.721285 
0.570528 
-0.804687 
-0.484725 
-0.718274 
-0.422242 
0.250771 
-0.462729 
-0.570634 
0.259792 
0.757159 
0.727896 
-0.195038 
0.700668 
-0.179571 
-0.268800 
-0.353455 
0.387280 
0.827235 
-0.350932 
0.822748 
0.516678 
-0.793207 
0.811762 
0.316514 
0.041932 
-0.025817 
0.891324 
-0.096866 
-0.030915 
0.465102 
0.440931 
0.342235 
0.167974 
-0.210700 
-0.020936 
0.081759 
-0.299722 
-0.216498 
0.567766 
0.460616 
0.647847 
0.464644 
0.890561 
0.412000 
0.440474 
-0.017090 
-0.169378 
-0.333628 
-0.307286 
0.074984 
-0.452669 
0.452926 
-0.513486 
-0.029218 
0.063130 
-0.287739 
0.307808 
0.077944 
0.323868 
-0.220374 
0.219428 
-0.527573 
0.794275 
-0.391583 
-0.160466 
-0.185949 
0.528336 
-0.537156 
0.570086 
0.068484 
-0.251656 
0.123240 
-0.508867 
0.031202 
-0.051532 
0.675569 
-0.412181 
0.201778 
-0.607978 
0.282632 
-0.342861 
0.407186 
-0.789544 
-0.183829 
-0.173963 
-0.662674 
0.397279 
-0.119503 
-0.255783 
0.584036 
-0.457198 
-0.457520 
0.824472 
0.386303 
-0.378082 
-0.068093 
0.311723 
-0.141692 
0.018884 
0.094721 
-0.026607 
-0.105228 
-0.887916 
-0.744302 
-0.178930 
0.204254 
0.166869 
0.491418 
-0.502064 
0.632893 
-0.119866 
-0.090652 
0.046999 
-0.074176 
-0.505741 
-0.625050 
0.277692 
-0.379928 
0.319638 
0.728485 
-0.432714 
0.483012 
-0.073175 
-0.626148 
0.227870 
-0.492547 
0.510178 
0.715314 
0.272738 
0.173598 
0.271151 
-0.231416 
-0.155383 
0.081706 
-0.135761 
-0.247309 
-0.076979 
0.077689 
-0.000038 
0.299239 
-0.261136 
-0.202189 
-0.034624 
-0.024869 
0.599054 
-0.374577 
0.257755 
-0.054051 
0.084453 
-0.049786 
-0.392389 
-0.901501 
0.092970 
0.829868 
-0.224853 
-0.582523 
-0.094873 
-0.942030 
-0.944044 
0.415742 
-0.440671 
0.699576 
0.172796 
-0.243782 
0.273072 
0.259201 
-0.165640 
