0.194403 
0.140019 
-0.620258 
-0.072573 
0.817652 
0.557665 
0.475478 
-0.617206 
0.323679 
-0.656850 
-0.312571 
0.135380 
-0.236946 
-0.142308 
0.422895 
0.256539 
0.434858 
-0.300638 
-0.779595 
-0.000183 
0.277322 
0.218635 
-0.609424 
0.566607 
0.758446 
0.533982 
0.156529 
0.371502 
0.266732 
0.047731 
0.294687 
-0.191748 
0.001648 
0.461379 
-0.724784 
-0.484848 
-0.635701 
0.291421 
-0.097110 
0.140843 
-0.151860 
-0.115024 
0.457472 
-0.390362 
0.429518 
-0.064791 
0.334483 
-0.112339 
0.458266 
-0.502762 
0.185766 
0.247932 
0.048402 
-0.496384 
-0.439772 
0.036225 
-0.031220 
-0.220161 
0.044313 
-0.063173 
0.033601 
-0.439772 
-0.097354 
-0.262062 
-0.006836 
-0.496658 
0.218696 
0.597461 
-0.075686 
0.207740 
-0.464492 
-0.191595 
0.121311 
0.227454 
-0.003815 
0.064852 
0.486282 
-0.412183 
-0.015534 
0.227241 
0.419813 
-0.199103 
0.265572 
0.588214 
0.211768 
0.381298 
-0.373478 
-0.361919 
-0.068301 
0.861568 
0.017180 
0.330651 
-0.180338 
0.308020 
0.190397 
-0.151311 
0.176733 
0.336253 
0.842982 
-0.130436 
0.755516 
-0.373150 
0.256203 
-0.669118 
-0.349040 
-0.059053 
0.436445 
0.696219 
-0.308908 
0.635823 
-0.244270 
-0.279519 
-0.672719 
-0.319376 
0.092563 
-0.284036 
0.025178 
0.171941 
0.472304 
0.317515 
0.155065 
-0.650624 
0.207984 
-0.251656 
-0.617267 
0.111332 
0.540849 
-0.414197 
0.560137 
0.030396 
-0.219123 
0.026856 
0.115604 
-0.130863 
-0.052278 
0.653584 
0.944975 
-0.404279 
-0.089022 
-0.300974 
-0.198126 
-0.100449 
0.031037 
-0.187170 
-0.811457 
0.206793 
0.299591 
-0.673452 
-0.253548 
0.195925 
-0.019684 
0.019745 
0.146574 
-0.186254 
0.749565 
-0.614856 
0.480667 
-0.209477 
0.336703 
-0.605399 
0.151175 
0.656087 
0.665273 
-0.235420 
0.262490 
0.254891 
-0.507065 
0.721763 
-0.488968 
-0.237831 
0.552751 
0.268685 
0.576403 
-0.800684 
0.193243 
-0.050539 
0.011444 
-0.550432 
0.519486 
0.115329 
-0.366619 
-0.226478 
0.033418 
0.690237 
0.414228 
-0.175187 
-0.225379 
0.436475 
-0.128790 
0.165987 
-0.039127 
0.720476 
-0.042214 
0.283626 
0.128849 
-0.221839 
0.453963 
-0.895627 
0.774621 
0.480789 
-0.142918 
0.010559 
0.494400 
-0.399579 
-0.227577 
0.355510 
-0.374920 
0.575762 
-0.196326 
0.479446 
0.385022 
-0.222480 
-0.056124 
0.225043 
0.514420 
0.274117 
-0.534379 
-0.046937 
-0.583911 
0.097507 
0.312204 
0.057924 
0.796197 
0.008576 
-0.012360 
-0.016663 
-0.195471 
-0.237220 
-0.052187 
0.738029 
-0.324412 
-0.124088 
-0.509140 
-0.088809 
-0.131169 
-0.110385 
0.147801 
0.188299 
-0.290567 
0.137059 
0.573138 
0.366619 
0.529038 
0.008454 
-0.064394 
-0.129185 
0.306101 
-0.283181 
-0.191260 
-0.231300 
-0.193304 
-0.436354 
0.561449 
0.286691 
0.225349 
-0.295694 
0.248634 
-0.174444 
0.325083 
-0.586169 
0.001923 
-0.524003 
0.078677 
-0.147465 
-0.079775 
0.034364 
-0.191137 
0.331584 
-0.539659 
-0.481918 
0.829157 
0.078585 
-0.672414 
0.181433 
0.584338 
0.503464 
-0.133518 
0.031159 
0.291269 
-0.036317 
-0.048708 
-0.157964 
0.079348 
0.030213 
0.376751 
0.672597 
-0.368786 
-0.747032 
0.748528 
0.880612 
0.323344 
0.426649 
-0.125980 
-0.361248 
-0.133335 
0.355907 
-0.347056 
-0.049562 
-0.552751 
0.121555 
0.467879 
0.165166 
0.366924 
-0.154271 
0.074892 
-0.005768 
0.183713 
-0.042177 
-0.005707 
-0.973693 
0.352794 
-0.040108 
-0.598895 
0.743431 
-0.633229 
-0.307535 
-0.484054 
0.035890 
-0.603412 
0.099918 
0.495163 
0.218696 
0.432081 
0.496475 
-0.178045 
-0.453536 
-0.077609 
0.331370 
0.196875 
0.229713 
-0.083102 
0.454909 
-0.071810 
-0.050172 
0.705679 
-0.116214 
-0.177190 
-0.124760 
-0.039979 
0.066897 
-0.423170 
-0.823298 
-0.626606 
0.650899 
0.666097 
0.043123 
-0.198187 
-0.254280 
-0.263192 
-0.803034 
-0.095645 
0.690451 
0.496353 
-0.089785 
-0.715842 
0.318613 
0.103580 
0.519608 
0.128666 
-0.275826 
0.059786 
-0.557573 
0.350566 
0.526933 
-0.400922 
-0.307566 
0.228126 
-0.361980 
-0.420820 
-0.105136 
-0.453963 
-0.474044 
-0.128056 
0.802637 
-0.764000 
-0.018097 
-0.746086 
0.311533 
0.517289 
0.385327 
-0.202796 
-0.023804 
-0.462752 
0.469802 
0.759911 
0.025513 
-0.487686 
-0.411573 
-0.023347 
-0.121677 
0.368297 
-0.520310 
0.749535 
0.159062 
-0.118961 
-0.467116 
0.238441 
-0.786767 
0.317148 
-0.446181 
0.351878 
0.123417 
0.574633 
0.030396 
-0.862606 
0.224281 
-0.176611 
-0.101718 
0.672506 
0.118870 
-0.354045 
-0.193426 
-0.545061 
0.193731 
0.678152 
0.883389 
0.293619 
0.634877 
-0.250526 
0.001251 
0.698996 
-0.056978 
-0.475906 
0.543290 
0.773888 
-0.050264 
-0.358867 
0.668264 
-0.396008 
-0.667379 
0.355571 
0.076479 
0.148595 
0.631123 
-0.321482 
0.275430 
0.631062 
0.762108 
0.018313 
0.345378 
-0.570452 
0.035492 
0.320718 
0.204782 
-0.532244 
-0.330030 
-0.290237 
0.376385 
-0.894742 
-0.191473 
0.628376 
0.252327 
-0.471633 
0.033998 
0.478897 
-0.139866 
-0.359355 
-0.615131 
0.763787 
-0.871853 
0.453597 
-0.129154 
0.726157 
0.651296 
-0.022797 
0.488357 
-0.509384 
0.956420 
-0.389325 
0.736320 
-0.296365 
0.268380 
0.033021 
-0.368297 
0.674337 
0.775292 
-0.406415 
0.225257 
0.014985 
0.394238 
0.202795 
0.616901 
-0.218146 
0.037049 
-0.277322 
0.471603 
0.115452 
-0.624378 
-0.142308 
0.034761 
0.381603 
0.108005 
-0.455000 
-0.351787 
0.811731 
0.723533 
-0.154485 
-0.234596 
-0.356334 
0.768670 
0.334147 
0.467299 
-0.237831 
0.612720 
-0.009369 
-0.522172 
-0.160375 
0.713340 
-0.409864 
0.679861 
-0.023377 
0.382214 
-0.406140 
0.130253 
-0.157323 
0.050630 
-0.460311 
0.576067 
0.316630 
0.035127 
-0.067202 
-0.530259 
-0.372478 
0.803156 
-0.363872 
0.485122 
-0.004883 
0.738548 
-0.238655 
-0.467391 
-0.229530 
0.407483 
0.059206 
-0.724723 
0.076693 
0.323649 
-0.189825 
0.144228 
-0.050600 
-0.785730 
-0.784753 
-0.145969 
-0.022464 
0.785668 
0.286417 
-0.581102 
0.443709 
-0.011536 
-0.762749 
-0.332286 
-0.034761 
-0.216132 
0.373791 
0.260109 
-0.365642 
-0.591235 
-0.515275 
0.201758 
0.659169 
0.141667 
-0.267464 
-0.139683 
-0.496078 
-0.431898 
0.043672 
0.480728 
-0.469955 
0.346507 
-0.000488 
0.201117 
0.136479 
0.473495 
0.226783 
0.568224 
0.400372 
0.049806 
0.288217 
-0.446852 
0.217750 
0.545854 
0.073183 
0.066897 
-0.055971 
0.567187 
-0.311563 
-0.023896 
0.534928 
0.120304 
-0.151402 
-0.381512 
0.186590 
-0.621815 
-0.233161 
-0.181280 
-0.523270 
-0.053987 
0.545457 
0.403821 
0.005036 
0.626606 
0.066469 
0.218848 
0.533708 
0.686178 
0.382488 
-0.357372 
-0.371899 
0.620045 
0.606983 
0.603351 
-0.202399 
0.418073 
-0.694815 
0.093936 
0.135929 
0.330363 
0.384594 
0.188147 
0.461989 
0.133000 
0.485611 
0.555712 
-0.039735 
-0.106540 
-0.127903 
0.478256 
-0.678213 
0.236396 
0.822260 
-0.635121 
-0.615528 
0.109226 
0.518845 
0.767754 
0.273812 
0.047700 
-0.559801 
-0.102359 
0.043489 
-0.058351 
-0.749352 
-0.360240 
-0.183935 
-0.699576 
0.191198 
0.069155 
-0.576373 
0.018756 
-0.029908 
-0.533555 
0.548357 
-0.357830 
0.153500 
-0.166388 
-0.636982 
0.132751 
0.056124 
-0.090823 
-0.328074 
0.134587 
0.131871 
-0.315744 
-0.448805 
-0.260292 
-0.135624 
0.418134 
-0.510361 
-0.246651 
0.157720 
0.153539 
0.029298 
-0.540086 
0.226997 
-0.267251 
-0.094028 
-0.111698 
-0.011017 
0.312815 
-0.309977 
0.577715 
-0.047334 
-0.618580 
-0.073122 
0.843196 
-0.389904 
0.272561 
0.777673 
-0.458663 
0.326731 
0.181768 
0.159886 
0.335948 
-0.267800 
-0.317728 
-0.612049 
0.463363 
-0.389050 
0.740287 
0.314097 
-0.001495 
0.292886 
0.230628 
-0.031556 
-0.379803 
0.543840 
-0.047426 
-0.299844 
-0.123081 
-0.043672 
0.145238 
-0.182104 
-0.047578 
-0.159795 
0.503372 
-0.269662 
-0.068728 
-0.386731 
-0.307169 
-0.413038 
-0.435377 
-0.308267 
-0.633625 
-0.581530 
0.535722 
-0.118961 
-0.320780 
-0.222358 
-0.774529 
0.266427 
-0.695517 
-0.120151 
-0.021607 
0.603504 
-0.050783 
-0.756401 
-0.132206 
0.208960 
0.369579 
-0.168584 
-0.038331 
-0.648946 
0.886776 
0.690085 
0.088290 
0.140538 
-0.597491 
0.091617 
-0.898190 
-0.079226 
-0.085177 
0.173772 
-0.352153 
-0.841090 
-0.466659 
0.080569 
0.429273 
-0.163823 
-0.004608 
0.603046 
-0.028565 
0.338542 
-0.318827 
0.319803 
-0.111606 
-0.152654 
0.129643 
0.237739 
-0.351970 
0.230201 
0.054079 
-0.067476 
-0.162175 
-0.568987 
-0.142338 
0.189337 
-0.069369 
0.361370 
-0.350780 
0.143468 
0.550098 
0.290475 
0.758751 
-0.079104 
-0.763634 
-0.263859 
-0.247047 
-0.221076 
-0.288155 
-0.144566 
-0.048860 
-0.253120 
0.646504 
-0.664937 
-0.559465 
-0.233253 
-0.076205 
-0.217719 
0.592212 
-0.666494 
-0.593829 
0.615345 
0.076393 
-0.363689 
0.200720 
0.454054 
-0.621723 
0.198558 
-0.575274 
0.010622 
-0.186161 
0.018708 
-0.528581 
0.480148 
0.044984 
0.211127 
0.775506 
0.431196 
0.095553 
0.146397 
0.078829 
0.196600 
0.866756 
0.092105 
0.195959 
-0.236091 
0.152959 
0.353496 
0.279885 
0.166143 
0.157201 
0.913938 
-0.412427 
-0.627796 
-0.493240 
0.575672 
-0.254402 
0.677908 
-0.231025 
-0.399548 
-0.484113 
-0.403973 
0.466659 
-0.149845 
0.061129 
0.247566 
0.593829 
-0.572710 
0.710532 
0.251869 
-0.368664 
-0.184276 
0.225531 
0.117523 
0.062536 
-0.478561 
0.565203 
0.132877 
0.388745 
-0.787194 
0.152008 
0.756676 
0.644978 
-0.638417 
-0.362468 
-0.491348 
0.415601 
-0.616718 
0.167908 
-0.639668 
0.349956 
0.277932 
0.149452 
-0.374584 
-0.822077 
-0.229413 
0.514512 
0.350627 
0.225588 
-0.047796 
0.486801 
0.206035 
0.430769 
0.419843 
0.847224 
-0.123993 
0.858852 
-0.082282 
-0.300577 
-0.050260 
0.718162 
0.477615 
0.735466 
-0.688345 
-0.124237 
0.059446 
0.001368 
0.032437 
-0.126840 
0.692068 
0.162811 
-0.240735 
-0.558428 
0.113741 
-0.729301 
-0.393323 
0.518082 
-0.087104 
0.026862 
0.547075 
-0.239443 
0.168681 
-0.450484 
-0.698599 
0.564104 
-0.408521 
0.639210 
-0.270150 
-0.424085 
0.163788 
-0.456008 
-0.277718 
