-0.415510 
0.053041 
0.721854 
-0.301370 
0.123417 
-0.210242 
-0.356670 
-0.576098 
-0.149358 
-0.054994 
-0.155828 
0.277718 
0.262856 
0.019898 
0.116214 
-0.082308 
0.060305 
0.348247 
-0.256081 
-0.564379 
-0.153101 
0.424299 
-0.542747 
-0.064992 
0.348196 
-0.271092 
-0.114488 
0.610170 
0.081700 
0.068880 
0.512094 
0.337644 
-0.390454 
0.385767 
0.124085 
0.695215 
-0.805389 
0.091460 
0.758077 
-0.361372 
-0.006653 
-0.089258 
0.176258 
0.499741 
-0.145125 
-0.805581 
-0.199200 
0.601310 
-0.590994 
0.746509 
0.168455 
0.316965 
-0.170992 
0.159185 
-0.111789 
0.660512 
0.023225 
0.638264 
0.093387 
-0.638508 
0.337901 
0.331339 
-0.605976 
-0.557085 
-0.239570 
0.156224 
0.330638 
0.299174 
0.622396 
0.128694 
0.326769 
-0.725571 
0.802831 
0.190771 
0.142552 
-0.253473 
-0.568865 
-0.460655 
-0.171983 
-0.323056 
0.102630 
0.454316 
0.176425 
-0.253954 
0.520676 
-0.379559 
-0.326590 
-0.135380 
-0.178151 
-0.027338 
-0.045266 
0.310168 
0.155619 
0.002503 
-0.236552 
0.251442 
-0.049026 
-0.398267 
-0.608264 
-0.120865 
-0.392989 
-0.617700 
-0.355979 
-0.056013 
-0.306495 
0.512193 
0.281899 
0.852499 
0.651855 
0.030061 
-0.015005 
0.243171 
0.017872 
-0.315833 
-0.200137 
0.063782 
0.087832 
0.285257 
0.094058 
0.122536 
0.157384 
-0.545916 
0.000885 
-0.712236 
0.170393 
0.054377 
0.403327 
-0.155005 
0.095614 
-0.056197 
0.344278 
-0.219337 
0.300345 
0.327212 
-0.004123 
0.245857 
0.078786 
-0.402657 
-0.865680 
0.686453 
0.192311 
-0.355846 
0.063540 
-0.594470 
0.108127 
-0.306558 
0.086186 
-0.366100 
-0.301737 
-0.370403 
0.447249 
0.116184 
0.445324 
-0.173620 
-0.208443 
-0.812832 
0.144716 
0.474441 
0.116092 
0.350414 
0.108097 
-0.590655 
0.222877 
-0.644309 
-0.133702 
0.439984 
0.672352 
-0.222238 
-0.627491 
-0.823695 
-0.763848 
0.094119 
-0.294565 
-0.642079 
-0.149144 
0.263161 
-0.727683 
-0.318339 
0.070345 
-0.197546 
-0.487686 
-0.869778 
0.019532 
-0.633259 
0.099246 
-0.206008 
-0.152898 
0.824555 
0.643201 
0.226326 
-0.327801 
-0.156727 
-0.098286 
0.224101 
0.070986 
-0.044151 
0.452341 
0.197455 
-0.042787 
-0.860305 
-0.019805 
-0.049730 
0.127157 
-0.075377 
-0.148102 
-0.852138 
0.137121 
-0.096507 
-0.574389 
0.878775 
0.786398 
-0.087376 
-0.322045 
0.263006 
-0.900883 
-0.498950 
0.533280 
0.107107 
-0.287423 
0.066103 
0.367745 
0.298467 
-0.115366 
-0.564160 
0.393238 
0.620336 
-0.073648 
-0.067873 
0.273291 
0.076083 
0.155370 
-0.050081 
-0.655995 
-0.278756 
-0.648274 
0.037019 
-0.683096 
-0.009400 
0.709555 
0.472213 
0.503491 
-0.454324 
0.267993 
-0.679323 
-0.611265 
-0.471577 
-0.020430 
-0.853026 
0.142011 
0.462808 
-0.090802 
-0.218685 
-0.045621 
-0.318663 
0.544858 
0.242306 
0.476409 
0.836716 
-0.149856 
-0.340789 
-0.535161 
