-0.133549 
-0.049165 
0.574725 
0.111759 
-0.490860 
0.551805 
-0.353862 
0.530961 
-0.420209 
-0.318888 
-0.436628 
-0.620502 
-0.128819 
0.005219 
-0.894284 
-0.296945 
0.075106 
0.280862 
-0.134342 
-0.135929 
0.735252 
-0.066622 
0.451521 
0.370098 
-0.299448 
0.134526 
0.191076 
0.201788 
0.078402 
0.380871 
-0.665609 
-0.358898 
-0.312632 
-0.428266 
-0.242897 
0.599322 
0.010712 
0.587542 
0.163757 
0.445357 
-0.350616 
0.367699 
-0.210954 
0.334000 
-0.725086 
0.488721 
-0.394909 
0.032490 
-0.916933 
-0.757622 
0.019582 
0.252012 
-0.253381 
0.214091 
-0.916745 
0.472473 
-0.131660 
0.361827 
-0.810053 
-0.727866 
-0.065468 
0.591260 
-0.718692 
0.156796 
-0.232623 
-0.163180 
-0.451237 
-0.118177 
0.479354 
-0.360607 
-0.361766 
0.292367 
-0.074831 
-0.776452 
0.352184 
-0.360637 
-0.344523 
0.075991 
-0.147374 
-0.586291 
0.369854 
0.023804 
-0.635243 
-0.326792 
-0.130253 
-0.187506 
-0.620106 
-0.129185 
-0.491411 
0.184332 
0.360532 
-0.815257 
0.165838 
0.451992 
-0.068811 
0.332054 
-0.359735 
-0.402631 
0.612518 
-0.064150 
-0.296059 
-0.191007 
-0.014836 
-0.701036 
0.446745 
0.600852 
0.417608 
-0.226818 
0.299486 
0.368999 
-0.737771 
-0.427968 
-0.527671 
0.473120 
0.565203 
0.104151 
-0.106634 
-0.170893 
0.255440 
-0.208411 
-0.329356 
-0.046327 
-0.139042 
0.409009 
0.049593 
-0.422559 
-0.293954 
-0.093661 
-0.205297 
0.705252 
-0.394448 
-0.273719 
0.453996 
0.100376 
0.110649 
0.683786 
-0.760690 
0.850124 
0.147455 
0.211829 
0.503403 
-0.030919 
0.250923 
0.237425 
-0.064930 
0.452242 
-0.715340 
0.521622 
-0.393078 
0.365642 
0.623920 
-0.538530 
0.383251 
-0.978668 
-0.138859 
-0.571337 
-0.113071 
-0.443220 
0.012421 
0.595782 
-0.047700 
0.011841 
-0.781060 
-0.735313 
-0.421735 
-0.092471 
-0.049501 
0.694968 
0.381359 
0.323832 
-0.291452 
-0.568346 
0.548845 
0.478042 
0.229652 
0.133732 
-0.707999 
-0.197333 
-0.812412 
-0.098148 
-0.200960 
0.523656 
0.399072 
0.105423 
-0.311201 
-0.261071 
0.523139 
0.717887 
-0.037233 
-0.004395 
0.266884 
0.129917 
0.459181 
-0.631245 
0.087771 
0.492660 
-0.194220 
0.039613 
0.397259 
0.538224 
-0.126865 
0.373272 
0.263161 
-0.090609 
-0.272622 
0.497238 
0.613361 
-0.012299 
0.083651 
-0.620930 
-0.061373 
0.221625 
0.259285 
0.405164 
0.495926 
-0.045412 
-0.373424 
0.458144 
0.008056 
-0.246773 
-0.434004 
-0.504734 
0.883102 
0.233110 
-0.080285 
-0.373237 
-0.115703 
0.398358 
-0.036326 
0.695639 
0.373016 
-0.552140 
-0.231608 
0.364058 
-0.021542 
0.124721 
-0.666003 
-0.371893 
-0.184800 
-0.473739 
0.849130 
0.032989 
0.200395 
-0.543363 
-0.223846 
0.111082 
0.827180 
0.231006 
0.234043 
-0.469680 
0.488915 
0.010632 
-0.014505 
-0.343811 
-0.723960 
-0.361278 
-0.124993 
-0.360179 
-0.768161 
-0.041627 
-0.221199 
-0.032794 
-0.227828 
0.580219 
0.096714 
-0.398697 
0.002769 
-0.455422 
0.641251 
0.472671 
0.252251 
0.476144 
0.128044 
-0.380488 
0.638510 
-0.413847 
0.139860 
-0.256386 
0.308481 
0.162694 
-0.445387 
0.307138 
0.121555 
-0.031424 
-0.487716 
0.084750 
0.858943 
0.066561 
-0.143014 
0.257118 
-0.074947 
0.146316 
0.112562 
-0.045220 
0.562642 
0.367379 
-0.083522 
0.491407 
0.531053 
-0.344829 
-0.047884 
-0.367962 
0.335459 
0.563555 
0.458388 
-0.019379 
-0.084414 
-0.416608 
0.142084 
0.403943 
-0.145580 
-0.021488 
-0.373482 
0.149823 
0.072150 
0.101911 
-0.566932 
0.377209 
0.031318 
0.260268 
0.406100 
0.345688 
-0.486658 
-0.037543 
0.744835 
-0.199411 
-0.365469 
0.817129 
0.232731 
0.343930 
-0.312995 
-0.055313 
-0.431515 
0.693593 
0.494607 
0.529711 
0.365168 
-0.037688 
-0.318591 
0.406828 
-0.424453 
0.208004 
0.363298 
-0.115013 
-0.534532 
0.393061 
0.489458 
-0.127997 
0.052364 
