-0.001679 
-0.804285 
-0.415113 
-0.011475 
-0.752739 
0.851344 
0.531083 
0.729820 
0.264107 
-0.077456 
0.762169 
-0.069033 
-0.520463 
0.317392 
-0.269356 
0.195563 
0.106082 
-0.020661 
0.209815 
0.014130 
0.272462 
-0.284249 
-0.263772 
0.825813 
-0.957980 
0.243706 
-0.370811 
0.697469 
0.192871 
0.428938 
0.272220 
0.057778 
-0.291574 
-0.219462 
-0.707519 
0.045801 
0.054407 
0.139941 
-0.144506 
-0.603255 
0.083316 
-0.419659 
0.475976 
-0.486068 
-0.216773 
0.349353 
0.407216 
0.960622 
-0.877425 
-0.412194 
-0.561161 
0.042726 
-0.297912 
0.203471 
0.060152 
0.031356 
-0.131891 
-0.178508 
-1.974259 
0.004431 
0.052794 
0.387177 
-0.304117 
0.108805 
-0.644233 
-0.880764 
-0.594806 
-0.052944 
0.040365 
0.527933 
0.542547 
-0.514335 
-0.052151 
-0.102603 
0.450301 
-0.822847 
0.376141 
0.065805 
0.057952 
-0.320194 
-0.263516 
-0.812925 
-0.090440 
-0.419973 
0.457259 
0.629054 
0.718069 
0.447676 
0.205086 
-0.090482 
-0.224661 
-0.398703 
0.591391 
0.072994 
-0.715861 
0.682516 
0.097449 
0.774554 
0.184942 
0.232899 
-0.683898 
-0.306017 
0.082972 
0.461312 
0.551374 
-0.007135 
-0.258950 
-0.446420 
-0.523184 
-0.466231 
-0.608778 
0.018255 
-0.571167 
0.345071 
-0.508215 
0.120520 
-1.488776 
0.060121 
0.237364 
0.083064 
-0.136692 
-0.073925 
0.017415 
0.061502 
0.021698 
0.477743 
-0.321296 
0.209992 
0.107089 
-0.129030 
-0.143885 
0.491836 
-0.633703 
0.317190 
-0.053250 
0.120930 
0.414012 
-0.590551 
-0.739261 
0.219031 
-0.520583 
0.099284 
-0.352580 
0.337043 
0.020959 
0.346468 
0.121918 
-0.358408 
-0.019658 
0.324032 
0.156102 
-0.295891 
0.393598 
-0.203955 
-0.254148 
0.235330 
0.130147 
-0.535960 
-0.755746 
-0.105059 
-1.086066 
0.249000 
-0.065444 
0.662993 
-0.348064 
0.292986 
-0.116003 
-0.233514 
-2.314398 
-0.200088 
0.412983 
0.451540 
-0.107273 
-0.374788 
-0.207022 
-0.243080 
0.222494 
-0.164655 
-0.315581 
-0.499687 
0.521392 
0.565227 
-0.700383 
0.210944 
-0.304920 
-0.477898 
-0.228339 
0.288704 
-0.174260 
-0.372261 
0.119659 
0.410523 
0.579052 
0.324952 
-0.528977 
-0.562077 
0.505985 
0.067568 
0.105531 
-0.345455 
0.032063 
0.242861 
-0.142312 
-0.676423 
-0.974656 
0.776879 
-0.280552 
-0.230145 
-0.658467 
-0.044089 
0.708159 
-0.088985 
0.116103 
0.004542 
0.407985 
-0.559902 
0.197943 
0.005413 
-0.146374 
-0.704703 
0.020506 
0.815330 
0.053233 
-0.222059 
0.354303 
0.392777 
-0.131857 
-0.684835 
0.509415 
0.912794 
-0.571093 
0.109855 
0.109560 
0.695105 
-0.247342 
0.035834 
0.066350 
-0.442686 
-0.330515 
-0.308438 
0.597499 
0.193884 
-0.511909 
0.041276 
0.241624 
0.444519 
-0.194730 
-0.771627 
-0.341128 
0.296854 
-0.183263 
0.243883 
-0.366192 
-0.958658 
0.229577 
-0.432653 
-0.063432 
0.078319 
-0.690982 
-0.607521 
-0.085177 
-0.433314 
0.125631 
0.710624 
0.039615 
0.346685 
-0.845749 
2.222973 
0.383077 
0.104015 
-0.958130 
-0.103885 
0.056261 
-1.046501 
0.272225 
-0.517251 
-0.880351 
-0.163231 
-0.379710 
0.201951 
-0.596181 
-1.917137 
0.423109 
0.645144 
0.749838 
-0.435987 
-0.267366 
0.095098 
-0.112372 
0.031661 
-0.705708 
-0.057192 
0.450436 
0.661946 
0.241847 
-0.544583 
-0.168845 
0.672440 
0.479321 
0.023291 
-0.352927 
0.169759 
-0.414612 
-0.230041 
-0.078879 
-0.095818 
-0.636819 
-0.724152 
0.677762 
0.186910 
-0.159129 
-0.052767 
0.017116 
0.134951 
-0.539902 
0.135602 
-0.224531 
0.540812 
-0.471588 
-0.429449 
0.877163 
