0.183752 
-0.161657 
0.451979 
-0.573992 
-0.164769 
0.504410 
-0.767357 
0.591266 
0.136235 
-0.396863 
0.190100 
0.887387 
-0.524155 
0.792444 
-0.349895 
-0.096957 
0.058077 
0.064272 
-0.051180 
0.319224 
-5.528732 
-0.115567 
0.992603 
0.337686 
-1.103580 
27.182323 
3.436062 
3.954777 
8.333048 
-0.231880 
0.254837 
0.037243 
0.290506 
-0.520682 
-0.429448 
-0.143933 
-0.018884 
0.518147 
-0.037358 
-0.095599 
-0.310709 
0.573895 
5.659714 
-0.574904 
-1.567642 
-1.877997 
0.605667 
-33.716793 
-5.405389 
-5.437984 
-8.955829 
0.605579 
-0.350042 
-0.475549 
-0.235906 
-0.125637 
-0.407773 
0.856982 
-0.178668 
-0.154193 
0.014192 
-0.083326 
0.139409 
-0.004661 
3.674958 
0.742551 
-1.504653 
-1.521699 
-3.327692 
-28.969973 
-4.737537 
-4.643068 
-8.848361 
0.103366 
-0.079958 
0.215655 
0.025593 
0.517198 
0.765569 
0.423676 
-0.053188 
-0.052650 
0.002405 
-0.002278 
0.085665 
-0.126483 
-0.214459 
-0.568621 
-0.071570 
-0.302506 
-0.376864 
0.002581 
0.094187 
0.628193 
-0.513864 
-0.348460 
0.228093 
15.759130 
-0.475642 
6.940808 
7.617218 
20.281832 
4.249576 
-1.537623 
-2.090094 
-3.328794 
0.440809 
0.532857 
0.632799 
0.220466 
0.338184 
-0.766170 
-0.108452 
-2.098857 
-0.174985 
-0.227186 
-0.919164 
-0.831751 
0.260379 
0.533948 
0.458083 
-0.028138 
-0.849986 
-0.013150 
0.368161 
0.630473 
0.179437 
0.118400 
0.698172 
0.264656 
2.110618 
0.368881 
-3.603760 
-2.814508 
-3.243455 
-42.173172 
-4.484863 
-5.276792 
-9.723479 
-0.535356 
0.867617 
0.879873 
-0.282113 
0.200503 
0.351100 
0.333615 
-0.114258 
0.289362 
0.523741 
-0.490663 
-0.949553 
0.686215 
-24.991524 
0.154312 
-9.750529 
-11.895991 
-26.082933 
-11.028579 
2.502301 
3.765656 
6.444292 
0.211188 
0.408591 
-10.179730 
0.273970 
-7.460875 
-10.151787 
-27.706478 
-7.025605 
-1.196824 
-0.382293 
0.184922 
-0.452406 
0.186297 
-1.151411 
-0.113582 
0.302799 
-0.318663 
0.017053 
7.217160 
0.390126 
1.192179 
2.557776 
-0.119633 
-0.062454 
0.224523 
0.590655 
-0.109802 
-0.228434 
-0.121757 
0.775090 
0.422321 
0.337051 
0.620391 
0.668294 
-0.290476 
0.288224 
-0.328867 
0.087704 
0.076751 
-0.580746 
-0.440246 
-0.740270 
0.324284 
-0.375228 
0.041414 
-0.624004 
-10.067610 
0.184547 
-3.288497 
-4.102582 
-7.525403 
-3.112242 
2.281263 
1.447148 
2.024687 
-0.319132 
0.224587 
0.523002 
-0.486704 
-0.496382 
-0.393675 
-0.422228 
0.099937 
-0.043612 
0.894075 
-0.081327 
0.381146 
-0.790671 
0.692356 
0.013202 
0.060222 
-0.105366 
-0.780447 
-1.385772 
-0.953254 
-0.794841 
-0.610788 
0.168401 
-0.868031 
-0.868135 
-0.088334 
-0.607357 
-0.151383 
-0.177269 
0.115045 
0.051410 
0.621483 
-0.191598 
-0.153970 
-0.114840 
0.056144 
0.272292 
0.229947 
-0.680905 
-0.193841 
0.079182 
0.158324 
-0.171829 
-0.210550 
0.092243 
