-0.228797 
-0.212653 
-0.042207 
-0.268166 
-0.000122 
0.390362 
0.101596 
-0.208045 
0.248695 
0.312265 
0.355388 
-0.004364 
0.169195 
0.698538 
-0.441511 
-0.322153 
-0.192022 
0.249641 
-0.453139 
0.142918 
-0.148845 
0.174352 
0.715484 
0.833635 
-0.254299 
0.071419 
-0.801695 
0.241459 
-0.081831 
0.740287 
-0.830498 
0.581921 
-0.321451 
-0.086847 
0.332632 
-0.746759 
-0.893898 
-0.077362 
0.087229 
-0.795484 
-0.206275 
0.387650 
0.605181 
-0.275887 
-0.305499 
-0.672194 
-0.204966 
1.450206 
0.973466 
0.169289 
0.436645 
0.282754 
0.384963 
0.102398 
0.054354 
-0.126805 
-0.285065 
-0.552672 
0.109412 
0.110518 
0.006468 
0.222139 
0.496719 
-0.364444 
-0.960197 
-0.228012 
-1.047582 
-0.727040 
-0.354489 
-8.351851 
0.588085 
-0.080129 
-0.520609 
-0.745933 
0.197348 
1.278127 
-0.539635 
-0.614111 
-0.238247 
-1.364950 
7.551873 
0.651802 
2.058690 
3.698075 
0.592792 
-0.480638 
1.287239 
0.018088 
-0.981769 
-0.998340 
-0.874098 
4.696635 
2.467635 
2.203637 
3.192540 
-0.161870 
0.609028 
-5.127190 
0.843463 
-3.876575 
-3.560725 
-5.684811 
-7.656886 
3.487078 
2.999577 
3.946665 
0.622791 
-0.228995 
-1.857401 
0.262978 
0.903229 
0.580374 
1.075575 
-0.544108 
-1.648900 
-0.517098 
-1.488495 
0.188452 
0.717979 
-0.046898 
0.540696 
-0.057089 
0.936136 
0.249643 
-1.995155 
-0.811720 
-0.459835 
-0.618645 
-0.753502 
-0.177303 
-41.262386 
-0.058610 
-24.986853 
-28.946047 
-46.260311 
-59.521805 
18.956022 
22.086082 
31.760895 
-0.693228 
-0.258539 
-1.435267 
-0.353742 
-0.086192 
-0.456082 
-0.707911 
-0.719531 
0.136234 
0.314055 
0.237105 
0.203101 
-0.271891 
-0.570230 
0.295846 
0.616434 
0.088922 
-0.268862 
0.036934 
0.279201 
0.136217 
-0.438067 
0.054292 
-0.579507 
14.702061 
0.198914 
9.774164 
10.730721 
17.089941 
26.369837 
-7.894879 
-8.634345 
-11.370455 
0.591845 
-0.266103 
0.038984 
0.039339 
-0.102229 
0.004574 
-0.378400 
0.530995 
0.493829 
0.728787 
0.595556 
-0.829432 
0.310504 
-1.090111 
0.062380 
0.100665 
0.430715 
-0.280697 
-0.479933 
0.016593 
-0.803825 
-1.365442 
0.348125 
0.477925 
-15.000233 
-0.573953 
3.410455 
4.468893 
8.048576 
-33.274803 
-10.410315 
-12.550422 
-20.834198 
0.175573 
0.834536 
0.694851 
0.381664 
-0.273927 
-0.602590 
0.184581 
0.182700 
0.108396 
-0.131133 
0.568450 
-0.209937 
-0.454114 
1.193412 
-0.438978 
0.090827 
0.446663 
1.292698 
0.834448 
-0.609886 
-0.289825 
-1.001988 
0.029145 
-0.432676 
0.321981 
-0.522782 
0.213035 
-0.140884 
0.505617 
-0.206210 
-0.609377 
-0.510311 
0.512404 
0.110111 
0.293667 
0.392136 
-0.149876 
0.409775 
-0.504199 
0.133243 
0.128925 
0.658792 
-0.710144 
-0.177506 
0.423658 
0.457076 
6.458632 
0.065472 
3.826988 
3.303177 
6.894294 
6.032061 
-2.238425 
-2.484466 
-4.293324 
0.686911 
-0.205414 
-1.430603 
0.456498 
1.025248 
0.715482 
0.972898 
-3.697586 
-0.884417 
-1.399203 
-2.009971 
-0.415906 
0.093033 
-3.321691 
-0.328861 
2.227278 
1.614772 
3.441655 
0.846906 
-2.491910 
-3.276866 
-4.556204 
-0.907285 
-0.466378 
14.314583 
0.640249 
6.378429 
7.688479 
11.786757 
16.933401 
-4.242562 
-4.377470 
-7.516175 
0.451521 
-0.485441 
-0.324588 
0.110092 
-0.138032 
-0.423467 
-0.254981 
0.670800 
-0.210594 
-0.061514 
0.164847 
-0.346854 
-0.265265 
-0.344093 
-0.149436 
-0.606651 
0.095017 
-0.211605 
0.101385 
0.237403 
0.335556 
-0.172431 
0.114042 
-0.129402 
0.127939 
-0.172494 
-0.158518 
0.579675 
-0.728029 
0.258733 
-0.071475 
-0.887737 
0.246181 
0.612751 
0.250000 
-0.232832 
-0.549718 
0.018122 
-0.072485 
-0.240638 
0.100885 
0.174886 
0.078757 
-0.194606 
0.165321 
-0.363552 
-0.688186 
-0.376592 
0.481717 
-0.101454 
0.125000 
-0.336828 
-0.424032 
0.513055 
0.142014 
0.044804 
-0.261910 
-0.785074 
0.131403 
-0.201869 
-0.729518 
0.479454 
-0.082125 
-0.565840 
0.370671 
0.088276 
-0.490566 
0.634848 
-0.286154 
-0.280278 
-0.137243 
-0.376425 
0.689876 
-0.189475 
0.093235 
0.717477 
-0.306220 
0.396781 
0.209658 
-0.154009 
-0.082323 
0.304848 
-0.414440 
0.001167 
-0.163983 
0.014029 
0.169047 
-0.336159 
-0.692977 
-0.299159 
-0.157714 
-0.103392 
0.598250 
0.155325 
0.447157 
-0.350847 
0.108718 
-0.102400 
-0.063611 
-0.153324 
0.204223 
0.243094 
-0.017278 
-0.519099 
-0.967830 
-0.090475 
