0.361858 
-0.768273 
0.652791 
-0.900754 
-0.014954 
-0.660695 
0.171880 
0.289804 
0.430555 
-0.511032 
0.844142 
0.828455 
0.736686 
-0.067873 
0.087985 
-0.112339 
0.112155 
-0.546251 
0.125187 
-0.130955 
-29.157076 
-0.591392 
-14.845352 
-13.620256 
-2.772476 
-116.140282 
-0.262850 
-5.446502 
-24.263245 
0.173528 
0.272248 
0.890220 
-0.675156 
0.721587 
1.328087 
5.102655 
0.118762 
0.191073 
0.034778 
0.578789 
0.421461 
0.333540 
-2.049294 
0.396254 
-1.441561 
-0.815402 
-4.327582 
0.028975 
0.291620 
0.398185 
0.898140 
0.043458 
0.675148 
4.995873 
0.315017 
1.889585 
2.482176 
1.839468 
7.284685 
-1.552256 
-1.616894 
-3.814600 
0.121067 
-0.291436 
-21.436987 
0.345153 
-10.179543 
-9.968204 
-6.029485 
-39.911964 
4.071151 
4.718333 
9.575465 
-0.314035 
0.897820 
-0.843527 
-0.333542 
-0.388354 
-1.090289 
-0.169664 
-1.599010 
0.591054 
0.859879 
0.807119 
0.359416 
-0.267882 
-1.539404 
-0.576784 
-0.933526 
-0.553316 
-0.857771 
-2.097838 
0.222641 
1.243132 
1.756902 
-0.600726 
-0.203582 
-0.816302 
-0.461448 
0.479060 
0.470698 
0.069748 
0.049098 
0.421405 
-0.735709 
-0.456248 
0.443617 
0.119018 
-0.094424 
-0.179559 
-0.262689 
-0.005300 
0.061555 
0.658665 
0.519727 
-0.478302 
-0.174727 
0.151250 
0.249411 
-0.503051 
-0.573122 
0.135328 
0.468242 
0.122218 
-0.865969 
-0.017006 
-0.370572 
-0.118365 
-0.204566 
-0.669479 
-0.140138 
-0.053349 
-0.072838 
-0.511711 
-0.023457 
0.127006 
-0.335619 
-0.506015 
-1.078093 
0.151006 
0.458925 
-1.936491 
-0.037336 
-0.827245 
-0.636394 
0.068428 
-3.364825 
1.097444 
0.564726 
-0.695706 
0.245888 
0.050714 
-13.507301 
0.121541 
-9.385378 
-13.301624 
-35.449627 
1.321342 
3.228694 
4.713840 
10.373174 
0.209906 
0.526621 
-0.061402 
-0.030068 
0.475001 
0.404593 
0.082699 
2.915800 
-0.035669 
0.010235 
0.209361 
0.055818 
0.309987 
0.595517 
-0.059887 
-0.485403 
-0.393465 
-0.168890 
-2.077879 
-0.127507 
-0.357741 
-0.872532 
0.266457 
0.842364 
12.234413 
0.119966 
5.613008 
5.278302 
3.640968 
25.926771 
-3.698268 
-3.274709 
-3.478562 
0.038942 
-0.273400 
-0.275748 
0.476206 
-0.081616 
0.026918 
-0.248150 
-0.894256 
0.089659 
0.339793 
0.267026 
0.450209 
0.003817 
1.463109 
0.577257 
0.904585 
0.782266 
-0.289051 
12.208800 
0.844791 
1.828407 
4.602415 
0.160588 
0.056401 
0.051198 
0.185403 
-0.047395 
0.300188 
-0.210202 
-0.008318 
0.034956 
0.779350 
-0.271691 
0.059847 
0.219924 
1.318979 
-0.065737 
1.245610 
1.204420 
-1.067236 
6.685557 
-0.388753 
-0.138139 
0.002767 
-0.011444 
0.678199 
8.290812 
0.387442 
2.616127 
3.363930 
12.721727 
-0.423500 
1.930711 
1.587913 
1.123054 
-0.169866 
-0.180698 
6.429040 
-0.022144 
5.350160 
4.377566 
-0.968833 
38.971958 
-1.248172 
0.352152 
6.486303 
-0.629536 
-0.864550 
-16.868523 
-0.060091 
3.348463 
2.696766 
-4.066650 
-3.543858 
-14.051559 
-15.670197 
-20.904795 
-0.136723 
0.463232 
0.034753 
-0.522348 
0.537374 
-0.052831 
0.406852 
0.850651 
-0.182472 
0.074809 
-0.774109 
-0.287698 
-0.035771 
-0.642532 
0.642076 
0.055920 
-0.241110 
-0.202953 
-2.454986 
0.436509 
0.215919 
-0.288525 
0.599078 
-0.544706 
0.348720 
0.499775 
-0.510706 
-0.389681 
-0.174018 
-0.583629 
-0.788961 
-0.372348 
-0.201615 
0.232457 
-0.077706 
0.146112 
-0.144404 
0.120514 
0.572147 
-0.003319 
-0.332827 
0.807629 
-0.631649 
0.191121 
-0.763245 
0.633348 
-0.240011 
-0.693025 
0.396794 
-0.392816 
-0.269068 
-0.013231 
0.280219 
-0.288179 
-0.312021 
-0.351839 
-0.357843 
0.063120 
-0.265569 
-0.252070 
0.422569 
-0.360674 
0.123833 
-0.484970 
-0.309515 
-0.625643 
-0.249136 
0.022030 
0.719606 
-0.807734 
0.407523 
-0.557744 
0.211709 
-0.311474 
-0.176436 
0.235649 
-0.322282 
0.074787 
-0.143922 
0.222077 
-0.073996 
-0.414411 
-0.411949 
0.077053 
0.043719 
0.020749 
0.539007 
-0.540921 
-0.117420 
0.619225 
0.250489 
-0.733592 
-0.360043 
-0.276266 
-0.256747 
0.692273 
-0.381846 
-0.771565 
-0.012255 
-0.510454 
-0.478456 
0.356143 
0.363825 
-0.477827 
-0.350894 
0.491534 
0.140351 
-0.262718 
0.082138 
0.218646 
-0.199154 
0.084305 
0.318532 
-0.278581 
-0.288864 
-0.758400 
0.018126 
0.204028 
0.268019 
0.793291 
-0.071972 
-0.633074 
-0.762799 
0.899950 
-0.277959 
0.377754 
0.518034 
0.172052 
