0.425733 
0.225166 
0.007172 
-0.154454 
0.235328 
0.106052 
-0.899594 
0.485519 
0.010132 
-0.469344 
0.795556 
-0.086581 
0.225532 
0.057985 
-0.346171 
-0.036103 
-0.576373 
-0.151097 
0.655324 
0.237556 
-0.110960 
0.119632 
0.257107 
-0.218094 
-0.297151 
-0.081044 
0.048876 
0.382962 
0.189498 
0.459548 
-0.260812 
0.189627 
-0.396344 
-0.660935 
0.741129 
0.813702 
0.195730 
-0.378293 
-0.764949 
0.182616 
-0.271157 
-0.810813 
0.227991 
-0.078307 
0.543000 
0.097381 
0.017608 
0.023067 
-0.564145 
0.575514 
-0.550506 
-0.765984 
-0.204680 
0.630281 
-0.515829 
-0.010379 
-0.041660 
-0.238766 
-1.728639 
0.253830 
-0.228841 
-0.259830 
0.367840 
0.639821 
0.250561 
0.543870 
-0.007823 
-0.419788 
0.333546 
-0.086856 
-0.424889 
-0.362325 
0.534942 
-0.000580 
0.777965 
-0.176502 
0.148935 
0.040272 
-0.842711 
-0.133364 
-0.423582 
0.530338 
-0.002092 
0.868550 
0.153630 
0.177482 
0.342495 
-0.208991 
-0.148089 
0.044301 
-0.382121 
-0.127998 
0.429052 
-0.252160 
-0.469518 
0.798242 
-0.288735 
0.674966 
-0.085456 
0.149364 
-0.094238 
0.326293 
-0.410969 
0.077229 
0.099056 
0.265398 
-0.155339 
-0.635457 
0.957885 
0.462272 
0.216777 
0.558880 
0.193980 
1.454270 
0.600295 
-0.005579 
0.494863 
-0.026215 
0.152753 
-26.413193 
-0.172983 
4.600464 
6.087348 
9.150509 
-64.765709 
-9.588018 
-10.673962 
-19.169338 
-0.405347 
1.004001 
-1.067185 
0.463435 
-0.008168 
-0.633173 
-1.049838 
-0.148962 
0.710333 
0.256314 
-0.163462 
-0.373241 
-0.609437 
-0.452985 
0.481337 
0.767152 
0.194974 
0.412743 
-0.287842 
-0.658900 
-0.526001 
-0.129470 
0.366222 
0.807465 
2.252908 
-0.696783 
-0.808054 
-0.693190 
-0.927023 
3.845861 
0.536674 
0.592148 
1.248778 
-0.045381 
0.139794 
0.462737 
-0.588306 
-0.087124 
-0.481383 
0.324648 
-0.060351 
0.208334 
0.144420 
-0.197986 
0.414685 
-0.025444 
1.233985 
-0.153936 
-0.236008 
-0.719949 
-1.277808 
3.882058 
0.818622 
1.199576 
0.847141 
-0.651418 
0.024373 
-0.552302 
0.927207 
-0.815251 
-0.042918 
-0.827708 
-0.659224 
0.170502 
-0.021718 
0.765883 
-0.282723 
-0.138282 
0.492828 
-0.801233 
0.211097 
0.409463 
0.028526 
-0.878710 
0.538811 
-0.745564 
0.619820 
0.123844 
0.523367 
0.054303 
0.267160 
-0.012381 
-0.020422 
-0.718422 
-0.038324 
-0.154584 
0.167782 
0.112860 
0.222816 
0.216064 
0.237790 
-0.395550 
-0.063151 
0.789479 
0.737107 
-0.150945 
-0.710617 
0.400933 
0.344665 
-0.242897 
0.443958 
0.811979 
-0.047476 
0.308051 
-0.000420 
0.659097 
-0.023529 
-0.498895 
-0.068323 
-0.188831 
-0.203681 
0.427563 
-2.268078 
0.219218 
-0.638598 
-0.551713 
-0.441341 
-7.140115 
0.071003 
-1.153807 
-1.398713 
0.507523 
-0.438463 
3.076740 
-0.792998 
-1.107510 
-1.037406 
-1.977612 
13.265992 
1.776859 
1.146429 
3.486209 
-0.265664 
0.016724 
-0.341041 
-0.353213 
-0.411324 
0.146042 
-0.000574 
-1.320562 
-0.177285 
-0.283997 
-0.255069 
0.294687 
0.183386 
-36.171516 
0.323187 
-7.715630 
-8.399537 
-15.725519 
-32.795624 
-0.204830 
-0.191963 
-0.550610 
-0.274850 
0.218973 
2.184662 
0.106630 
0.260653 
-0.911915 
-1.464230 
3.237019 
0.842968 
1.390711 
2.252044 
-0.289682 
-0.313839 
0.070520 
-0.145420 
-0.925338 
0.208115 
-0.142371 
-0.361637 
0.620120 
0.159922 
0.459805 
0.129734 
-0.492482 
-0.167417 
0.108340 
0.275642 
-0.134547 
0.842759 
-0.965531 
-0.278473 
0.130514 
-0.796037 
0.036988 
-0.516137 
0.316830 
-0.513507 
-0.844742 
-0.029901 
-0.026326 
-0.699604 
0.304199 
-0.045470 
-0.504920 
-0.542161 
0.492109 
-0.035378 
0.510361 
-0.086636 
-0.147583 
-0.044181 
0.330801 
-0.119067 
-0.556087 
-0.295469 
0.150090 
-0.039763 
0.322338 
0.500931 
0.017392 
0.423198 
-0.935071 
-0.064786 
-0.778229 
-0.001734 
-0.466060 
-0.085696 
0.421458 
-0.340000 
-0.176471 
0.064019 
0.053530 
-0.510704 
0.194357 
0.397484 
0.603136 
-0.426647 
0.126388 
-0.276902 
0.654821 
-0.328179 
0.211273 
0.445091 
-0.656134 
0.185375 
-0.898482 
-0.051147 
-0.829055 
-0.090970 
0.286100 
-0.612528 
0.000543 
0.897752 
-0.405981 
-0.044470 
-0.645902 
0.232114 
-0.662215 
-0.149764 
-0.214972 
0.027789 
0.150958 
0.479280 
0.057816 
-0.004009 
0.049732 
0.307234 
-0.112616 
-0.050283 
0.260966 
0.278358 
-0.189099 
0.078604 
0.339610 
-0.458920 
-0.562487 
-0.144453 
-0.007852 
-0.220984 
-0.537469 
-0.367010 
0.031756 
0.036789 
-0.069701 
0.498623 
0.334729 
0.430265 
-0.090063 
0.708408 
-0.068159 
0.021784 
0.019092 
-0.542595 
0.761273 
0.202572 
-0.100574 
0.138833 
-0.156127 
-0.033091 
0.146373 
-0.594918 
-0.082956 
0.265848 
-0.621008 
0.781556 
-0.241273 
-0.054177 
0.435915 
-0.238937 
-0.219935 
0.115083 
0.601863 
0.482807 
-0.020949 
-0.019545 
-0.241006 
0.584677 
0.420879 
-0.255611 
0.211828 
-0.005070 
0.703093 
0.128441 
-0.339131 
0.816999 
0.412062 
0.246820 
-0.653903 
0.084344 
-0.526524 
-0.149481 
0.561429 
-0.230468 
-0.726802 
0.049051 
-0.496201 
0.309727 
0.772328 
0.438304 
-0.163865 
0.767965 
0.231948 
0.068864 
-0.522991 
-0.010347 
-0.722598 
0.086887 
0.199746 
-0.404012 
0.120366 
0.421851 
0.524045 
