-0.444899 
0.006439 
-0.117893 
-0.086825 
-0.003784 
0.052339 
0.040345 
0.604877 
-0.306589 
0.138493 
0.178838 
0.682638 
-0.063448 
-0.220588 
0.084750 
-0.363231 
-0.204810 
-0.492294 
0.707846 
0.421216 
-1.000616 
-0.610309 
-0.412636 
-0.042424 
-2.197109 
0.135703 
-0.014889 
-0.377395 
0.010747 
0.142155 
-0.211762 
-0.469836 
-0.055880 
0.404023 
0.873545 
-0.076772 
0.020412 
0.294420 
-0.125331 
0.005404 
0.460311 
-0.241384 
0.232999 
0.294778 
0.221885 
-0.066353 
0.105693 
0.847411 
-0.181751 
0.661697 
-0.527192 
0.323252 
0.428269 
-5.175414 
0.260746 
-1.217968 
-1.688320 
-0.820899 
-7.409460 
0.936058 
1.550741 
1.656870 
0.570025 
0.166927 
-0.112090 
-0.156500 
-0.039433 
-0.547753 
-0.074752 
0.452066 
0.313797 
0.168857 
0.200627 
0.013092 
0.434745 
0.811938 
-0.810022 
0.292808 
0.941477 
1.603084 
-0.023840 
0.937524 
-0.337731 
-0.581147 
-0.110935 
-0.674689 
0.203606 
-0.266793 
0.069174 
-0.175712 
0.096033 
-0.276622 
-0.583968 
0.274253 
0.272230 
0.181433 
-0.478809 
0.195967 
0.266761 
0.363894 
-0.083508 
-2.147327 
-0.249990 
0.191829 
-0.236276 
-0.177519 
0.260872 
-0.317510 
-14.620042 
-0.125351 
-3.550139 
-4.304068 
-4.442843 
-69.828041 
-2.433179 
-2.028594 
-3.348568 
-0.049165 
0.307898 
-1.040660 
0.739219 
0.227264 
0.217410 
0.049445 
-0.082627 
-1.075061 
0.154176 
-0.960616 
-0.271645 
-0.248889 
-0.538638 
0.386303 
-0.186159 
0.873509 
0.380117 
-1.548985 
-0.765732 
0.425893 
-0.820098 
-0.190588 
0.118677 
1.370083 
0.410076 
-0.742726 
0.819797 
0.546352 
0.394819 
0.185226 
0.510044 
0.236266 
-0.155827 
0.308883 
-0.407102 
-0.374371 
0.461189 
-0.459876 
-0.103985 
-0.073040 
0.625934 
-0.696496 
0.217148 
0.362041 
-0.198428 
3.056073 
0.454634 
0.647187 
1.265104 
1.194091 
3.004092 
-0.260750 
-0.254393 
-0.805821 
-0.542741 
0.428517 
0.306530 
-0.362560 
0.034876 
0.169905 
1.389804 
-0.109670 
0.090749 
-0.411931 
0.483573 
-0.003998 
-0.258450 
0.313574 
-0.410077 
-0.273298 
0.266653 
-0.684996 
0.417978 
-0.755208 
-0.514122 
0.169806 
-0.649007 
0.083865 
-1.293465 
-0.611164 
-0.584611 
0.211869 
-0.891382 
0.476807 
0.096222 
-0.560217 
0.679774 
-0.164464 
0.417879 
-0.237670 
-0.028962 
-0.124693 
-0.596426 
-0.028101 
0.088541 
-0.853617 
-0.117467 
0.542570 
0.108097 
-0.006215 
-0.140151 
0.169468 
0.382342 
-0.499938 
-0.062855 
0.152766 
0.052950 
-0.187273 
0.489073 
-0.639546 
0.500288 
-53.552971 
0.188405 
0.265458 
0.673838 
-0.436055 
-38.536777 
-11.755726 
-15.005812 
-26.338623 
-0.423414 
0.648688 
-1.147204 
-0.469801 
0.147507 
-0.025829 
0.373501 
-2.583192 
-0.344823 
0.223109 
0.425191 
0.064058 
-0.064654 
1.008425 
-0.257912 
-0.193751 
0.330164 
1.915077 
-0.540401 
0.027077 
-0.157589 
0.535800 
0.313120 
-0.727037 
-0.268478 
0.136388 
-0.030145 
0.084967 
-0.338030 
0.192599 
0.192704 
-0.531069 
-0.253932 
-0.475417 
0.403633 
-31.535301 
0.367254 
-9.443008 
-11.522662 
-25.780657 
-37.598778 
1.474660 
2.514540 
4.456004 
0.377117 
0.534502 
-1.197457 
-0.090127 
0.185027 
-0.321289 
-4.161896 
0.373613 
-0.542344 
-0.564077 
-1.341402 
0.266366 
0.307794 
-0.119507 
0.587998 
0.846477 
-0.074938 
-0.029967 
-0.181560 
0.310499 
-0.327141 
-0.004099 
-0.142685 
-0.423712 
-0.328738 
-0.161584 
0.715357 
0.160587 
0.132005 
-0.305624 
-0.303965 
0.330867 
-0.004999 
0.776020 
-0.389714 
0.510132 
0.069124 
-0.153159 
-0.222630 
0.258258 
-0.137213 
-0.777380 
-0.652386 
0.016909 
0.475461 
-0.220411 
0.199478 
0.071637 
-0.418907 
-0.022691 
-0.536494 
-0.036008 
-0.611346 
0.756048 
0.113040 
0.095247 
-0.572051 
-0.260705 
-0.011695 
-0.363453 
0.406280 
0.089982 
-0.023508 
0.646010 
0.061032 
-0.299888 
-0.290627 
-0.185044 
0.070903 
-0.097641 
-0.309404 
-0.212750 
-0.746538 
-0.070917 
-0.912851 
0.361831 
-0.367500 
0.283174 
-0.111586 
0.040218 
0.313632 
-0.263110 
-0.685784 
-0.245758 
0.016225 
0.149661 
-0.287761 
-0.230407 
0.051577 
-0.340990 
-0.889558 
0.309747 
-0.471058 
0.574782 
0.721875 
-0.407157 
0.583205 
0.413795 
-0.116528 
-0.018915 
-0.799043 
-0.816710 
0.414982 
-0.031877 
0.989222 
-0.197274 
0.271008 
0.139712 
0.090303 
-0.157462 
0.049558 
-0.353137 
-0.268459 
-0.139148 
-0.005138 
-0.067637 
0.474079 
