-0.443648 
-0.206336 
-0.097720 
0.087985 
-0.288888 
-0.410321 
-0.741874 
0.077059 
-0.745750 
0.312113 
-0.172796 
-0.130802 
-0.021271 
-0.747124 
-0.356151 
-0.570574 
0.476608 
-0.102115 
-0.512955 
0.424574 
0.760889 
-0.432587 
-0.333823 
0.133757 
-0.287924 
-0.166653 
-0.808190 
-0.252601 
0.869891 
0.777612 
0.710344 
0.438187 
-0.102664 
-0.095516 
0.649835 
-0.422740 
0.235407 
-0.016589 
-0.038846 
0.602776 
0.519791 
-0.374253 
-0.689643 
-0.286661 
-0.614304 
0.563488 
0.576771 
0.124882 
-0.500334 
0.039578 
-0.270970 
-0.024110 
-0.251149 
0.206560 
0.745301 
0.548968 
-0.404358 
-0.355721 
0.590868 
-0.761802 
-0.551046 
-0.056033 
0.335490 
0.171142 
-0.033969 
0.270709 
0.886094 
0.018658 
0.252210 
0.605289 
-0.783214 
-0.452610 
-0.433056 
0.182745 
-0.626365 
-0.126630 
0.036024 
0.832365 
0.278616 
-0.795618 
0.265326 
0.068981 
0.641754 
-0.667840 
0.240761 
-0.328104 
0.141437 
-0.155608 
0.701024 
0.745618 
0.312561 
-0.387648 
-0.753575 
0.028935 
0.519120 
0.540117 
-0.116770 
0.548021 
0.308268 
0.794244 
0.039827 
0.799768 
-0.086304 
0.365673 
-0.152562 
0.112949 
-0.301431 
0.185827 
-0.422938 
0.244514 
-0.126255 
-0.135369 
-0.257293 
-0.501312 
-0.206220 
-0.886738 
0.399807 
-0.525101 
-0.326394 
0.601351 
-0.400342 
0.001433 
-0.113882 
0.305477 
0.247198 
-0.044742 
0.708071 
-0.448153 
0.673635 
-0.639073 
-0.402377 
0.147465 
-0.001745 
0.994626 
0.112846 
-0.390424 
0.040035 
-0.463489 
0.602514 
0.329752 
-0.058124 
0.272160 
-0.011414 
0.401379 
0.090919 
0.084315 
-0.083576 
0.224160 
-0.257568 
0.284149 
-0.608631 
0.257796 
0.021935 
0.609692 
-0.435879 
0.560919 
0.308226 
-0.135210 
0.329487 
0.095302 
0.065292 
-0.655721 
-0.474748 
0.323112 
-0.577136 
-0.105612 
-0.412463 
-0.165796 
-0.293631 
-0.372934 
-0.585734 
-0.577498 
-0.113315 
0.276124 
0.019549 
-0.192938 
0.342479 
0.393719 
0.779931 
0.033371 
0.390572 
-0.008522 
0.207181 
0.364391 
0.303812 
-0.319637 
-0.785943 
-0.329708 
-0.174622 
0.306616 
-0.120704 
-0.677488 
0.188839 
0.144214 
-0.284127 
0.577614 
-0.371416 
-0.623646 
0.432587 
-0.524012 
0.399253 
-0.519641 
0.199303 
-0.777119 
-0.743341 
-0.348460 
0.418969 
0.089999 
-0.430372 
-0.933470 
-0.010712 
-0.200171 
-0.272622 
-0.528306 
-0.934690 
-0.584704 
0.208441 
0.342113 
0.383675 
-0.159027 
-0.137574 
0.605867 
0.719021 
-0.860656 
-0.620510 
0.448214 
-0.220933 
-0.719971 
-0.209418 
-0.584846 
-0.698805 
-1.037175 
-0.242269 
0.123513 
0.096074 
0.386132 
-0.232964 
-0.590354 
0.205126 
0.349143 
-0.515882 
-0.502104 
0.022582 
-0.419869 
-0.337492 
0.990958 
-0.459959 
0.250666 
-1.166395 
-0.190149 
0.416407 
-1.023969 
0.166986 
0.328865 
-0.169574 
1.077409 
