0.772179 
-0.003388 
-0.283120 
0.078677 
0.452681 
-0.293741 
-0.567583 
0.038057 
-0.177496 
-0.785180 
-0.309641 
-0.948790 
0.231849 
0.079501 
0.162236 
0.069216 
0.396435 
0.149052 
0.143254 
-0.345134 
-0.474082 
-0.170568 
-0.064672 
0.490020 
0.014125 
-0.154448 
0.774797 
-0.566439 
-0.480940 
-0.474441 
0.149785 
-0.478059 
0.599902 
-0.542798 
0.679758 
0.084499 
-0.446403 
0.041526 
-0.250055 
0.115116 
-0.149297 
0.082537 
0.389163 
-0.361583 
-0.385664 
0.623593 
0.505907 
-0.063295 
0.897230 
-0.460023 
-0.047479 
-0.402234 
-0.007545 
0.067789 
-0.026643 
-0.210451 
-0.428811 
-0.483402 
0.069922 
-0.211256 
-0.340906 
-0.867181 
-0.334239 
-0.097880 
-0.689444 
-0.928678 
0.450657 
-0.768005 
-0.223676 
0.114025 
-0.441941 
0.233943 
-0.829987 
-0.396771 
-0.471572 
-0.355719 
0.568377 
-0.369363 
-0.118783 
0.163674 
-0.354880 
-0.168544 
0.008147 
0.070083 
-0.095584 
-0.319241 
-0.393523 
-0.394482 
-0.863552 
0.156697 
0.448745 
-0.351442 
-0.256369 
0.133009 
-0.087656 
0.481094 
0.287078 
0.055025 
-0.206885 
0.177559 
0.641368 
-0.717352 
-0.287698 
-0.727491 
0.661877 
-0.236301 
0.019745 
0.730938 
-0.899602 
0.362896 
0.135347 
0.477341 
-0.868758 
-0.505038 
-0.495661 
-0.565051 
0.497807 
-0.026765 
-0.890877 
-0.784020 
-0.451888 
-0.385266 
-0.134983 
-0.446760 
-0.129704 
0.660146 
-0.352824 
-0.483688 
-0.087924 
-0.035890 
-0.203619 
0.142766 
-0.832881 
0.375896 
-0.387890 
0.034974 
0.213599 
-0.495041 
-0.763726 
0.375988 
-0.145329 
-0.240958 
0.043700 
0.407686 
-0.283683 
-0.824274 
0.143398 
-0.404706 
-0.440154 
-0.301147 
-0.284524 
-0.035618 
-0.292290 
-0.131260 
0.009643 
0.082461 
-0.816492 
-0.070308 
-0.372388 
0.825922 
-0.431478 
0.205512 
0.468246 
-0.817442 
-0.030305 
0.064697 
0.506778 
-0.161943 
-0.296956 
-0.238584 
-0.314277 
0.179520 
0.436079 
-0.299071 
-0.237204 
-0.175724 
-0.086836 
0.304315 
0.079426 
0.887043 
0.737921 
-0.126746 
0.008661 
0.152470 
-0.515304 
-0.181366 
0.391217 
-0.196368 
-0.187500 
-0.868993 
-0.413262 
0.210677 
-0.384583 
0.079811 
0.816553 
-0.624644 
0.687429 
0.052889 
0.657002 
0.003571 
0.015534 
0.482528 
-0.123569 
0.717521 
0.153325 
-0.299387 
-0.298837 
-0.581734 
0.746452 
-0.079663 
-0.272111 
-0.473883 
-0.324052 
0.653468 
0.305394 
-0.010012 
-0.197241 
-0.451284 
0.796960 
-0.703085 
-0.057934 
-0.475311 
0.436357 
0.003555 
-0.423867 
-0.415084 
0.019931 
-0.215400 
-0.055958 
0.075046 
0.320505 
0.861747 
0.046586 
-0.336278 
0.345443 
-0.435486 
0.150264 
0.196258 
-0.013550 
-0.833983 
-0.031080 
-0.108517 
-0.074931 
0.512354 
0.411457 
0.224737 
-0.089979 
-0.758884 
-0.446641 
-0.075569 
-0.040655 
0.176399 
-0.365733 
-0.790096 
-0.417735 
0.658447 
0.491678 
-0.485669 
-0.468802 
-0.575578 
-0.537585 
-0.242294 
-0.200886 
-0.321517 
0.667857 
0.147997 
-0.439697 
0.311375 
-0.423580 
0.379400 
-0.030523 
-0.178054 
-0.279014 
0.481424 
0.731703 
0.406269 
0.296235 
-0.107492 
0.562970 
-0.368781 
-0.565137 
-0.196457 
0.292920 
0.074785 
-0.248218 
-0.433809 
0.420079 
0.468013 
0.421536 
-0.214506 
0.222466 
0.806790 
-0.083276 
0.980950 
-0.524366 
0.133068 
0.481911 
0.134423 
-0.285602 
0.665173 
-0.733045 
0.109194 
0.515942 
-6.126729 
-6.607236 
6.181056 
-6.200571 
-6.621309 
-6.187069 
-6.516537 
-5.630462 
-6.222508 
-6.592563 
-6.050594 
-6.621672 
-6.156403 
-6.021328 
6.311253 
-5.459475 
5.419089 
-6.494549 
6.185285 
6.348900 
-6.174901 
